9996 32
the -0.030434484 0.03587543 0.04532233 -0.06438925 -0.07526754 0.008478991 0.030795343 -0.14151862 0.027292829 -0.0826564 0.00083632726 -0.023886727 0.027168464 -0.052723505 0.04672216 -0.020190958 -0.041033152 0.14151034 0.038287528 -0.048167348 -0.36113873 0.038470857 0.011757921 0.018388124 -0.06939745 -0.0807479 -0.050725397 -0.014393242 0.080110386 -0.045610953 0.09735747 0.05602338
and -0.04265614 0.001424699 0.12300321 -0.03628656 -0.12005209 0.042763133 0.06755015 -0.13225949 0.08778982 -0.0777673 -0.014924466 0.011060559 0.04663818 0.039990082 0.099980034 -0.020691093 0.0044529396 0.20891272 0.06818015 -0.022506561 -0.28528383 0.003713178 -0.00045750441 0.093238406 0.040380362 -0.13867499 -0.004929334 -0.0184096 0.04324048 0.028114976 0.105957836 0.07752161
a -0.09254373 -0.023311209 -0.019026358 -0.16262339 -0.079074256 -0.03680806 0.021058733 -0.18410902 0.020083314 -0.11775396 -0.117806494 -0.06500656 0.01629093 -0.059118222 0.01632337 0.034089684 -0.09459567 0.2061274 0.05115587 -0.034614734 -0.080571264 0.0048367465 0.01676409 -0.015473742 -0.06804956 -0.03243252 0.06511285 -0.11135608 0.07231759 0.016340699 0.087800585 -0.020745525
of -0.076645516 -0.0011535871 -0.0015119736 -0.07309729 -0.08839128 0.03674899 0.08164681 -0.13045959 0.06571352 -0.047483183 -0.026878247 -0.062132735 0.0038515693 -0.036900494 0.017289246 0.06666711 -0.037195846 0.11549329 0.09437796 -0.020243276 -0.09239154 0.058581233 0.023454316 0.014778754 -0.06441951 -0.03576397 -0.017702721 -0.0167465 0.06214996 0.009008411 0.12950042 -0.0501626
to -0.044659477 -0.049525544 0.064343154 -0.074726515 -0.08590148 0.00301465 0.11720177 -0.076637186 0.06291739 -0.06875135 0.002629311 0.016829943 0.023811221 -0.013841727 0.099581055 0.030814039 0.06173587 0.23395449 0.11936709 -0.017578388 -0.20097014 0.10126442 0.0037621998 0.0302142 0.06920748 -0.12004148 -0.031760395 0.027620256 -0.0008605068 0.003383202 0.08093543 0.054260317
is -0.24133435 0.22304106 0.11005492 -0.13120477 -0.08391707 -0.037343152 -0.047979742 -0.10788345 -0.0056093796 -0.18553843 -0.039138183 -0.09844348 0.21615788 0.024006752 -0.024583869 -0.0004297436 -0.005733642 0.21180904 -0.057244033 -0.07956744 -0.2885414 0.0011428221 0.021521388 -0.0005215446 -0.07021212 -0.12406433 0.11884808 -0.118680894 0.112238355 0.011814968 0.16193852 0.077887386
br 0.024320753 -0.06766029 -0.031731404 -0.11212501 -0.13621272 0.042151272 0.15672128 -0.17235185 0.062138062 -0.061230652 -0.030374842 0.008417165 -0.066839606 -0.12144868 -0.028606411 -0.006251116 0.038409524 0.07473498 -0.010932155 -0.03568537 -0.019037485 0.083610244 0.05435444 -0.066050276 0.0148386285 -0.1200057 -0.06188149 -0.052113887 0.012284385 -0.07419948 0.07113359 0.049238965
in -0.13871954 -0.03541276 0.04556691 -0.03501348 -0.06762725 -0.014281979 0.0010674048 -0.16956753 0.0064805914 -0.0826694 -0.09350157 -0.108469896 0.020041643 -0.011915849 0.06322513 0.06579293 -0.045226015 0.1922633 0.0674741 -0.030600138 -0.31129694 0.0031127 -0.0010904005 0.036400616 -0.0025463603 -0.09279101 0.01597381 -0.074955836 -0.010649301 0.014935525 0.07690435 -0.014765856
it -0.14167193 0.05378543 0.038153328 -0.13920335 -0.11521066 -0.065301076 0.063265584 -0.13790761 0.03321076 -0.13473757 -0.0801815 -0.050970033 0.044672705 -0.042374782 0.013245762 0.06596259 -0.013122737 0.24668385 -0.004309926 0.010511183 -0.26424095 0.03576373 0.059293184 -0.014949314 -0.002692172 -0.10485349 0.020461194 -0.024840795 0.041625664 0.016504828 0.17752908 0.032181136
i -0.050156847 -0.078643955 0.060881387 -0.091877356 -0.17170645 0.08704425 0.04862891 -0.040778745 0.07968026 0.035201017 0.034080293 0.05257819 -0.053455207 -0.08776805 0.0427602 0.009674473 -0.019837597 0.16900319 0.06680843 -0.05695369 -0.111098945 0.02328289 -0.009981571 0.02448011 0.069759764 -0.10820163 -0.04485746 0.05120237 0.004088978 0.022433918 0.07425339 0.115660205
this -0.15387852 0.1339619 0.10583594 -0.13949986 -0.12345524 0.040762823 0.1615212 -0.09586017 0.13124418 -0.07406329 0.0023643721 -0.007537178 0.07976469 -0.026712816 0.11403267 -0.04333549 0.064945646 0.25439686 0.047565237 -0.1050249 -0.22889782 0.09372333 -0.014918294 0.11071814 0.055091124 -0.11271275 0.0038327072 0.013418384 -0.018703196 0.06347875 0.061758295 0.065071344
that -0.1754909 -0.032402888 0.04310386 -0.097737275 -0.021321477 -0.032491736 -0.042290136 -0.08552337 -0.008689827 -0.13392758 -0.0048557324 -0.10514008 0.12558244 -0.05162173 0.11604335 -0.00851133 -0.035329007 0.17806046 -0.03967604 -0.034440953 -0.22710809 0.011538693 0.010030168 -0.02477725 -0.087975435 0.012554547 0.063619874 -0.01621408 -0.00605853 0.04427149 0.1727604 -0.05639453
was -0.025968041 0.06990564 0.04073734 0.028145375 -0.06394206 0.067641586 0.034102954 0.018153185 0.006815551 -0.040660676 0.053541545 0.0737943 -0.0078044874 0.024953894 0.11709753 -0.039594427 0.07392751 0.11145467 -0.0057224846 -0.020947475 -0.22431062 0.014119052 -0.047120817 0.037368394 0.003235608 0.008656422 -0.006177768 0.04120784 -0.06241371 0.027131522 -0.00026160642 0.022187626
as -0.0643835 0.06526988 0.10991188 0.011837811 -0.06484812 0.06869409 0.046933785 -0.03572159 0.015310213 -0.025840301 -0.013982021 -0.017546378 0.019394731 0.10002443 0.07888909 -0.09235735 0.06715281 0.25733235 0.09436772 -0.08938005 -0.29466763 0.084209025 -0.10526449 0.03585115 -0.05263405 -0.053042803 0.035015296 0.07718486 -0.025720641 0.0674495 0.0543104 0.015248221
for -0.09185069 0.017436083 0.04306987 -0.04029861 -0.013178026 -0.031103583 0.07656889 -0.047546983 -0.012536724 -0.05545574 0.014573206 -0.048068624 -0.012142882 -0.058327053 0.08447736 0.016236817 -0.039955467 0.088578634 0.0052748695 -0.024906239 -0.14641678 0.061779313 -0.0142747685 0.032321896 -0.06323202 -0.085920066 -0.03155964 -0.06808739 0.0028215998 -0.018270127 0.124257766 -0.0018965326
with -0.057470534 0.16758919 0.15982242 0.009709926 -0.18134448 0.10712852 0.0672608 -0.046142794 0.10069825 0.01456891 0.076680675 0.06846774 0.031017596 0.0028285228 0.15880372 -0.06977451 0.07101881 0.3618563 0.13582389 -0.1658902 -0.26079944 0.1455786 -0.11034316 0.07360273 0.040444452 -0.12729003 0.000116998184 0.0067090755 -0.09979448 0.052684974 0.076619096 0.05933863
movie -0.1369943 0.15418246 0.08148099 -0.043998 -0.13812558 0.057933178 0.14588603 -0.018543191 0.095451616 -0.010560989 0.029843688 -0.018618843 -0.0740332 -0.04886587 0.028038437 -0.046164818 0.001248935 0.16637106 0.055784576 -0.0797798 -0.18045211 0.12526637 -0.051780827 0.07122944 0.0035562092 -0.12242875 -0.0061940053 0.019108366 0.026614083 0.06250542 0.06458996 0.102202944
but -0.013346088 0.05047494 0.016781446 -0.08462489 -0.012452128 0.006227539 0.053038277 -0.15158401 -0.022295538 -0.039357573 -0.051317405 -0.050685517 0.015943578 -0.095416166 -0.04196959 0.070182234 -0.09751672 0.06114699 -0.043924365 -0.0022121149 -0.05869702 0.0034354082 0.047477268 -0.043961044 -0.039761562 -0.020952044 -0.020058904 -0.072840594 0.09631812 -0.11192639 0.07200523 0.008271439
film 0.016003367 0.062890366 0.096486 -0.08480246 -0.03749222 0.015243406 -0.006386845 -0.1019384 0.05732803 -0.059138395 0.010038983 0.004469376 0.06961271 -0.051094312 0.012929335 -0.031461887 -0.07066841 0.17862919 -0.07249419 0.0053222156 -0.098416746 0.032127872 0.04786596 -0.050933726 0.027333356 -0.10292086 0.04064468 -0.09088164 -0.018474149 0.010486844 0.08618195 0.01669972
on -0.034034997 0.05480357 0.12641364 -0.014971971 -0.120605744 0.071604334 0.09814558 -0.034655914 0.057947055 0.08206519 0.098999575 0.015767097 -0.02037183 0.11346299 0.090903364 -0.07995431 0.123045795 0.21698712 0.06589815 -0.08518812 -0.15304555 0.09858496 -0.09327475 0.10736427 0.07003489 -0.15562363 -0.029475393 0.010422613 -0.10542469 0.058829755 0.02080603 0.07062399
not -0.19054583 0.33727413 0.14865577 -0.12277061 -0.16229974 0.05833672 0.015102186 -0.12407591 0.15926436 -0.03456295 -0.016319832 0.030359454 0.1524992 0.042332217 0.17298883 -0.11024026 0.02095261 0.3372858 0.07341717 -0.17595404 -0.41853234 0.0438016 -0.11785147 0.083671086 0.0072364053 -0.13383642 0.08602428 0.017141273 -0.05034583 0.07624798 0.10425308 0.10014189
you -0.042916305 -0.06670301 -0.077348605 -0.20689797 0.050404545 -0.06127704 -0.059193775 -0.18195687 -0.05187673 -0.046966188 -0.15882906 -0.05635819 0.07564605 -0.15068285 -0.02700323 0.0745142 -0.08630299 0.013177397 -0.06258377 0.07831914 -0.10292269 -0.106829055 0.15201485 -0.15439391 -0.052872185 0.0056741675 0.04016157 -0.13091733 0.113002606 -0.10325463 0.07706075 -0.07289684
are 0.00017383102 0.09366469 0.1180839 0.0519475 -0.14345223 0.07564418 0.060891643 0.06331128 0.09320232 0.07614126 0.10868629 0.11352357 -0.016117273 0.06297277 0.107086755 -0.085710764 0.11126706 0.11952588 0.1235685 -0.11315707 -0.032843307 0.11149639 -0.12450742 0.14781041 0.06548357 -0.08569851 -0.11249147 0.13818261 -0.07293118 0.09350972 -0.08519063 0.10714978
his -0.16153997 0.09639671 0.037772756 -0.12068069 -0.083220616 -0.103850804 0.044632673 -0.08421268 0.023113053 -0.1581874 -0.045188557 -0.08346001 -0.0005524981 -0.04013485 0.039950952 0.04227308 -0.075882025 0.23960248 0.038401842 -0.022260623 -0.12130519 -0.020976206 0.008081283 0.013444523 -0.07323616 -0.046033345 0.08911625 -0.10013754 0.058558866 -0.06971337 0.1236827 -0.069914326
have -0.0607424 -0.041209746 0.0043001343 -0.013321128 -0.04278384 -0.0024026334 0.0450489 -0.0669167 0.09023061 -0.049987443 0.03391876 -0.037887372 0.04831127 -0.04899893 0.10499565 -0.06316302 0.06525931 0.21805191 0.03597504 -0.015594902 -0.18399443 0.005767717 0.007078774 0.0065465965 0.014243111 -0.007685109 -0.053589396 0.02118871 -0.053700082 0.03430011 0.031501777 -0.023560544
he -0.013827616 0.07113532 0.07708079 0.010353268 -0.09077124 0.064473666 -0.022132091 -0.030218918 0.06923455 0.057753853 0.026708627 -0.0037353346 0.0064697154 0.04003155 0.073252246 -0.020165779 0.048468083 0.06010356 0.04423998 -0.024289966 -0.0037222067 0.048428696 -0.07603147 0.023183696 0.049012173 -0.039157886 -0.035942562 0.0073045297 0.0099139 0.06230972 0.0015865684 0.04039699
be -0.1059979 0.033344842 0.034588214 -0.092933364 -0.072727524 -0.013239213 0.0032516425 -0.13993277 -0.01010403 -0.019876175 -0.0244383 0.0025314419 0.039309327 -0.037580047 0.0057444647 0.013132216 -0.04260511 0.066743486 0.04491322 -0.027645184 -0.1435643 0.05169392 0.046905473 0.044072505 -0.0078106695 -0.06931226 0.0463491 -0.070118226 0.03283906 0.008728112 0.039933417 0.0121641345
one -0.04822533 0.084314436 0.0815941 -0.021886684 -0.12433162 0.088785976 0.13119403 -0.09632679 0.10981707 -0.014082719 0.039424192 -0.036919016 0.04728986 -0.020455869 0.11225937 -0.031307526 0.03616584 0.15329483 0.12943715 -0.077764384 -0.12191634 0.16315469 -0.079469964 0.1102978 0.03673997 -0.15328126 0.0054589333 0.020710327 -0.018385086 0.050714992 0.01477794 0.1415586
all 0.00069534127 0.0044867243 0.008820737 -0.15150394 -0.1009232 0.012085283 0.07704501 -0.13458136 0.0044322116 -0.052713268 -0.07668194 -0.087525524 -0.0054851314 -0.02786324 0.04939491 -0.015601088 0.023043966 0.1930572 0.035145767 -0.059610505 -0.1565609 0.036158 0.04434658 -0.028100276 -0.028057512 -0.13021123 0.053458218 -0.052478973 -0.011006911 -0.046586096 0.071158186 0.039743572
at 0.06363467 -0.0399906 -0.0019278906 -0.101770855 -0.09494312 -0.010592583 -0.015746098 -0.054165754 -0.0155814495 0.009024058 -0.070487015 -0.018026533 -0.088706955 -0.13130282 0.0126802325 0.030153321 -0.061980687 0.08953993 0.027729044 0.048159014 0.08793493 0.037559662 0.056028552 -0.021372672 0.008526406 -0.027197871 -0.0064547667 0.0039105797 0.009904932 -0.013745005 0.038630977 -0.0038527932
by 0.049145076 -0.066242985 0.009404882 0.007333382 -0.02324107 0.03274851 0.03251563 0.038729835 -0.001174899 -0.021750724 -0.0031209432 0.052931957 -0.02050202 0.0012000074 -0.017260354 0.02570092 0.054116506 0.07216877 0.06557002 0.03390367 0.09785892 0.065213524 0.029418083 0.030915568 0.0659251 -0.021953084 -0.034892816 -0.0033735144 0.020117266 -0.019667134 -0.050431397 0.027179308
an -0.014930116 0.16613808 0.06992999 -0.1044024 -0.14381763 0.026987484 0.017630426 -0.09050127 0.033388995 -0.0085262135 -0.051619746 0.01498185 0.019880475 0.0013405888 0.022062074 0.032170404 0.0235933 0.06308707 0.09589017 -0.05468155 -0.1592516 0.0062285666 -0.057272963 0.03927781 0.059608325 -0.08415904 0.030759634 0.017762963 0.02719047 0.06952799 0.03090439 0.08428712
they -0.09784872 0.03326645 0.094466045 0.034551796 -0.07273052 0.030311843 0.024827844 0.013811857 0.022402346 -0.06346478 0.024950895 -0.033218104 -0.0034468959 -0.0073343585 0.03517902 -0.08233646 -0.0031493462 0.2777115 0.0028313303 -0.024483938 -0.17583436 0.08020272 -0.035641927 -0.012875299 0.044541612 -0.017349245 -0.03545597 0.006533958 0.012927732 0.058536433 0.0101988865 0.05896108
who -0.23119676 0.069161795 0.0880171 -0.13262936 -0.06522092 -0.011056042 -0.07140509 -0.20928758 0.035349935 -0.1212683 -0.12096116 -0.13286594 0.24274328 -0.07524771 0.029109394 0.060298804 -0.034552533 0.20285574 0.020984517 -0.019202212 -0.19180605 0.06524619 -0.0042124265 -0.033836633 0.02874 -0.045889653 0.07724413 -0.08596173 0.021475088 -0.038174275 0.15742864 0.04435573
so 0.011005395 0.16931671 0.19812727 0.002597498 -0.18240373 0.12615438 0.06618483 0.032793462 0.13535216 0.061269894 0.13980134 0.097378105 -0.06428527 0.0015343573 0.1569018 -0.13173094 0.0958489 0.21932518 0.07140182 -0.15483536 -0.18865268 0.08395693 -0.07444193 0.1200146 0.1288318 -0.13745296 -0.055812616 0.0998902 -0.13934632 0.10398276 -0.052068356 0.14833428
from -0.18239336 0.25560006 0.17958705 -0.13922758 -0.121248156 0.05600105 -0.015586441 -0.06415273 0.0781108 -0.065514855 0.00876988 0.020079251 0.14606343 -0.021068148 0.07876955 -0.05053204 0.008289936 0.25709307 0.019746264 -0.10219535 -0.29641438 0.111175165 -0.10003448 0.12072552 0.04894613 -0.116063945 0.018317454 0.034878492 0.0050816964 0.034401987 0.094508514 0.103134185
like 0.07531647 0.008582073 -0.005896033 -0.008275792 -0.03747314 0.011417712 0.045204952 -0.06015697 0.0038136553 -0.00103806 0.02762551 0.030814627 -0.0016454482 -0.061008256 -0.063127674 0.0017879381 -0.048438266 0.045443233 0.024967307 -0.0029034244 0.077769965 0.07672893 0.011813818 0.036573242 0.048412405 -0.08949249 -0.049019765 -0.038409088 -0.005764328 0.014964886 -0.063332595 0.029120918
her 0.030474192 0.002367975 0.055064924 0.0458393 -0.039211385 0.08140616 0.15605508 0.019371688 0.0564092 0.09674917 0.0414738 -0.005974408 -0.13380402 -0.040986963 -0.048192527 0.01148387 0.07613276 0.03020551 0.09559472 -0.025474552 0.037606288 0.039211746 0.027735291 0.0516366 0.07155331 -0.12341846 -0.095332764 0.007288341 -0.03440927 -0.04438355 -0.116437174 0.07841451
or -0.11296917 0.15588103 0.086172305 -0.11283073 -0.18346408 0.05026389 0.050308835 -0.12973888 0.11430225 -0.029612012 -0.044287562 -0.07263377 0.041916076 -0.0817823 0.11452648 -0.05615863 0.07292255 0.20017214 0.028556557 -0.04751284 -0.12532166 0.069014154 -0.02201914 0.064229146 0.06753717 -0.15780923 -0.025706034 -0.020486908 0.024721293 0.023880905 0.06751599 0.050744623
just 0.19125195 0.12265715 0.12745243 0.08338529 -0.17091747 0.12637466 0.17177159 0.08083248 0.14542946 0.084449634 0.16577968 0.18590344 -0.13952571 0.108701125 0.13245904 -0.16090144 0.09646899 0.09671107 0.10044912 -0.12782903 0.039996315 0.22227733 -0.12721403 0.121813394 0.14913055 -0.1553843 -0.16542022 0.118450224 -0.1147077 0.16108796 -0.10560519 0.1567544
about -0.024295045 0.014700815 0.12190982 -0.052718945 -0.13342965 0.05792503 0.092605256 0.0012917441 0.10879438 -0.040716365 0.043208666 0.017814426 -0.0023103757 -0.027968917 0.027632307 1.6759514e-06 0.013258889 0.1362352 0.040444005 -0.08023301 -0.13730705 0.1027459 -0.023648798 0.009334488 0.06980183 -0.051564477 -0.031448398 0.039748654 -0.032441024 0.044725087 0.06668822 0.044869304
it's -0.030478721 0.18154861 0.118769586 -0.13844359 -0.12382238 -0.046566572 0.027882325 -0.16132204 0.0935594 -0.067116275 -0.0012578786 0.020426646 0.0029905569 -0.08656216 0.05966437 -0.055466413 -0.008436071 0.24110845 0.044107 -0.07516037 -0.12498736 0.10082443 -0.015280463 -0.027377618 0.046274394 -0.09448889 0.06103058 -0.07036141 0.03012481 0.004151719 0.13336775 0.049828723
out 0.016667701 0.16278474 0.16361757 0.026684612 -0.12531206 0.070756264 0.124779575 0.0005120503 0.1230063 0.028484844 0.042908978 0.08702018 -0.018305397 0.062420495 0.09111794 -0.13502169 0.08273076 0.13851614 0.16822313 -0.076025575 -0.098245345 0.13209857 -0.09451257 0.15824586 0.091012515 -0.1381909 -0.07871189 0.09806717 -0.110242836 0.12928697 -0.010806148 0.13639198
has -0.03264388 -0.031619795 0.082721606 -0.03279335 -0.0019165339 0.062297583 -0.035684686 -0.034871604 0.03737243 0.0094197625 0.03246439 0.034237918 0.06910352 -0.037495438 0.025067061 0.044679813 0.02551307 -0.05109513 0.015325543 -0.019216992 0.0072242646 -0.01989856 0.030732846 0.024987498 -0.039091606 -0.047011726 -0.0069011725 0.055635028 -0.01721218 -0.0044705486 0.036665212 0.029747197
if 0.10811184 -0.06371558 -0.06931244 -0.023267893 0.07205597 0.009908469 -0.0052329954 -0.024656255 -0.08202174 -0.0455606 -0.036264993 0.024084887 -0.04800213 -0.001198247 -0.09068127 0.006357722 -0.028040266 -0.09307126 -0.041169215 -0.006358138 0.124352895 -0.08532282 0.08317092 -0.071282625 -0.03828302 -0.004157079 -0.042839315 0.0009764082 0.048005525 -0.0078721 0.028321208 -0.022277342
some 0.016258152 0.12225027 0.12043905 0.083809406 -0.09723121 0.1454214 -0.0073037883 0.09868243 0.09887973 0.118700355 0.11845723 0.06463031 -0.07039131 0.1384826 0.09354393 -0.15614223 0.056601625 0.06831379 0.1098747 -0.065038055 -0.011793137 0.062788956 -0.06972344 0.081229486 0.036955442 -0.08494827 -0.048676595 0.11814572 -0.16932507 0.09338264 -0.0722089 0.04459415
there -0.037592024 0.061856396 0.038247578 0.07739383 -0.021909712 0.0014601971 0.03865421 -0.021296114 0.09555489 0.017711591 0.05039207 0.036911834 0.048431166 -0.023807397 0.09820023 -0.026985846 0.08735388 0.06544946 0.01528052 -0.0023025419 -0.13306776 0.042425465 -0.041591607 0.05558957 -0.019073509 -0.020565197 -0.054565303 0.016632324 -0.08724476 0.05559355 -0.05565311 0.06861003
what -0.120490514 -0.043769218 -0.059566893 -0.07504331 0.06114131 -0.044898685 -0.06710507 -0.118357845 -0.014635402 -0.060370054 -0.08022838 -0.12576084 0.13149843 -0.048607916 0.020194268 0.108331546 -0.08235752 0.06333891 -0.062907174 0.07027 -0.18979155 -0.07721396 0.025638402 -0.06942702 -0.07152037 0.028814018 0.06742569 -0.05066691 0.048876 0.00295599 0.0800685 -0.04383199
good -0.07772133 0.15131395 0.0018613576 -0.1354119 -0.031818595 -0.009366012 -0.013407782 -0.14194648 0.037769288 -0.13537757 -0.114107914 -0.031171685 0.09667263 -0.08570492 0.041278895 0.0044372254 -0.09390993 0.14622808 -0.059712052 -0.034907352 -0.19015698 0.0057143685 0.084293544 -0.073137 -0.13899693 -0.03661596 0.053287294 -0.039703347 0.10641109 -0.04684298 0.12951581 -0.008427838
more -0.05103241 -0.048760723 -0.005580933 -0.06950531 -0.07147644 0.0015274774 0.012799392 -0.08506703 0.014979028 -0.040446132 -0.032695293 0.031548716 -0.011331094 -0.0036668074 0.03812815 0.017363798 0.05635339 0.06047546 0.016031148 -0.031060947 -0.014627399 0.024558812 -0.031938635 -0.022322243 0.044836227 -0.08262791 -0.04414505 -0.0009935397 -0.045248143 0.01913554 -0.008939077 0.051969428
when -0.15159625 0.014005333 -0.057646047 -0.0826733 -0.004187981 -0.07206336 -0.035898253 -0.18547018 -0.029183432 -0.1197914 -0.14714819 -0.1410276 0.06539569 -0.10389979 -0.028111288 0.075379744 -0.11139121 0.008044771 -0.08935975 0.012978827 -0.15353271 -0.015276617 0.054909624 -0.09254358 -0.037985824 -0.017561318 0.051141214 -0.11207003 0.07383365 -0.109779015 0.1957875 -0.009124554
very -0.2694849 0.21386197 0.108914174 -0.2605143 -0.09500216 0.01598837 -0.009554076 -0.20886639 0.052851122 -0.1445458 -0.053839102 -0.11095862 0.14938882 -0.08306664 -0.0010481251 -0.031611957 -0.023602804 0.31103963 0.048611403 -0.1035929 -0.3754233 0.047067743 0.021436026 -0.05488646 -0.021951847 -0.13965838 0.08939982 -0.06367347 0.11969708 -0.08566141 0.18869148 0.088380255
up -0.0010080249 0.048018657 0.025959639 -0.08359308 -0.088262595 -0.06486498 -0.015476443 -0.18808018 0.043758675 -0.10415763 -0.021126918 -0.047579557 -0.09147763 -0.050501227 0.08815982 0.016649088 -0.04626556 0.20584527 -0.03560322 -0.010740379 -0.17871358 0.03497688 0.03411473 -0.033498507 -0.025051488 -0.103921354 0.017520957 -0.09905855 0.066711016 -0.054454703 0.17496257 0.050432764
no -0.03192726 0.23661457 0.2639924 0.0073938556 -0.22186139 0.078365035 0.0910541 -0.017222006 0.17792241 0.045612317 0.13010594 0.07870181 -0.005278161 0.13261582 0.21461742 -0.10265416 0.14070682 0.25708565 0.09618079 -0.17523986 -0.2662706 0.13468967 -0.11148551 0.12170943 0.19395301 -0.20303081 -0.09448473 0.1208817 -0.13646291 0.12538312 -0.06977413 0.13357319
time 0.05592674 0.010054757 0.1134931 0.018056089 -0.13259433 0.112998165 0.13399734 0.027501598 0.119201094 0.05153799 0.04999401 0.07000953 -0.13309404 0.03760437 0.03804616 -0.012574265 0.05031568 0.18273592 0.118610665 -0.050015505 -0.13085502 0.08900883 -0.07056264 0.10783536 0.08287944 -0.12069388 -0.12027717 0.033555947 -0.04203053 0.038702928 0.026026422 0.03573506
she -0.078680575 -0.1079311 -0.10188121 -0.101073444 0.034294926 -0.12104816 -0.056310467 -0.14386036 -0.14133365 -0.04371609 -0.13196582 -0.14267562 0.16546445 -0.1355916 -0.08747119 0.08522217 -0.08880257 -0.042904478 -0.1121666 0.08468702 -0.036708266 -0.06417153 0.06258489 -0.11587477 -0.11730919 0.10688826 0.046256963 -0.12309088 0.09967212 -0.13001677 0.106622115 -0.12108509
even 0.049582858 0.14376618 0.15526944 0.08672188 -0.15757108 0.10736166 0.122497946 0.028622683 0.16340713 0.008729805 0.07710284 0.10351091 -0.021137843 0.1513414 0.13708481 -0.14181021 0.08001734 0.19293158 0.17770031 -0.057689432 -0.17873378 0.10265208 -0.14582527 0.15042235 0.047392033 -0.18587534 -0.07698854 0.05214901 -0.14607295 0.13875832 -0.060573585 0.066165686
my 0.0061945184 0.06900269 0.0066826534 -0.09001614 -0.10846788 0.03527783 0.010565626 -0.08679123 0.0786974 -0.05462698 -0.020474432 -0.051776826 0.09803567 -0.011044826 0.03454491 -0.010796975 -0.057766274 0.11993785 0.052245144 -0.01418718 -0.14226557 0.034539677 0.07029951 -0.01613795 -0.023554336 -0.09797529 -0.048399348 0.027727062 0.0141583495 -0.026833752 0.009393616 0.026036466
would 0.10189774 -0.06671371 0.008741636 0.070905715 0.049450647 0.045871284 -0.019177973 0.0146260075 0.006953634 0.01100327 0.027126472 0.0008663228 -0.036451157 0.03023496 0.002854744 -0.00078254857 -0.015962578 -0.089052044 -0.0036488764 -0.011553547 0.17592771 -0.039861597 0.006705966 0.03696416 -0.030377734 0.0032161977 -0.035454255 0.0058058295 -0.048383832 0.019600516 0.019260382 0.064291164
which -0.14566456 0.20300978 0.2271779 -0.044630926 -0.25107977 0.0981953 0.043506507 -0.08565166 0.14660513 -0.03734826 0.012901589 -0.0007382176 0.027256437 0.071948215 0.14202093 -0.08821983 0.079143226 0.34483674 0.11970701 -0.12651628 -0.26629728 0.120597005 -0.094918035 0.053892653 0.0918559 -0.24447858 0.03529006 0.025483059 -0.02297193 0.049856715 0.060852427 0.103103966
only 0.0027272077 0.04172469 0.05439692 0.024488876 -0.08931699 0.087732926 0.11855963 0.08294216 0.15221101 0.07656829 0.023291385 0.094971895 0.0057612564 0.0912709 0.14401574 -0.08521264 0.07024125 0.08156249 0.1340487 -0.10455156 -0.070055105 0.11794997 -0.08881392 0.064419314 0.10064 -0.10304154 -0.058769803 0.028224815 -0.075867385 0.120471716 -0.08783913 0.16621251
story -0.04071692 0.1286448 0.06597662 -0.16397016 -0.15040384 -0.035170473 0.018370247 -0.11029556 -0.0022740068 -0.08773435 -0.13088891 -0.07349817 -0.06399816 -0.11763173 -0.04698987 0.10568214 -0.09061062 0.16680007 0.049677107 0.014390383 -0.04151684 -0.033977866 0.062466465 -0.04965299 -0.09981414 -0.058043856 0.017325597 -0.1287375 0.09649308 -0.12057142 0.13264221 0.008228428
really -0.02410776 0.050600007 0.06378518 0.016846834 -0.0988506 0.08750518 0.07700431 -0.0054532215 0.05227144 0.06889907 0.11390237 0.056931093 0.071460694 0.056510214 0.052128326 -0.07778742 0.114650846 0.07622286 0.074602984 -0.017887061 -0.0885732 0.06936289 -0.06797673 0.06397279 0.105499774 -0.08946666 -0.004214497 0.11980115 -0.034943875 0.061844934 -0.03803847 0.03563065
see -0.027498264 -0.044900138 0.025810435 -0.020923825 -0.0759433 0.033409417 0.072155796 -0.1248162 0.069264434 -0.036820423 -0.053631492 -0.053525586 -0.028094284 -0.046514478 -0.006573382 0.021694658 0.010001037 0.10931248 0.110210046 -0.045623153 -0.0733962 -0.00038018732 -0.016909007 -0.005531776 0.0350229 -0.08235117 -0.034893885 -0.0077375653 0.026973654 -0.011234375 0.043733798 0.065508164
their -0.011126185 -0.020219365 0.03984726 -0.10187826 -0.067368016 -0.02929689 0.020739052 -0.014202612 0.048168227 0.018277084 -0.06349651 -0.0105382465 0.05262619 0.016782554 -0.01363782 0.01792588 0.021312479 -0.053149067 -0.03638959 0.03631879 0.033602934 -0.036069974 -0.0339262 -0.032643486 0.018546918 -0.015115704 -0.03337356 -0.025861677 -0.02746511 0.0028313452 -0.0070509035 0.0036446764
had -0.0063692546 0.028113889 -0.0047050994 -0.05174468 -0.04820844 -0.008358292 0.16608556 -0.023512403 0.041457646 -0.00093538646 -0.021823512 0.009630979 -0.12461113 -0.07486623 -0.046262905 0.026643092 0.026660046 0.11591893 0.02375555 0.06367473 -0.043068673 0.033090714 0.048696373 -0.04019076 0.0028146496 -0.15268585 -0.0046755094 -0.06720183 0.1069321 -0.08141993 0.0068660993 0.06340872
can -0.0013466161 -0.0763867 -0.029757438 -0.03215976 0.022750927 -0.024011025 0.053470384 -0.08579436 0.057275787 -0.0027450724 0.008585495 0.024944281 -0.032418396 -0.02624162 0.008715451 0.058423817 -0.02503415 0.050566874 -0.023218345 0.018438634 0.047467314 0.046778694 0.043872025 -0.04597478 0.02965391 -0.038655456 0.009356485 0.023206549 0.03762305 0.008332168 0.017391685 0.013682148
were -0.000795095 0.18768463 0.11686173 0.0049169874 -0.1406952 -0.0047498783 0.07012231 -0.008293336 0.10665484 -0.03969289 0.021909915 0.0068397857 0.0044141216 0.058745775 0.030844662 -0.050423514 0.04879109 0.179499 0.04515799 -0.10284157 -0.075079225 0.04011656 -0.024354143 0.053842027 -0.022798901 -0.08493596 0.019227222 -0.015957652 -0.055304196 0.057720467 0.012784644 0.03862366
me -0.13864347 0.21002571 0.12161852 -0.15046655 -0.16205828 0.085390635 0.00963386 -0.12101581 0.15130255 -0.00504063 -0.019844433 -0.00891207 0.07155257 -0.0145866815 0.12541907 -0.05858151 0.028188746 0.23350206 0.0707427 -0.15900174 -0.18209931 0.12530845 0.0048867413 0.061394043 0.05083316 -0.1742364 0.012012133 -0.026678277 -0.012071651 -0.006561816 0.07301056 0.097653195
well -0.21601906 0.09380025 -0.035223313 -0.24782003 -0.03987569 -0.16838092 -0.036199108 -0.3053283 -0.06647942 -0.22116634 -0.17312334 -0.19410649 0.1325893 -0.18485212 -0.051666364 0.12201186 -0.14350025 0.20815077 -0.07676856 0.061144806 -0.20884442 -0.05790107 0.18663992 -0.18915638 -0.049510565 -0.13893509 0.08306444 -0.23410435 0.22178043 -0.18426926 0.1895101 -0.059431702
than -0.26915455 -0.016395247 -0.01837603 -0.29032043 0.028724477 -0.16370223 -0.13956045 -0.31986997 -0.033082142 -0.22638334 -0.1399556 -0.16121286 0.100210115 -0.20013401 -0.04380628 0.089446805 -0.17816281 0.18907511 -0.15407471 0.062334888 -0.16464749 -0.030322822 0.14157951 -0.14880992 -0.100890234 0.017376386 0.12947136 -0.15529437 0.13220027 -0.12894976 0.28383768 -0.04075651
we 0.019124316 -0.067960985 -0.10732171 -0.01451855 0.13657895 -0.047584157 -0.058163546 -0.03725068 -0.09684716 -0.04444267 -0.06073191 -0.015787525 -0.019683473 0.020423414 -0.017731538 0.028159704 -0.0608631 -0.13579668 -0.029548567 0.1071266 0.1062381 -0.0850076 0.0006570149 -0.04789023 -0.05747897 0.12912609 -0.00031263754 -0.019153142 0.024776004 -0.0080407215 0.06187964 -0.14619653
much -0.05103036 0.031587422 -0.03743552 -0.08717997 -0.10485306 -0.0063095554 0.15492745 -0.06866635 0.020183465 -0.03538293 -0.056482095 -0.06134742 -0.08803564 -0.11107528 -0.06761708 0.07589995 -0.08556686 0.113268346 -0.03550813 -0.015888806 -0.04177343 0.015984287 0.007997449 -0.045072183 -0.023760699 -0.1104253 -0.04253459 -0.057721294 0.09872425 -0.057086065 0.044269804 0.013805348
been -0.07239422 0.081040144 0.067135096 -0.037237525 -0.036783863 0.02371577 0.090854764 -0.013365384 0.045433655 -0.008536826 -0.063526936 0.034132645 0.019407151 -0.029055363 0.07083484 0.0005477439 -0.020387376 0.07595938 0.0047407397 -0.045054894 -0.058686532 0.03762576 -0.023636835 -0.029191662 -0.048437912 -0.08629424 -0.0055129137 -0.056892794 -0.0055647213 0.04656762 0.07277862 0.06811811
bad 0.055607077 0.32619223 0.32618693 0.14411458 -0.25676525 0.25722837 0.23247385 0.17687887 0.32303864 0.23283552 0.20309962 0.24221806 -0.16297175 0.2611271 0.24161243 -0.28537917 0.24843009 0.25110003 0.32466954 -0.22025168 -0.12744245 0.26512036 -0.3354517 0.28531232 0.23760349 -0.30657992 -0.22235207 0.28055805 -0.3354854 0.24111538 -0.12251055 0.22302666
get 0.086407796 -0.048934225 0.11142923 0.06894686 -0.15704556 0.02603387 -0.011979633 -0.0010224674 0.10688264 0.036804244 0.09650596 0.068942286 -0.03980941 0.04583856 0.05751911 -0.099712275 0.044751894 0.15468627 0.092348404 -0.09826794 0.034885433 0.024351742 -0.06540668 0.062182322 0.13194826 -0.16597803 -0.12271795 0.049338102 -0.029556781 0.012326329 -0.034446973 0.07474601
will 0.019817276 -0.0068800547 0.043201484 -0.11756523 -0.10524262 -0.004425826 -0.018843554 -0.18376192 0.067894615 -0.007861558 -0.0065501477 -0.051628247 0.04087597 -0.022758681 -0.02932937 0.031880617 0.013442454 0.20663123 0.00085983134 -0.062075883 -0.06912862 -0.035894115 0.08502666 -0.014892165 0.021398446 -0.050169062 -0.017794758 -0.0116647845 0.044526227 -0.12446666 0.067229636 0.09032777
do 0.02913048 -0.09005159 -0.05387138 -0.022902561 0.0024029433 -0.008356773 0.052784845 -0.03875251 -0.037438825 0.0050906334 -0.021399148 -0.061448723 -0.027358131 -0.11737307 -0.09819861 0.012738716 -0.02247932 0.058912054 -0.05172992 0.0060825576 0.0066054366 -0.0010423758 0.012936634 -0.080077946 -0.0104579255 -0.0106249675 0.015315984 -0.06527473 0.112391576 -0.018429989 0.056817308 0.01818309
also 0.07319614 0.03994517 0.09322834 0.048967846 -0.098495685 0.11647657 0.09622472 0.08949616 0.018745987 0.037299275 0.049169645 0.11153966 -0.036215357 0.122655466 0.051847875 -0.050949886 0.05157498 -0.03137658 0.05449463 -0.0917548 0.12392854 0.088558525 -0.10500152 0.031124765 0.04938135 -0.14091656 -0.050335925 0.020560412 -0.013036952 0.03213435 -0.07592195 0.077041626
into -0.06148518 0.1290188 0.116200194 -0.00017161506 -0.1641028 0.06264145 0.10878636 0.051686637 0.13555662 0.053335767 0.016341347 0.04168679 -0.02947773 0.083499916 0.07967283 -0.1363992 0.060763773 0.23838097 0.08226976 -0.11650987 -0.23438956 0.08489989 -0.0888271 0.09579884 0.061635252 -0.11196083 -0.024090232 0.0625123 -0.07425224 0.050461117 -0.031244626 0.12919049
people 0.23982662 -0.13101389 -0.01931728 0.11622734 0.06762202 0.09214215 -0.06498906 0.1367327 -0.0545165 0.076586716 0.09613768 0.022978842 0.0058765165 0.035936702 0.029579917 -0.0078613 0.048823662 -0.0387484 0.0028107255 -0.028382745 0.22911257 0.004971708 0.009106717 0.052914873 0.0527975 0.022724714 -0.052192684 0.048264187 -0.060807366 -0.0028959068 -0.15618977 -0.034916192
other -0.3232707 -0.023510559 -0.07031716 -0.24702416 0.0785021 -0.14709051 -0.090860836 -0.27386162 -0.115736626 -0.1970235 -0.21740663 -0.17152774 0.22305675 -0.21222198 -0.051367037 0.10799429 -0.1178155 0.18627426 -0.11890422 0.07908882 -0.29529062 -0.05009419 0.1488218 -0.11490129 -0.13084534 0.07917427 0.22553329 -0.2042871 0.13518085 -0.12490282 0.27982998 -0.031356733
first -0.1527955 0.17484246 0.19410679 -0.09352273 -0.19776066 0.061090387 0.06417432 -0.11198998 0.16599803 -0.03703433 -0.00506263 0.016592259 -0.03666161 -0.0019941304 0.0694963 -0.08720755 0.09091416 0.21831602 0.07717069 -0.1441382 -0.2198415 0.098916434 -0.029283823 0.06103148 0.038163897 -0.18998311 -0.024809813 0.02105943 -0.059257284 0.060120326 0.07393076 0.1268225
great -0.39756936 0.21523346 0.09595684 -0.2408249 -0.02678956 -0.11547713 -0.05557331 -0.2325424 0.013507951 -0.23415256 -0.15585724 -0.16043854 0.28644794 -0.03839117 0.0026223105 0.029199235 -0.09640032 0.29059383 -0.033428155 0.014414207 -0.46056688 -0.07034092 0.08133816 -0.04511992 -0.112463735 -0.025534531 0.20951845 -0.18383342 0.11488866 -0.08083428 0.31080726 -0.022678241
because 0.12772955 0.13195345 0.115979336 -0.011824976 -0.08397426 0.07376877 0.048996016 -0.045450024 0.11092031 0.050901614 0.07680641 0.06154351 -0.07258798 -0.023926258 0.060912598 -0.05691385 0.024432484 0.034968056 -0.005209595 -0.103733145 0.0701434 0.11247375 -0.026317578 0.0910169 0.08946954 -0.09863482 -0.07519779 0.030176846 -0.05979437 0.0016393956 -0.041543283 0.077661805
how 0.12353218 0.007912639 -0.009386011 0.06975085 -0.044665724 0.053457458 0.007950733 0.028524011 0.04529285 0.083577625 0.058422614 0.052500635 -0.053780448 0.018984227 0.035799038 -0.0055964533 0.057761606 0.006683042 0.010151354 -0.042887855 0.047370616 0.023126747 -0.010270379 -0.011213813 0.0054634274 -0.006033822 -0.036991976 0.07014832 -0.06944155 -0.009992345 -0.005692049 -0.029434385
him 0.056373056 -0.14558746 -0.068571225 0.01667621 0.1093267 -0.07032074 -0.03669786 0.0662701 -0.0045648543 0.030381152 -0.0018173807 0.02561059 -0.02615687 -0.0037343856 -0.033986397 0.043950163 -0.081695974 -0.0039005356 0.016198494 0.08202657 0.2051821 -0.004210577 0.060159598 -0.04333345 -0.008825703 -0.027855946 -0.00606111 0.008155731 0.073460266 -0.03822159 -0.041805875 -0.07061085
most -0.123718634 0.0200292 -0.051678635 -0.2190439 0.055175204 -0.16704756 -0.1558219 -0.16171576 -0.10561324 -0.14079127 -0.20997553 -0.16582999 0.19259088 -0.10139319 -0.15639195 0.08014162 -0.16041327 0.07921943 -0.13028407 0.09781635 -0.050459433 -0.0930016 0.11272958 -0.1303025 -0.09105842 0.010852161 0.15854898 -0.13924561 0.12949486 -0.092450276 0.19781587 -0.037426725
don't 0.07641965 -0.055682085 0.08593843 -0.050486203 -0.098763525 0.091246456 0.1999684 0.026113927 0.07154612 0.025876058 0.031772163 0.07896573 -0.13470684 -0.08351089 0.029255342 0.007265397 0.04604615 0.090246126 0.07435878 -0.049690563 0.057474356 0.14290287 -0.053666137 0.004109391 0.1532302 -0.11006682 -0.14495988 0.05738399 -0.057207506 -0.034967996 -0.0812269 0.08687645
made -0.060411602 -0.014229666 0.0068842093 -0.080588676 -0.07673083 0.03751965 0.093668975 -0.10935053 0.0069914563 -0.016110133 -0.03096064 0.0027907046 -0.024117637 -0.05553419 0.07102925 -0.033767983 0.0039617475 0.020288136 0.06532807 0.017929176 -0.074766986 0.053443253 -0.011262536 -0.029247222 0.052944954 -0.039204992 0.00015764579 -0.02811705 -0.061039217 0.006577017 0.07319796 0.027408563
its -0.055737052 -0.05497146 -0.053037632 -0.119697675 -0.031849716 -0.026744025 0.13061678 -0.049517956 0.03991991 -0.106196985 -0.07732822 -0.059381664 -0.011542132 0.007115281 0.033697404 0.03641156 -0.050440166 0.024798628 0.01776573 -0.007817372 -0.054838084 -0.0077802744 0.029735427 -0.027555507 -0.060349874 -0.025321964 -0.06551847 0.002817511 0.0019166213 -0.039251447 0.02693784 0.0038878731
then 0.039128806 -0.09856617 -0.082217515 -0.0644806 -0.03140574 0.008568998 -0.00537614 -0.042354245 -0.010223689 -0.021062717 -0.018439274 -0.033120707 0.06575837 -0.024372824 0.0392236 0.06973898 0.0031244124 0.030459492 -0.03977099 0.056074914 -0.038961332 0.01842506 0.034807093 -0.0038932096 0.009841194 0.06415988 -0.040777113 -0.04537158 -0.038050063 0.028160151 0.05113173 -0.033737954
way -0.07726503 0.17817605 0.12463089 0.025101671 -0.18152995 0.10342553 0.02541162 -0.07148691 0.123437814 0.029218985 0.090911016 0.10518211 0.006187158 0.14975065 0.16276762 -0.13995108 0.1472033 0.27853414 0.101581335 -0.19255233 -0.21743686 0.11693718 -0.10758462 0.087687634 0.10104333 -0.090737596 -0.00995504 0.019575395 -0.13695595 0.13630246 -0.013204135 0.12094419
make -0.13548084 0.20848313 0.18596107 0.09820988 -0.17509086 0.14880775 0.11553538 0.0136691015 0.12282981 0.06402935 0.123794936 0.1105298 0.07418145 0.12843107 0.21131964 -0.16566096 0.1365261 0.24123372 0.1190936 -0.20037942 -0.2143008 0.12268384 -0.15000883 0.1792734 0.10399909 -0.14695469 -0.05599409 0.07969886 -0.12581229 0.13961038 -0.06563143 0.14348826
them -0.042518795 -0.14859964 -0.118140206 -0.09971924 0.046632845 -0.10814728 -0.013242603 -0.1695622 -0.11832262 -0.09603368 -0.17231478 -0.16350085 -0.09102531 -0.17357625 -0.19543737 0.15722379 -0.08001957 0.008995003 -0.0641853 0.114794575 0.06477522 -0.10003695 0.11323998 -0.12479074 -0.035870936 0.009577814 0.038738895 -0.073351905 0.10824717 -0.12212672 0.04214955 -0.117302015
too -0.06514512 0.07145067 0.0008202984 -0.29557553 -0.119409844 -0.11412818 0.108992 -0.27380008 -0.0075229765 -0.17532249 -0.22778195 -0.19775435 -0.08262883 -0.21311249 -0.04129057 0.117569655 -0.13557239 0.20422801 0.03748693 -0.0066850064 -0.03674736 -0.020542165 0.124257535 -0.09116486 0.006291411 -0.17141902 0.043583274 -0.16293359 0.13703299 -0.17886034 0.1848381 -0.041748516
could 0.03957848 0.025161197 0.12793545 0.017596915 -0.13687763 0.05611756 0.087027065 0.02462932 0.109853625 0.042968366 0.12334032 0.051967785 0.023585847 0.018496918 0.05770267 -0.11207548 0.08764256 0.033678934 0.104846165 -0.06375221 -0.030506356 0.11264022 -0.07478429 0.092922896 0.043113288 -0.075467855 -0.057483014 0.032975394 -0.053342108 0.09147384 -0.055417396 0.06761645
any -0.1586351 0.21047033 0.21676244 -0.06718709 -0.19072819 0.10433501 0.08105638 -0.12787311 0.14652646 0.033735927 0.05523586 0.005024361 -0.05500135 0.045022875 0.19523485 -0.125429 0.059268437 0.26854956 0.10343677 -0.20705599 -0.28980368 0.083330095 -0.051634926 0.06838627 0.030886816 -0.24827 0.015813312 -0.016020535 -0.07243295 0.12631212 0.03922512 0.1110852
movies 0.0516013 -0.083689414 -0.0010370496 0.0075509334 0.018856555 0.08313381 0.16834462 0.019327525 -0.020662257 0.017163334 -0.0076038204 -0.069672346 -0.13879794 -0.049586415 -0.06573516 0.0017166572 0.047360033 -0.092319585 0.04148942 0.04055962 0.12999536 0.07261871 0.019288963 -0.02759709 0.030110698 0.011824954 -0.09035861 -0.02019366 0.01994215 0.053246275 -0.030252237 -0.06700137
after -0.035929006 -0.034820136 -0.003091148 -0.110020824 0.01096555 -0.043939866 0.026588168 -0.035862252 -0.0009490848 -0.054667458 -0.043564282 -0.05001571 0.0013805757 -0.091799244 -0.032705538 0.06163871 0.005754571 0.06091873 -0.044994097 -0.027020577 -0.08012519 -0.028659323 0.05167502 -0.00021387068 -0.010764377 0.0030669102 -0.009634268 -0.02041856 0.010279642 -0.06651924 0.044349313 0.0014843483
think 0.024623733 0.03618753 0.08426038 -0.0993031 -0.105610944 0.05466223 0.03366287 -0.09035832 0.09174165 -0.003698341 -0.06465347 0.0012086632 -0.046810556 0.009686476 0.058795284 0.04718455 0.0144331865 0.027191699 0.05963468 -0.05838035 0.04409255 -0.0065789623 0.059472106 0.012670236 0.0041472935 -0.046353653 -0.029416088 -0.042087574 0.0045004063 -0.005921683 0.042592287 -0.005784812
characters -0.10988365 0.00523129 0.023714961 -0.13941725 0.034789436 -0.051613167 -0.014539696 -0.12903872 -0.040238142 -0.11732195 -0.058846556 -0.050624415 0.049899228 -0.12132018 -0.011402695 0.095283605 -0.043996584 0.062093493 -0.07095615 -0.0012578181 -0.09022937 0.028067844 0.021716682 -0.03437512 -0.0069097597 -0.044386424 0.046431717 -0.029121969 0.08846953 -0.04093578 0.08321951 -0.002075459
watch 0.023882378 0.004654424 0.05149405 -0.0304579 -0.10080878 0.09481505 0.13909368 -0.08147894 0.04577745 -0.015828744 -0.03343043 0.029038828 -0.15264097 0.016388083 0.058964685 0.013585813 0.018105999 0.123575 0.06483977 -0.059117187 0.057852264 0.07379306 -0.009131356 0.03336871 0.0383753 -0.11541091 -0.08468526 0.013432782 0.018079216 -0.013254353 -0.040277064 0.04401208
two 0.14960614 0.033820976 0.089442246 0.19213259 -0.033590738 0.20064633 0.25466767 0.17941052 0.105049856 0.11619011 0.14338668 0.14608413 -0.15343854 0.11126162 0.10837522 -0.10031113 0.104124755 -0.15298735 0.07616925 -0.016492926 0.14436403 0.101343125 -0.112465665 0.101357564 0.12835573 -0.065305255 -0.2179494 0.22183292 -0.13280596 0.22540197 -0.18244259 0.032984085
films 0.025417326 0.013902883 0.058498193 -0.16075063 -0.15023154 -0.058336247 0.12466222 -0.16775633 0.06684875 -0.038553264 -0.09203562 -0.059136353 -0.10063666 -0.15642802 -0.0028057934 0.06992992 -0.023373343 0.14412087 0.014891384 -0.008840339 -0.06955606 0.060039252 0.0515551 -0.05173049 0.09547231 -0.17649898 -0.065962695 -0.11530975 0.1135572 -0.0895145 0.0143104335 0.04481731
character -0.14566144 0.18056513 0.141582 -0.02728062 -0.15313873 -0.005318944 -0.0083386265 -0.043228246 0.07881499 -0.09618769 -0.09029923 -0.023204844 0.13749671 0.052627057 0.052711308 -0.021118648 0.041228134 0.20818554 0.032756884 -0.17167328 -0.21623974 0.010731421 0.0060505075 -0.00036985832 0.06973076 -0.08578483 0.06339277 -0.0040866784 0.034647334 0.059881013 0.08331785 0.055259764
seen -0.015985783 -0.05401892 -0.09935607 -0.07628709 0.0010308517 0.0016137229 0.007116362 -0.101553805 -0.07736062 -0.0678166 -0.0913015 -0.007881145 -0.080250576 -0.066350855 -0.0010068276 0.033492208 -0.07406985 0.036844034 -0.08330666 0.085145034 0.005813541 -0.033435747 0.038151335 0.0009097499 -0.04097536 0.05055979 -0.05352288 -0.10797487 0.02071061 -0.010334429 0.06802804 -0.010522273
many -0.07508659 -0.007038763 0.046326708 -0.07103583 -0.028528864 -0.007560965 -0.04992968 -0.06638795 0.012311425 -0.014112936 -0.101976015 -0.07015627 0.13501489 -0.08500859 -0.01844183 -0.007094767 -0.028587442 0.063396856 -0.06250918 3.8505583e-05 -0.05891275 -0.039365783 0.016743576 -0.08030419 0.0018294981 -0.01507313 0.006980984 -0.09069865 0.04747504 -0.07503722 0.07518202 -0.0028635317
being -0.36094484 0.4642888 0.17764442 -0.2439098 -0.21568853 -0.047895316 0.0028322202 -0.24191391 0.14183167 -0.21464264 -0.10463444 -0.11655452 0.19706568 -0.07779673 0.044803914 -0.06567399 -0.039724585 0.48382527 0.013553635 -0.15970628 -0.5193419 0.060983054 0.022688532 0.037633315 -0.095474534 -0.22427791 0.11874292 -0.15399888 0.041823458 0.004608984 0.29033804 0.042777635
life -0.072288506 -0.0032197526 -0.0073288386 -0.17093153 -0.111562386 -0.061502695 0.03873812 -0.111366205 -0.060340613 -0.06146644 -0.086444356 -0.11603674 -0.015791457 -0.089294136 -0.052632138 0.099642955 -0.020308675 0.13098401 0.037830133 0.015987435 -0.06471422 -0.07867605 0.039973963 -0.03661343 -0.06006894 -0.045043357 -0.016603211 -0.1682993 0.14856699 -0.08430174 0.033437036 0.013915793
plot 0.093761735 0.027777972 0.16557133 0.055860363 -0.21472666 0.12626724 0.18929163 0.08033864 0.16129705 0.11601752 0.1441259 0.15898965 -0.13717577 0.035421066 0.13510256 -0.054232087 0.12294621 -0.010425097 0.14521028 -0.14230162 0.106041424 0.13436885 -0.09864516 0.1369939 0.14750886 -0.17154542 -0.1370817 0.1387612 -0.10703862 0.09248276 -0.14521782 0.17526968
never -0.1012383 0.11735062 0.086445175 -0.10070449 -0.03815782 0.024090104 -0.0029574228 -0.12059109 0.028655386 -0.019874817 -0.031526174 -0.045745708 0.115940586 -0.069050655 0.028033894 -0.032295816 -0.031152714 0.20481156 -0.023044806 -0.053593136 -0.24584793 0.038960725 0.038346592 0.028647844 -0.050348803 -0.080315344 0.07644315 -0.035250243 0.0611679 0.021916542 0.07561816 0.034616556
acting -0.1531521 0.1735212 0.04975817 -0.13076265 -0.1428843 -0.026935967 0.039144438 -0.08257933 0.09535176 -0.0038579323 -0.09024905 -0.076191865 -0.021956975 -0.100964345 0.05406055 0.0050182035 -0.05741717 0.27679297 0.06505376 -0.11549077 -0.2015095 0.041300543 0.040854998 -0.042965148 0.04424446 -0.1760694 -0.0451531 -0.10705743 0.066816136 -0.018095296 0.08063848 0.047126688
little -0.13089547 0.063494734 0.06382652 -0.23582807 -0.108342975 -0.1432814 -0.06593454 -0.23086171 -0.021924166 -0.17269515 -0.135563 -0.1618241 0.12265238 -0.17049836 -0.072872214 0.124258354 -0.14029184 0.23116969 -0.036999475 -0.038537446 -0.11082722 -0.05702731 0.15752107 -0.06806731 -0.03281769 -0.15458992 0.06477795 -0.15055749 0.17043923 -0.16641967 0.13279504 0.038369108
best -0.24715894 -0.012681171 -0.09602604 -0.25586662 -0.07424838 -0.10223652 -0.08376042 -0.26667473 -0.0090266215 -0.16535649 -0.12594691 -0.11511767 0.07014268 -0.19276235 0.05160231 0.11510097 -0.12742227 0.15583473 -0.006461207 0.04021511 -0.1602624 -0.062436484 0.09253499 -0.14938293 -0.10251727 -0.008186958 0.14889172 -0.14079967 0.20129281 -0.14049797 0.23982769 -0.06602551
love -0.18938416 0.23072474 0.1412477 -0.04959453 -0.15041159 0.07787853 -0.032217845 -0.073374055 0.07134204 -0.030626291 0.010464898 0.017233096 0.16761899 0.042862713 0.11496305 -0.088969216 0.11089997 0.1823985 0.0631662 -0.1403746 -0.20082998 0.09382636 -0.12156531 0.09873506 0.013183345 -0.057632983 0.05874597 0.023011623 -0.016708814 0.03880497 0.054179627 0.123912275
over 0.10299768 0.056426365 0.118023574 0.029699625 -0.17149957 0.14262882 0.30634317 0.019452723 0.16675715 0.12218027 0.123352416 0.07523274 -0.25669032 -0.0114586875 0.07542061 -0.11635982 0.09612421 0.060139533 0.22850451 -0.07077863 0.090101674 0.137408 -0.11627458 0.10691658 0.18513452 -0.23044771 -0.24601763 0.05658467 -0.12282289 0.057278324 -0.15373543 0.11369761
where 0.0834242 0.049240313 0.12013598 0.06033058 -0.10840937 0.13887471 0.0059916717 0.09228704 0.05299438 0.03931538 0.09173166 0.07736655 -0.06900471 0.115931734 0.037836555 -0.042284932 0.050447363 0.12702088 0.010704214 -0.119961835 -0.056105487 0.03967596 -0.10117219 0.11637689 0.08126075 -0.06808325 -0.033310693 0.02448331 -0.0785959 0.07379348 -0.029238991 0.025224501
did 0.06802954 -0.19291879 -0.020827932 0.006787076 0.016601665 0.026061345 0.045807987 0.027883751 0.029553274 0.043406013 -0.0247735 -0.014816501 -0.07159528 -0.122172736 -0.003489854 0.040939275 -0.03312865 -0.022646096 -0.005144725 0.07403668 0.17060322 0.023330046 0.076863974 -0.0594893 0.04877546 -0.074880145 -0.061296944 -0.012349606 -0.006874417 -0.050999254 -0.094884306 -0.025402253
show -0.23073044 0.1589912 0.0715473 -0.18346114 0.006633418 -0.06948241 -0.08821105 -0.24391468 -0.011607098 -0.21970552 -0.173757 -0.23082183 0.18154557 -0.053866394 -0.042800017 0.08565069 -0.13561694 0.06970891 -0.016236069 0.030453624 -0.17933619 -0.07480775 0.07840022 -0.109376706 -0.1483555 -0.032635372 0.1397317 -0.080187514 0.1761032 -0.066789165 0.18013538 -0.039472338
know -0.024097215 -0.008825018 -0.020619864 -0.11691924 0.033262294 -0.06252461 -0.02852536 -0.066105336 -0.0056376457 -0.06932227 -0.08050204 -0.027828248 0.026248123 -0.10124 -0.02079615 0.04813407 -0.044629678 0.16389203 -0.100637935 0.004456324 -0.085255705 -0.0602055 0.09636916 -0.033647694 0.017728606 -0.028301146 0.025306515 -0.06625626 0.06813359 -0.056930415 0.0427073 -0.011187207
off 0.15529153 -0.11154248 0.03528416 0.04047767 -0.026882347 0.06918804 0.17380087 0.05878309 0.072469644 0.15465264 0.05412239 0.12844841 -0.21174675 0.062913105 0.030591557 -0.050452694 0.033734854 -0.0051981695 0.08723874 -0.0024309263 0.23036243 0.06293289 -0.11590608 0.06547242 0.16384402 -0.14341907 -0.15700184 0.118526295 -0.14536375 0.0033624796 -0.11382929 0.061041962
ever 0.009964914 -0.0700849 0.09858764 -0.068182305 -0.14037794 0.031661298 0.1666496 -0.07032874 0.09934681 0.070903085 0.024084844 0.06746527 -0.10335326 0.036587168 0.149378 -0.040486213 0.038864963 0.12790754 0.09420858 -0.030608144 -0.06552968 0.044432726 -0.07157347 0.008481266 0.01997623 -0.056373045 -0.048217304 0.05646143 -0.070597045 0.061912067 -0.049638357 0.09323386
does -0.28572857 0.10134173 0.04224339 -0.2654852 0.0007978481 -0.16240513 -0.17469999 -0.26223314 -0.07211457 -0.21297964 -0.19323456 -0.2186747 0.16321987 -0.20294483 -0.08620228 0.14416453 -0.21293859 0.22403136 -0.05127962 -0.06606242 -0.3447701 -0.05712344 0.14687343 -0.16853486 -0.110235006 -0.04822005 0.19990547 -0.25887063 0.24683534 -0.11360623 0.26693732 0.038740307
better -0.21119677 0.078271985 0.015418292 -0.14875332 -0.010350054 -0.070600696 0.007772808 -0.12861785 0.013992237 -0.06516144 -0.034187324 -0.041862294 0.074798346 -0.02696766 -0.0030073058 0.053702064 -0.00445503 0.11612135 -0.045085553 -0.05290028 -0.16570069 -0.03114416 0.06910141 -0.010137254 -0.1219057 -0.11216896 0.09463707 -0.019256078 0.12276389 -0.029966656 0.17327096 -0.098775916
your -0.15257715 0.17020147 0.13366999 -0.21480732 -0.27852657 -0.030889144 0.011118563 -0.218168 0.08877911 -0.103184775 -0.04904594 -0.05202388 -0.07568522 -0.06914933 0.120096706 0.03566131 -0.037503254 0.27153707 0.06891119 -0.18931717 -0.23598559 0.1378649 0.057095625 -0.014566002 0.0067901644 -0.23215242 -0.04223561 -0.041037098 0.004538104 -0.019217966 0.1566791 0.1306644
end 0.09519065 0.005896364 0.016522232 -0.12327524 -0.08630991 0.049242128 0.087476335 -0.048108447 0.023964424 -0.053170484 -0.036916267 -0.0149617875 -0.14653824 -0.06624582 -0.021881161 0.020934872 0.0076922053 -0.03227464 0.04511547 -0.007626704 0.10351641 0.06296567 0.032448992 -0.045096543 0.025026243 -0.16406068 -0.05982222 -0.0907535 0.060192414 -0.057532616 -0.0020181069 0.079480484
still -0.29685417 0.16746458 0.11832441 -0.22032638 -0.18737015 -0.13103856 -0.059839223 -0.3162946 -0.02541744 -0.30692518 -0.22921059 -0.18344937 0.2123467 -0.17803271 -0.023870584 0.16474842 -0.1131822 0.2738134 -0.05107141 -0.08359861 -0.25626692 -0.08713112 0.14485991 -0.14187296 -0.18989995 -0.1710595 0.2558784 -0.24717265 0.16072445 -0.15415584 0.33297548 0.013378154
man -0.026328428 -0.09682755 -0.06615966 -0.16151738 0.0497267 -0.13851234 -0.026458926 -0.19221337 -0.13377555 -0.09210217 -0.106393434 -0.13541935 0.039348613 -0.110074 -0.1337166 0.08482123 -0.07927719 -0.069566436 -0.06317655 0.1255527 -0.06419072 -0.1296973 0.11784034 -0.09082639 -0.057240795 0.07675781 0.10453458 -0.13571817 0.08381492 -0.12511097 0.09272235 -0.05293366
here -0.2166458 0.20763183 0.087250605 -0.048736062 -0.13594909 0.021926025 0.0011834933 -0.044273883 0.08540361 -0.02685864 0.019648165 -0.06534577 0.083698906 -0.03386819 0.122829184 -0.108680576 0.043684788 0.21159062 0.063850634 -0.05984976 -0.3858048 0.037418943 -0.07312727 0.0042609437 0.035051256 -0.09415066 0.022022841 -0.03790298 -0.054873135 0.06545673 0.09497957 0.06919136
these -0.1289984 0.07358892 0.04288225 -0.09863195 -0.07607447 -0.040633008 -0.10600305 -0.11514415 -0.022278424 -0.06838997 0.0032056032 -0.03314779 0.20551734 0.033209804 -0.033660173 -0.032096088 -0.06442521 0.12928678 -0.052503217 -0.033055257 -0.17386048 0.045787796 0.041725967 -0.017538378 -0.03051395 -0.009470891 0.1024086 -0.084246285 0.020072902 -0.013097076 0.08916807 0.08188158
say 0.09352853 0.25306827 0.18961501 0.10631189 -0.18914184 0.12320701 0.17112948 0.098387375 0.22541337 0.100801215 0.15934925 0.16523665 -0.1181045 0.090586014 0.23179746 -0.17145793 0.18466792 0.16154929 0.1573635 -0.18988077 -0.08027463 0.1409047 -0.21476352 0.1267026 0.14625378 -0.16833375 -0.08520349 0.15853505 -0.15284829 0.16103247 -0.059882283 0.1285505
scene -0.021801326 0.18102254 0.10748354 -0.03051719 -0.20251599 0.056576826 0.11697257 0.01925113 0.12147071 0.050927386 0.038289756 0.080933064 0.008741002 0.081770696 0.1599791 -0.14138551 0.099163376 0.16657381 0.1520601 -0.12622118 -0.16100463 0.14217025 -0.0763677 0.06426946 0.12015109 -0.15639383 -0.055821884 0.04155621 -0.08295513 0.039366502 -0.04951306 0.12594657
while 0.029835071 0.20325564 0.17257634 0.015717898 -0.22467835 0.14439286 0.18880194 -0.023571894 0.17485908 0.038997285 0.1347277 0.15133715 -0.1280167 0.16322099 0.15985158 -0.16735083 0.093508676 0.23588847 0.20015724 -0.24482162 -0.16277511 0.17765756 -0.16267985 0.1697193 0.1501554 -0.23098332 -0.0713172 0.08423445 -0.10899681 0.13714214 -0.08262122 0.1543985
why 0.009526627 0.025901226 0.062881075 0.009746099 -0.1297364 0.03347358 0.109650545 0.027874412 0.1130215 0.044343565 0.04587863 0.018890055 -0.011360111 0.06293772 0.10566835 -0.0667841 0.09594018 0.09588618 0.077226356 -0.08798366 -0.023725688 0.122579604 -0.04693586 0.029938674 0.08837127 -0.08580359 -0.11771419 0.08440948 -0.091469966 0.049828023 -0.07366769 0.119857274
scenes -0.05663056 0.11552535 0.04670617 0.06783074 -0.10470565 0.043470357 0.07437792 0.028997159 0.048418414 0.042344224 0.06684834 0.031191166 0.052982215 0.089790985 0.016897982 -0.068338916 0.083260246 -0.026730765 0.009858434 -0.013939483 -0.028859148 0.068567514 -0.012794194 0.06399133 0.014587884 -0.0933691 -0.032487508 0.028279196 -0.03773833 0.04137053 0.030419912 0.084465906
go -0.112286635 0.19520427 0.09044991 0.026462104 -0.18697397 0.08481204 0.092392154 -0.0036080072 0.16261289 -0.03058309 0.041394476 0.08670458 -0.014232666 0.043690983 0.11409839 -0.056923565 0.11092892 0.2707813 0.119606115 -0.11760395 -0.19861285 0.0813877 -0.035055634 0.08093604 0.01691292 -0.19089207 0.026911754 0.08699872 -0.071153454 0.08549973 0.098785944 0.13134152
such 0.031811252 -0.101064675 -0.009523852 -0.04524757 0.0061941477 -0.072962195 -0.04211688 -0.07814937 -0.034420807 -0.017786156 -0.09363201 -0.07696481 -0.120505475 -0.12214032 -0.054305825 0.020206735 -0.020435737 0.019409362 -0.03669767 0.020215986 0.13299242 -0.047421116 0.052479967 -0.061075523 -0.044653986 -0.064662114 -0.0053107943 -0.040600087 -0.00084502035 -0.116039075 -0.026825177 0.0018953537
something -0.15353616 0.2756416 0.15883246 0.0076915035 -0.10638978 0.055737782 0.052744266 -0.007318233 0.11444899 0.005442969 0.023345698 0.051606666 0.09317331 0.064208925 0.13658929 -0.11361031 0.025205214 0.23518613 0.15813194 -0.14700891 -0.24283023 0.108994916 -0.042625513 0.073654 -0.053886943 -0.17808166 0.039063286 0.0047292947 -0.07969252 0.16471387 0.0534128 0.02341532
through -0.019342344 -0.08037882 -0.14455618 -0.26099473 0.045203876 -0.16897447 -0.077327736 -0.19721867 -0.08751011 -0.118865885 -0.21072973 -0.22335769 0.010791746 -0.2567999 -0.14581934 0.17684016 -0.17657141 -0.092999496 -0.07802144 0.13539249 0.15574886 -0.07642885 0.22820872 -0.23681074 -0.045318767 0.0031814838 0.12722994 -0.2172088 0.20519023 -0.1961093 0.13201849 -0.056736086
should 0.11445687 -0.063775755 0.065092474 0.110336274 0.008823912 0.14675814 0.11825885 0.093237184 0.094232894 0.13490017 0.14003862 0.11831752 -0.18719736 0.1120384 0.12106527 -0.13529155 0.16327897 -0.068065904 0.11762526 -0.016901262 0.027807392 0.12722968 -0.13369884 0.13091964 0.12204507 0.0023722965 -0.12903512 0.11904514 -0.16141643 0.08899912 -0.14364028 0.07565779
back -0.21864574 0.058965735 0.12064275 -0.07512911 -0.10884657 -0.025771974 0.061503496 -0.050882734 0.06494322 -0.10291138 -0.0653607 -0.0280391 0.0485361 -0.052898914 0.1271633 -0.016319208 -0.008847855 0.1858582 0.115063585 -0.10786885 -0.23067796 0.072712 0.0050124163 0.10274654 0.042469807 -0.10017837 0.019924425 -0.037347708 0.027369412 0.03760932 0.07878377 0.09347813
i'm 0.021696752 0.13782178 0.20178044 0.04738498 -0.15812731 0.12074266 0.11727461 0.09474424 0.16215694 0.078038566 0.11671048 0.09597407 -0.059925362 0.13659409 0.08495085 -0.15763758 0.14680794 0.19406699 0.15104969 -0.1047691 -0.089843825 0.18921357 -0.15378731 0.12113807 0.18165773 -0.17491177 -0.11287329 0.1445956 -0.122205496 0.14411236 -0.039458603 0.14045823
real 0.034063317 -0.12036191 -0.011795393 -0.11020704 -0.09562024 -0.033110615 0.22984697 -0.1695604 0.010656001 -0.030707046 -0.08105309 -0.06896738 -0.22606388 -0.1749807 -0.041793317 0.1294759 -0.033480767 -0.0064016567 0.043209143 0.06274442 0.11251418 -0.005525813 0.058316823 -0.09380448 -0.03372038 -0.1368799 -0.029194262 -0.091858014 0.11603986 -0.124150604 -0.0043281782 -0.05392544
those -0.07541845 0.041247845 0.0014366567 -0.09354821 -0.05208131 -0.01355738 -0.052339014 -0.17300963 -0.013518549 -0.11944304 -0.1130706 -0.018891124 0.122816674 -0.10728093 -0.0066378918 0.060067933 -0.05302164 0.0076830396 -0.09897263 0.020705197 -0.06247008 0.012717433 0.08688326 -0.067817636 -0.02820277 0.041670844 0.09277125 -0.11188287 0.048992865 -0.10261249 0.09495486 0.026851363
watching -0.13511975 0.11099298 0.07273988 -0.17792861 -0.07117141 -0.07520792 -0.011822896 -0.14657691 0.035759844 -0.12183424 -0.12429003 -0.14382187 0.07189941 -0.08819932 0.06648407 0.0362114 -0.031146776 0.21037732 0.09462331 -0.041742876 -0.14282377 -0.0005609659 0.028676411 -0.052983083 -0.077938996 -0.12918569 0.05412647 -0.04929337 0.079292566 -0.09151981 0.16807777 0.0031822089
now 0.058916487 -0.09515948 -0.026277194 -0.09948319 0.03371026 -0.096557245 0.096909456 -0.12703557 -0.020819293 -0.14176331 -0.10371673 -0.1703525 -0.13037677 -0.1546314 -0.12396708 0.09124927 -0.06797749 -0.027143717 -0.061300866 0.096672826 0.1535731 -0.039885666 0.172007 -0.12551945 -0.039002053 -0.013708281 -0.004323688 -0.11526403 0.13146625 -0.111257836 -0.0025675953 -0.060933582
though -0.13392399 0.07237302 -0.0041913204 -0.15638229 0.056439605 -0.057439957 -0.07795631 -0.1233645 -0.12283659 -0.14162134 -0.17674834 -0.14596134 0.12365484 -0.10436778 -0.10591102 0.14520091 -0.08460675 0.017595675 -0.09313066 0.08246341 -0.087855846 -0.11849397 0.059489574 -0.06204831 -0.1161053 0.013881383 0.10634784 -0.11237305 0.14829071 -0.14299494 0.15601973 -0.025789432
doesn't 0.15074147 0.015556429 0.048489116 0.10235413 0.014708926 0.081141755 0.100646675 0.08764789 0.0014321727 0.08174232 0.12675208 0.13956788 -0.12529285 0.009068685 0.07892659 -0.10812168 0.054427803 0.009904651 0.013561854 -0.058722872 0.14684756 0.07176174 -0.05367031 0.07514442 0.045215577 -0.040563416 -0.09199747 0.03693316 -0.103636995 0.09152189 -0.06554779 0.03279616
years -0.13635325 0.050847877 0.04549248 -0.20367953 -0.059699524 -0.0890057 0.118179776 -0.15817352 -0.014022321 -0.096369974 -0.1644959 -0.08293273 -0.0332625 -0.08825093 -0.04692366 0.06356719 -0.09264623 0.07236134 -0.003702139 0.04480045 -0.065750904 0.035434622 0.119200185 -0.036191706 -0.03241627 -0.16698916 0.033958707 -0.097309664 0.14542134 -0.043582678 0.09380413 -0.0059649637
old -0.05934094 -0.021819053 -0.03509866 -0.16113733 -0.02815999 0.019443348 0.039267536 -0.078042656 0.042726465 -0.086716115 -0.09831107 -0.030534446 0.06388606 -0.11651399 0.0038200303 0.03376351 -0.031435348 0.014377122 0.027589463 -0.0137406485 -0.08252504 0.01775989 0.05540582 -0.0077733756 0.015725272 -0.12405795 0.03870742 -0.052350365 0.04331872 -0.09720932 0.06218346 0.059051678
thing 0.08985502 0.21515648 0.1640889 0.13449192 -0.21585038 0.085800745 0.10793651 0.117920086 0.21296297 0.13712735 0.112956256 0.17327671 -0.16534916 0.1086611 0.15757793 -0.15667887 0.13898079 0.1438282 0.16311881 -0.14869928 -0.007871283 0.16135499 -0.13798374 0.2091695 0.10433689 -0.19257623 -0.17217566 0.17568278 -0.19537865 0.18579859 -0.11358984 0.11160842
actors -0.11772194 0.24684434 0.21515104 -0.0028764762 -0.21637431 0.072586596 0.20025146 0.05370526 0.20622954 0.05870801 0.090063505 0.12419499 -0.07078118 0.15454754 0.18018036 -0.12275892 0.112135865 0.2700845 0.23331724 -0.24447651 -0.20326681 0.16052255 -0.14236994 0.20862983 0.11965127 -0.18144609 -0.111972004 0.10994594 -0.11535543 0.19900331 -0.035529796 0.1623112
work -0.11845706 0.047573414 0.035715956 -0.091618456 -0.026894823 -0.045547925 0.052716825 -0.16177604 0.07254676 -0.10213295 -0.04766828 -0.043533724 0.012389223 -0.09739208 0.009764073 0.020046132 -0.03430425 0.20788509 0.08695187 -0.033905055 -0.1419048 0.018143374 0.0713428 -0.045343254 0.03932058 -0.12665834 0.00031041395 -0.14443533 0.034680184 -0.023085456 0.12800589 -0.0057289205
10 -0.30105847 0.058659744 0.022148483 -0.28221786 -0.15433961 -0.04667111 0.35924828 -0.38568524 0.061027877 -0.28419694 -0.276189 -0.33618495 -0.18598723 -0.35298806 -0.045663543 0.14722757 -0.12342055 0.2456321 0.20432733 0.033002973 -0.1545883 0.09666078 0.13529453 -0.12922981 -0.058552817 -0.4463459 -0.038993005 -0.24105415 0.16436814 -0.12104297 0.23617047 -0.003896502
before -0.08006436 0.08161215 0.052670673 -0.043230075 -0.09101085 0.006839554 0.042744566 -0.026183594 0.014866514 -0.018647727 -0.03702185 -0.03480517 0.05449725 -0.048531197 0.03576873 -0.008406902 0.046154223 0.17508036 0.02744484 -0.026156904 -0.081034556 0.093330644 -0.0581136 -0.010399226 0.03245362 -0.063086055 -0.06099279 0.019816462 -0.008250859 -0.033453725 0.052243363 0.039369468
another 0.03456993 0.18007678 0.101967864 0.057319842 -0.066854775 0.07958964 0.0933832 0.03841653 0.08137181 0.065925084 0.019248601 0.05089745 0.008148936 0.07108552 0.108237945 -0.12175576 0.031103687 0.042528152 0.08633607 -0.06441631 -0.03759536 0.058687594 -0.10723872 0.037425566 0.09347108 -0.11910544 -0.020589504 0.080419876 -0.10495622 0.08895303 -0.04489691 0.0809822
didn't -0.081017144 0.17522106 0.20215288 -0.0070078718 -0.22801752 0.0984754 0.10934809 0.035026617 0.21407653 0.07828937 0.1699535 0.16844039 -0.05499486 0.040953893 0.21893917 -0.14373356 0.13519108 0.25663438 0.0929373 -0.21609746 -0.17850655 0.15555856 -0.078021444 0.17345938 0.17121291 -0.21021426 -0.13710609 0.14797583 -0.109519765 0.052389994 -0.115852535 0.15332884
new -0.10312792 0.10954953 0.044743154 -0.07128673 -0.00802415 -0.005531936 -0.005489214 -0.090468965 0.0027260112 -0.02986212 0.0071391948 -0.07054015 0.076106496 -0.033648375 0.016474444 -0.029916836 0.012007626 0.010420324 -0.085192405 -0.04347876 -0.10391744 0.012764377 -0.027413482 -0.04037778 -0.07210669 0.01822346 0.08692544 -0.042355854 0.013869082 -0.0013883018 0.12333396 0.025445782
funny -0.11791473 0.29200485 0.27222496 -0.08566251 -0.3091786 0.10893915 0.062232815 -0.12249712 0.22450402 0.04717668 -0.007165977 0.012954896 -0.004240248 -0.047016434 0.104424685 -0.08548454 0.11103638 0.12494399 0.10311605 -0.19053863 -0.20713283 0.19334528 -0.020287324 0.12909585 0.10724734 -0.28646845 0.002744162 -0.052531093 0.0061704516 0.040882472 -0.010268572 0.15973212
nothing -0.049645375 0.091053456 0.1666155 0.016131988 -0.21895756 0.12774841 0.18188152 -0.02383481 0.1734938 0.12136548 0.08436864 0.119967416 -0.12705949 0.016325483 0.19207154 -0.08183818 0.15126672 0.17951356 0.121575385 -0.18509325 -0.05307202 0.13208371 -0.0667636 0.108838834 0.17716609 -0.15083702 -0.116874896 0.046587173 -0.046326596 0.068822764 -0.045275506 0.19044268
actually 0.17582819 0.09994032 0.20037623 0.21676253 -0.2124867 0.26793516 0.20276569 0.22290115 0.23975235 0.24893448 0.23145692 0.24836218 -0.30449206 0.1728115 0.22622347 -0.2812171 0.20363092 0.027902272 0.20669036 -0.17238913 0.15559107 0.24605913 -0.1734106 0.24310814 0.24432269 -0.24973108 -0.27889836 0.22893977 -0.27287683 0.21903877 -0.19588159 0.20030332
makes -0.05266346 -0.056477822 0.011765135 -0.09419556 -0.09671076 0.034735855 -0.034341432 -0.06769443 0.05066203 -0.042315964 0.014932983 -0.06373537 0.044658825 0.007784963 -0.08032535 -0.004067604 0.006536536 0.0952705 -0.0016509959 -0.04718526 -0.037808377 0.036156435 0.0456181 0.02406705 0.048880138 -0.06301616 0.04508953 -0.048457853 0.014123421 0.029028412 -0.039357584 0.102930665
director -0.02257104 -0.089806765 -0.02337558 -0.106043 0.035607558 -0.011924419 -0.05002318 -0.0647978 -0.008762168 -0.08651517 -0.033396166 -0.08857307 0.077628136 -0.059570283 -0.09225715 0.09050014 -0.07948892 -0.005434614 -0.10126383 -0.006941932 -0.018112205 -0.003329556 0.08607931 -0.07086037 -0.05928085 -0.029172884 0.093299605 -0.067149 0.08699004 -0.04328739 0.06929606 -0.10905618
look -0.04635723 0.01970438 0.10401337 -0.1090991 -0.14034747 0.06747785 0.043169122 -0.07435938 0.06997699 -0.026815323 -0.019221736 -0.0748077 -0.08811943 -0.021935456 -0.010837542 0.003498057 0.036371186 0.13989891 0.09333641 -0.13481985 -0.030400766 0.021424012 0.023716854 0.0018639092 0.010770236 -0.14538456 -0.05054652 -0.0005058607 0.08777809 0.026181905 0.047375638 0.0672218
find 0.17489408 0.13477726 0.21942411 0.0896925 -0.21729535 0.21732245 0.17682153 0.16628323 0.20624226 0.1709088 0.19973093 0.19120772 -0.14469199 0.23699263 0.17452222 -0.17005515 0.16289973 0.0448374 0.220783 -0.21545407 0.04119767 0.203526 -0.20767482 0.21312065 0.24425547 -0.17067759 -0.22875717 0.25627673 -0.17441939 0.2454467 -0.24048533 0.14360446
going 0.17774548 -0.1124601 -0.17837696 -0.018643454 0.07571101 -0.034425285 0.015048669 -0.03052432 -0.06295204 0.025758479 -0.04595103 -0.06870118 -0.09930622 -0.17284326 -0.15106882 0.083887644 -0.0985401 -0.12915733 -0.022687128 0.10074246 0.19768146 -0.076158546 0.1069794 -0.085057646 -0.11888039 0.07499478 0.01370897 -0.043925222 0.109415084 -0.1392035 -0.03596965 -0.09794346
few 0.1816742 0.0209198 0.001756487 0.104818955 -0.027731808 0.045563005 0.011549304 0.13579637 0.022879383 0.10541501 0.12752439 0.14836897 -0.0750126 0.029963732 0.04022115 -0.027436545 0.047402456 0.07479909 0.03779173 0.023985473 0.07169385 0.03001418 -0.060905624 0.05102253 0.043971173 -0.015308743 -0.13276848 0.118693836 -0.05322142 0.00936473 -0.11919356 0.04785396
same 0.07466344 0.010670139 0.0742596 0.059619926 -0.090545885 0.11022466 0.053161647 0.06849213 0.10076022 0.011275209 0.08132888 0.039277054 -0.09462752 0.007552966 0.047118545 -0.024382707 0.0951663 0.042151574 0.11599573 0.0041557606 0.04047219 0.11071472 -0.009796538 0.09843113 0.03390389 -0.10648346 -0.090722136 0.0010714427 -0.01619108 0.04974353 -0.06044869 0.02337255
part 0.041470684 0.032238066 0.08768906 0.039769128 -0.048240144 0.009223122 -0.07884253 -0.012095525 0.067231916 0.008606218 0.062023 0.03866294 0.052307077 -0.003417165 -0.04047991 -0.022641307 0.026441714 0.06072658 -0.03593537 0.0054898653 -0.09379704 -0.018848486 0.028229065 0.00073988835 0.0111891925 -0.06231857 0.05422219 -0.0575891 -0.06627852 0.027231231 -0.043282527 0.011724838
again 0.041127052 0.05311591 0.07313509 -0.12952834 -0.09559848 0.031108657 0.2582372 -0.06464126 0.054418232 -0.053068984 -0.03760261 -0.072744675 -0.21191213 -0.1028451 -0.021266298 0.042492773 0.010618495 0.0769889 0.056605954 0.01744489 0.05587114 0.11905933 0.013317163 -0.022648962 0.08368569 -0.16989914 -0.16067319 -0.031235702 0.02766538 -0.039466765 -0.078752585 0.08009289
every 0.021104459 -0.16394936 -0.208197 -0.13591303 0.09513333 -0.18574345 -0.1382089 -0.21402076 -0.15032414 -0.22032115 -0.14218244 -0.21039289 0.014866974 -0.24959299 -0.1843774 0.1799028 -0.2214954 -0.0927691 -0.15338314 0.18876971 0.13180816 -0.16057816 0.16688842 -0.21419159 -0.15477617 0.07582766 0.06959825 -0.15949857 0.22720043 -0.19598953 0.10433873 -0.2023
lot -0.13788477 0.124539964 0.059676185 -0.073804975 -0.13199776 0.037511088 0.047247186 -0.1134611 0.10663625 -0.0032843396 -0.039603744 -0.082911685 -0.07570655 -0.039122265 0.021753786 -0.0077289003 0.061955664 0.1696489 0.10680408 -0.14008266 -0.1722233 0.07025355 0.007307429 0.05833352 0.058084216 -0.17745201 -0.00084210356 -0.08043028 0.066123076 -0.034786344 0.053889062 0.049454413
cast -0.050959915 0.11401144 0.009570788 -0.05296664 -0.029689373 0.015576483 0.09072325 -0.022858467 0.010842353 -0.017864307 -0.029367365 -0.08478882 0.020746958 -0.096206285 -0.033155564 7.303613e-05 0.007986909 0.0075338646 0.043537576 0.024085697 -0.020858506 -0.011854065 0.04175575 -0.046291936 -0.016379444 -0.08645301 0.010901204 0.0017890976 0.099276304 -0.0539532 0.029551303 0.009804538
us -0.3247465 0.17954196 0.06653575 -0.24593548 -0.015122517 -0.10628047 -0.06262976 -0.28718057 -0.05782587 -0.19964948 -0.14614855 -0.12049585 0.19153781 -0.14190722 0.0009822124 0.028793339 -0.07853537 0.25359914 -0.12179535 -0.02146947 -0.34222633 -0.07172302 0.13529877 -0.036396157 -0.12763804 -0.0358406 0.24419759 -0.1536974 0.08918611 -0.06867654 0.21803476 -0.09386151
quite -0.15039457 0.21465582 0.19669212 -0.13555337 -0.23577285 0.078663945 0.1010687 -0.12664202 0.25688428 -0.06339891 -0.060949318 0.0007430389 0.023534868 0.00033105447 0.11224731 -0.10010494 0.09766491 0.27641183 0.21843806 -0.23051898 -0.31665397 0.21912304 -0.10283091 0.12448329 0.13069758 -0.2588794 0.0116811115 -0.04187421 -0.006173741 0.027585482 0.10952585 0.17469934
down -0.06427402 0.2161954 0.13706581 -0.07421437 -0.21203975 0.054149527 0.20877984 -0.09061657 0.099303715 -0.008123249 0.024015749 0.060816772 -0.07448926 -0.0033445328 0.11586071 -0.0943753 0.05243372 0.19024222 0.1637143 -0.15844522 -0.15708792 0.12742557 -0.06498213 0.0149164265 0.15806328 -0.2301941 -0.07528704 0.00038285062 -0.015823102 -0.0020370663 0.0071350653 0.11788774
want 0.17055185 -0.0049337368 0.12133884 0.08185529 -0.19424364 0.13775547 0.15794349 0.09171969 0.124829404 0.13384277 0.056083 0.12746234 -0.20630667 0.024292666 0.061901484 -0.1067892 0.13343224 0.016625542 0.12768768 -0.16829954 0.1985719 0.18118842 -0.1344706 0.08519409 0.19385204 -0.21381517 -0.14291935 0.0656264 -0.07050387 0.086209424 -0.14600487 0.21223465
world 0.17715205 -0.043234337 -0.11676741 0.10775569 0.096482396 0.0021979883 -0.023885597 0.11001038 -0.0045815683 0.07659093 0.07257525 0.0906122 -0.014839437 0.022935048 -0.07107378 0.009380756 0.013763514 -0.11923362 -0.09849618 0.028086023 0.1623045 -0.04276928 0.024115438 0.037057802 -0.015570587 0.0130142085 0.041314486 0.08985365 -0.06683071 0.04704711 -0.066391684 -0.06766037
things 0.08089686 0.040625848 0.011861034 -0.036290254 -0.06867694 0.021278374 0.06756499 0.024412159 0.028516877 0.05099335 0.01725793 0.07995388 -0.09099429 0.034294665 0.072432086 -0.11164281 0.07906769 -0.004329443 0.07493118 -0.097912766 0.041511077 0.040829398 -0.0013460505 0.051030785 0.028144013 -0.023929248 -0.041435048 0.049327116 -0.00287256 -0.005573811 -0.05925759 0.03116357
pretty -0.13509734 0.13755068 0.010094265 -0.24508208 -0.13934055 -0.047793683 0.03699052 -0.16608773 0.02361212 -0.1860429 -0.15640344 -0.07974803 0.00935654 -0.21224052 -0.03428217 0.028656708 -0.115106 0.18893391 0.09302193 -0.052525554 -0.15091448 0.013663295 0.06316309 -0.08654395 -0.054066394 -0.17515282 0.06957127 -0.15477003 0.13657144 -0.07039772 0.16466984 0.05853303
young 0.05517949 0.117529035 0.102233976 0.0647061 -0.094056524 0.058603287 0.0054217046 0.0028497677 0.020550221 0.0027327996 0.009992001 0.03761431 0.030085688 0.0825309 0.05101765 -0.012934554 0.03384654 0.121776916 0.03958053 -0.028992495 -0.05264163 0.024388278 -0.0070342715 0.025373943 0.051185466 -0.0071482984 -0.08843932 0.05651215 -0.052728135 0.0013052186 0.013514457 0.11818582
seems -0.15811984 0.24484894 0.13220079 -0.089877434 -0.13770281 -0.0062676976 0.0050473604 -0.03250578 0.09062975 -0.0055745034 0.014175012 -0.046422247 0.10416368 -0.019490069 0.07803654 -0.092698835 -0.0138802305 0.20940779 0.087356105 -0.094491504 -0.24928102 0.10297586 0.014078847 0.062480792 0.0040886067 -0.088763125 0.021250265 -0.018597953 -0.060273252 0.029947214 0.044019714 0.12793832
around 0.12707509 -0.016639376 -0.06269462 -0.07421377 -0.03306332 -0.033606786 0.08775901 -0.07994626 -0.009322315 -0.06125245 -0.11018622 -0.01751283 -0.14760977 -0.089513615 -0.08163286 0.08582723 -0.05335819 -0.056346662 0.021532757 0.06251683 0.10071465 -0.042307455 0.015335106 -1.2702516e-05 0.026700446 -0.06016617 -0.08300952 -0.04766167 0.10202435 -0.028890118 -0.03764594 -0.033247896
got 0.08736569 -0.026033122 -0.16842875 -0.044315662 0.11776212 -0.089124806 -0.0982072 -0.00051407516 -0.08859351 -0.045384087 -0.102642946 -0.014829891 -0.0054385415 -0.052530304 -0.09570079 0.1467992 -0.082249835 -0.09241838 -0.12776227 0.18906082 0.1423321 -0.10041107 0.092053704 -0.122497454 -0.067205206 0.14150347 0.07968212 -0.062020447 0.05575909 -0.094378866 0.056435034 -0.1024179
horror -0.06255337 0.25991443 0.21635392 -0.04123202 -0.17600459 0.056691304 -0.031542156 0.0154142035 0.09107975 -0.024681145 0.006785435 0.02261732 0.0014697332 0.05516053 0.16545779 -0.0912584 0.028887343 0.30439168 0.12484084 -0.1769057 -0.27750772 0.06967298 -0.06956949 0.063176304 0.07591646 -0.15406673 -0.031722423 0.07024186 -0.059696555 0.033668827 0.024391513 0.10749595
however -0.17295383 0.11992939 0.008360568 -0.10894227 -0.019803083 -0.03264696 -0.09153173 -0.2079948 -0.019580122 -0.072928935 -0.10853819 -0.07053657 0.12636271 -0.087946855 0.0005360701 0.061635803 -0.06986621 0.26149037 0.017895509 -0.08651836 -0.3042442 0.008694954 0.07892848 -0.00040955568 -0.07618606 -0.019815901 0.11820123 -0.06303506 0.09005687 -0.08268042 0.17882448 -0.027843894
can't -0.22759137 0.06645818 0.029664315 -0.15834261 -0.07305991 -0.067154944 -0.09677732 -0.17680328 0.010892315 -0.13602255 -0.114012375 -0.077830255 0.14536776 -0.02213945 0.014512135 -0.048603196 -0.03767385 0.2994465 -0.036053166 -0.090346895 -0.3612744 0.00025512042 0.019988464 -0.011587474 -0.074844144 -0.024494927 0.11790546 -0.07191532 0.040335756 -0.058566865 0.14285009 0.07545059
fact 0.010769004 -0.0131944865 0.008343545 0.045171563 0.056872547 0.005041934 0.026219161 0.008411555 0.019598689 -0.00386106 -0.014313376 -0.019282637 0.0038848275 0.02232139 0.040024277 -0.012547785 0.0665054 0.10528315 0.003920665 -0.0061438065 -0.09675542 0.046380315 -0.04823728 0.06701118 -0.009076422 -0.013083538 0.00016745728 0.004675392 -0.060060196 0.017017627 0.057570815 0.004933074
take -0.0015150749 -0.05099498 0.009298258 -0.05311988 -0.06595455 0.07738162 0.019154806 -0.05676677 0.0426793 -0.0072395112 -0.006826735 0.0038457685 -0.022205286 -0.0016144344 0.07279299 -0.034268323 0.017163184 0.08038319 0.012410114 -0.007953524 -0.037463233 0.08522955 -0.02035488 0.066897966 -0.00036776593 -0.046788413 -0.06430682 -0.003944112 0.026987169 -0.055500854 0.019373547 0.07271716
big -0.18060838 0.13658367 0.17969665 -0.033825986 -0.1730766 0.029076025 0.06522442 -0.10274311 0.0889807 -0.035307456 -0.01993334 0.030488765 0.006035781 -0.014932602 0.1450073 -0.08234095 0.07779301 0.13625486 0.07209592 -0.13094948 -0.22573695 0.08532302 -0.046952065 0.12023617 0.058869757 -0.12768091 -0.030349147 -0.011193289 0.013672437 0.041402813 0.11280699 0.13149038
enough 0.019254342 0.09126436 0.06414332 0.036589745 -0.023547357 0.010127745 0.05815345 0.04368494 0.013210917 0.031091308 0.02784335 0.005335977 -0.0035108721 -0.016976183 0.06369001 -0.07586816 0.0141880615 0.15793517 0.010506886 -0.027090821 -0.13702777 -0.00224168 -0.015457848 0.0035700754 -0.008385713 -0.0044771205 0.0055882954 0.05607691 -0.045614235 0.038378596 -0.0074204872 -0.0054335473
long -0.14918134 0.029970206 0.09551006 -0.1538617 -0.038208265 -0.07564032 0.046026707 -0.11102766 0.008566316 -0.1267397 -0.023408657 -0.09022583 0.003301302 -0.025288206 -0.03659724 0.05533437 0.010832169 0.09143127 0.04932776 -0.05553997 -0.085376 0.031262577 0.0665543 0.011730928 0.008130439 -0.12655663 0.09299047 -0.06653437 0.05042875 -0.045214437 0.10080459 0.040087234
thought 0.16686338 0.110174395 0.17647396 0.18525104 -0.22311953 0.21962571 0.22118728 0.23016 0.22838663 0.20194474 0.24977785 0.21707208 -0.2601688 0.19912866 0.22794485 -0.25370508 0.24944848 0.021876756 0.1805804 -0.116914764 0.09176263 0.17053363 -0.20337124 0.20383371 0.2584893 -0.13622396 -0.24557328 0.18983078 -0.21000405 0.2641159 -0.2584989 0.2188958
that's -0.04320516 0.021133004 0.103107534 0.11685563 -0.04723288 0.111826725 0.14099492 0.030501092 0.018877618 0.0180117 0.020390049 0.05818505 -0.08158811 0.040457193 0.097387694 -0.044395525 0.07800418 -0.02775286 0.1248546 -0.030905506 0.0018527579 0.09179768 -0.030222587 0.12047511 0.016912404 -0.056637105 -0.12853739 0.03672143 -0.052542616 0.14193346 -0.040518723 0.012121483
both -0.23413071 0.1060749 -0.015830854 -0.22847657 0.03269847 -0.13247652 -0.13404526 -0.2697154 -0.10090671 -0.20752418 -0.19630168 -0.22632973 0.14994943 -0.17174858 -0.09680283 0.09217967 -0.13563444 0.16357452 -0.1254155 -0.015817948 -0.24110608 -0.07356306 0.15845333 -0.15821302 -0.16996099 -0.042862304 0.21652852 -0.25288695 0.18075478 -0.12862499 0.29114532 -0.024467314
between -0.07678764 -0.030423647 -0.05702044 -0.05215667 0.0032414629 -0.009772665 0.020956676 -0.033987097 0.069974065 -0.013277946 0.019511526 0.005706126 0.044710428 0.01593154 0.017406562 -0.03208414 0.038518652 0.16674124 0.0020476107 -0.048845876 -0.10037089 0.023756621 0.009782942 0.028393751 0.038290057 -0.0017140453 0.0598075 -0.0060353484 0.06841485 0.04771297 0.09727782 -0.0062498925
series -0.2871994 0.14467669 0.16468053 -0.05916839 -0.06469553 0.039767884 0.040760435 -0.08828395 0.049663182 -0.08933444 -0.039442 -0.012470887 0.1833624 -0.011793339 0.040821556 -0.05162116 0.03251376 0.27108857 0.079791315 -0.09395135 -0.42430755 0.104917765 -0.04398219 0.09934136 0.005044951 -0.09206836 0.039655346 -0.066966236 0.035877697 0.038945775 0.15539 0.11271381
give 0.118402824 -0.17018287 -0.101959206 0.004367398 0.10393045 -0.03542252 -0.052202437 0.004084636 -0.061332453 0.028073857 -0.0012846619 0.0028669185 0.051311783 -0.04994694 -0.12421589 0.05698493 -0.025473982 -0.209012 -0.14934862 0.102114424 0.16765419 -0.13311978 0.10641736 -0.11472721 -0.039965373 0.09947203 -0.037428632 -0.060186077 0.058989003 -0.039185625 -0.063243926 -0.09675252
may 0.01631849 0.020746233 0.009680616 -0.14097628 -0.038755875 -0.048340827 -0.013939029 -0.16121313 -0.05955099 -0.1308695 -0.11007709 -0.07595085 -0.03744226 -0.11376491 -0.090796374 0.09977376 -0.06391937 0.0148508465 -0.03758705 0.04788834 0.061503693 -0.0880065 0.07460943 -0.09829115 -0.033786435 0.0011389216 0.096096046 -0.09566074 0.096021414 -0.090176284 0.062050845 -0.003135872
original -0.10459977 0.082582094 0.061936103 -0.1374347 -0.0370264 0.046840224 0.12139254 -0.07035451 0.07920329 -0.07284079 -0.028048892 -0.043366417 0.020481173 -0.023087908 0.04741238 -0.025095858 -0.022712123 0.1498278 0.035700876 -0.031746812 -0.1076998 0.09982594 -8.537008e-05 0.061743528 -0.0074404064 -0.14224367 0.03200279 -0.04922464 0.014571903 0.0035203716 0.08001208 0.025862388
own 0.0371998 -0.038877673 0.008245755 -0.03420751 -0.034852836 0.053929057 0.025157256 -0.026707437 -0.018481854 0.02060091 0.0032319173 0.04071383 -0.10193044 -0.056699075 0.0022951437 0.035677686 -0.029301183 0.10300004 0.070404604 -0.024317237 0.013253948 -0.02130344 0.0446755 0.039995223 0.034443393 -0.023420429 -0.032166924 0.021450035 -0.004820236 -0.04398719 -0.057705916 0.07219681
action -0.09148455 -0.12434275 -0.08447742 -0.17070721 0.036219403 -0.044859897 0.016764227 -0.12673295 -0.07583709 -0.14298524 -0.10634014 -0.10688296 0.068192795 -0.17855084 -0.15325426 0.16413374 -0.065369554 0.09537608 -0.118815616 0.07584047 -0.0789489 -0.08431481 0.18744111 -0.11571752 -0.04074158 0.013964475 0.117055885 -0.110324964 0.09208943 -0.1421048 0.061638106 -0.013416723
i've 0.06404804 -0.033636797 0.011991126 -0.09295445 -0.06517207 0.051500987 0.05470757 -0.038860414 0.024245087 0.015103077 -0.06511911 -0.035218976 -0.105746485 -0.07593433 -0.050544847 0.08222351 -0.0003195416 0.0041338345 0.023044648 0.06722938 0.037276655 -0.035344727 0.024448762 -0.007034833 0.009726047 -0.042103212 -0.07269982 -0.013711226 0.047458023 -0.083748475 0.041778382 0.035145093
right -0.17465642 0.08259655 0.13292488 -0.100121796 -0.18419412 0.017966397 0.16624175 -0.17850128 0.07794262 -0.051384855 -0.037637442 -0.023408374 -0.017404398 -0.063345425 0.07964984 0.026563676 -0.0087431995 0.16135782 0.067471616 -0.10688817 -0.15249465 0.093877696 -0.050944045 0.009190259 0.06962866 -0.23937657 -0.07159539 -0.020386856 -0.00131051 -0.037447684 0.04854006 0.10132209
without -0.35827103 0.28646752 0.12073916 -0.12586147 -0.12941958 -0.019716593 0.025201205 -0.19414835 0.08257595 -0.07064531 -0.04973829 -0.09394697 0.26759723 0.015909722 0.12355025 -0.044206955 0.012296297 0.3018349 0.08017182 -0.11542933 -0.38574505 0.06455894 6.7141984e-05 0.022226406 -0.060655873 -0.09268395 0.09611611 -0.025135528 -0.018052828 0.05959989 0.19355302 0.12537278
always -0.12002879 0.05903695 0.06238031 -0.16571523 -0.09282425 -0.02326881 -0.03566138 -0.10819176 -0.039841186 -0.08693733 -0.09845009 -0.05411413 0.015105221 -0.08919855 -0.054120634 0.08255314 -0.10961729 0.052857783 -0.005054831 -0.054314505 -0.13735038 0.018926626 0.040613797 -0.004429332 -0.039050788 -0.10104414 0.11361119 -0.15368417 0.11019438 -0.12663268 0.13124977 0.036761228
times 0.0017395804 0.21238992 0.030521443 0.025627628 -0.036596626 0.073047444 0.08834135 -0.040490143 0.10124612 -0.022821244 0.0772722 -0.0019866247 0.034852702 0.07887486 0.13061985 -0.11121201 0.048980832 0.13156591 0.017270025 -0.09551579 -0.10059906 0.086328305 -0.066393465 0.021428388 0.007148882 -0.07345008 0.028735753 0.030147094 -0.093230546 0.057481997 0.02756494 0.066206105
comedy -0.26605353 0.29143015 0.110512644 -0.098414816 -0.18424024 -0.0067616142 0.02028143 -0.11908999 0.13096687 -0.103476144 -0.0003914684 0.036235943 0.14580554 0.058717567 0.18941666 -0.0773556 -0.0033764963 0.4946657 0.13519266 -0.1468832 -0.48935217 0.088052444 -0.053791255 0.09237126 -0.02356775 -0.20617166 0.06346855 -0.06563766 -0.00025594042 0.09982533 0.18445632 0.07128243
point 0.19481312 0.09626338 0.2450374 0.23462605 -0.20397787 0.17081346 0.19987595 0.15727516 0.2262785 0.16615422 0.22867037 0.20915158 -0.22647417 0.14780714 0.23691732 -0.2168056 0.21816173 -0.016597545 0.21094961 -0.11766515 0.14289731 0.22059774 -0.15989965 0.22985195 0.24602641 -0.24913636 -0.25099778 0.21153319 -0.19932693 0.13752498 -0.22583078 0.21713649
gets -0.06675016 0.10323752 0.056179233 -0.1198642 -0.08798019 -0.06536279 0.13291071 -0.07814339 0.075580604 -0.06092984 -0.032428768 -0.058169894 -0.061717864 -0.052667964 0.006701793 0.028018123 -0.03636811 0.016086575 0.060180802 -0.035561718 -0.1392993 0.009005629 0.06476387 0.065575495 0.022916717 -0.15316097 0.01893231 -0.06679875 0.025984364 -0.015922546 0.05243106 0.11884753
must 0.0061287116 0.0032785102 -0.0029614535 -0.049983867 -0.008410246 -0.036247395 0.13370167 -0.064954534 -0.052715253 -0.04131037 -0.11045362 -0.09306979 -0.09369868 -0.037701532 -0.03954373 0.045320578 -0.0500559 -0.03596046 -0.029451327 0.04547689 0.09958177 -0.033854757 0.023403158 -0.0074641327 -0.010911781 -0.017859144 7.7277815e-05 -0.07531308 0.036645688 -0.010369575 -0.040096574 -0.06318517
come -0.32248652 0.137006 0.059753172 -0.27941847 -0.14506145 -0.14317237 -0.15250549 -0.33069646 -0.023413625 -0.26376858 -0.147944 -0.2357575 0.29589266 -0.14443149 0.014726481 0.028884765 -0.10900127 0.32602525 -0.011570284 -0.06916938 -0.35282123 0.022588106 0.05784428 -0.1178684 -0.085689776 -0.008195962 0.16127001 -0.17667425 0.16839473 -0.13531134 0.31081676 0.05943787
role -0.015417218 0.1234124 0.10143464 0.016960874 -0.12369418 -0.03443391 -0.046137553 -0.029648239 0.106367335 0.028715728 -0.027896745 0.0056181485 -0.026996298 -0.020946728 0.06096025 -0.0124412505 0.07428922 0.057458784 0.013606982 -0.062402245 -0.0344405 0.071968 0.01973252 0.006159678 0.04045686 -0.07556222 0.03586362 0.037308652 0.026222706 -0.031384625 -0.03431944 0.059554465
isn't -0.22252461 0.22629155 0.06538246 -0.12148357 -0.104890905 -0.10703463 -0.10041726 -0.1605563 0.00268596 -0.14509253 -0.061401818 -0.0800863 0.18270606 -0.015658446 0.032004334 0.030662632 -0.05794771 0.22698744 0.027760282 -0.09027941 -0.37212354 -0.052499138 0.080956995 0.017130265 -0.055369128 -0.058652725 0.12056574 -0.09677477 0.067290016 -0.08156573 0.21410815 0.03962436
saw 0.08193975 -0.11993059 -0.10107743 -0.19628797 0.032272838 -0.16297776 0.018321699 -0.10847965 -0.10545361 -0.07230274 -0.17327955 -0.113145344 -0.16279249 -0.20095561 -0.12679939 0.17508818 -0.11258933 -0.06976549 -0.08704082 0.09860398 0.18658625 -0.04396948 0.11295705 -0.12676956 -0.06489884 -0.011165199 0.061356977 -0.077631965 0.12648119 -0.17918578 0.08570109 -0.075335704
almost -0.11199811 0.118009426 0.19666296 -0.045115117 -0.1768575 -0.023760997 0.044037927 -0.017500497 0.15324059 -0.009113123 0.022603361 0.015046386 0.07730489 0.04147641 0.07436377 -0.010630177 0.04147921 0.10383075 0.074340634 -0.11509716 -0.20855725 0.12171043 -0.009307737 -0.002090097 0.07306009 -0.16494511 0.06686793 -0.014267606 0.00044973486 -0.015053058 0.059996806 0.091267146
interesting -0.08466539 0.06222802 0.0023646974 -0.08641226 0.007214584 0.019479895 0.018787626 -0.047593273 -0.01621993 0.0022251625 -0.035370566 -0.044926006 0.041322917 -0.0040205983 0.03905499 -0.01209445 -0.00543333 0.04393211 0.029168358 0.018233815 -0.01855156 -0.042093385 0.017333401 0.05255243 -0.0022651926 0.032328375 0.08176525 -0.08649251 -0.020740472 -0.011240615 0.0737019 -0.0050150403
least -0.20284517 0.15665823 0.09769261 -0.21564062 -0.17573437 -0.028803127 -0.038145356 -0.20862627 0.05586801 -0.10147562 -0.07629281 -0.042904668 0.12440712 -0.120929115 0.03168724 -0.01605821 0.00892235 0.27606267 0.00548986 -0.10505719 -0.267165 0.030733252 0.02765653 -0.03359956 0.027876446 -0.09956438 0.07799462 -0.16870858 0.037843324 -0.040284246 0.19403015 -0.015965452
family -0.16562182 0.14651561 -0.02481307 -0.14272268 -0.08282922 -0.17029929 -0.17060585 -0.16259935 -0.040402025 -0.13623616 -0.14493254 -0.16794598 0.16273129 -0.17089777 -0.15705143 0.14883222 -0.12415241 0.11743361 -0.06704479 0.017816769 -0.2397489 -0.09121757 0.1875709 -0.15018527 -0.17450106 -0.0049354816 0.13641416 -0.18550119 0.21120875 -0.11392866 0.20587587 -0.021527668
done -0.1644774 0.3866689 0.2991516 -0.015612372 -0.29078537 0.13311924 0.07293049 -0.04412727 0.16693668 0.0345811 0.12033634 0.029832304 0.07220598 0.14191003 0.17263158 -0.1831894 0.13102718 0.30049694 0.14414167 -0.20385568 -0.3212674 0.17390944 -0.11933798 0.19114189 0.11322286 -0.20243156 -0.06023693 0.06221507 -0.08862596 0.16872899 0.009468949 0.23760952
there's -0.06745396 0.016726756 0.012122727 0.03378718 -0.0035446773 0.055983428 0.010924784 0.015128769 0.0027396153 -0.05603041 0.07036275 0.004885203 0.044995125 0.032197688 0.008722983 -0.029275823 -0.001015557 0.09861787 0.0035843747 0.015115585 -0.10300377 0.068891495 -0.08164304 0.08317418 0.01913584 -0.08416886 -0.048434425 0.03835057 -0.04498364 0.08549591 0.05269188 0.0035903263
whole -0.050591614 0.09969309 0.023839843 0.00698213 -0.017386256 -0.018526731 -0.026320245 0.02831851 0.051072463 -0.031761315 0.02575718 -0.010646551 0.057194807 0.028025223 0.07694655 0.00036906713 0.05554641 0.066452 0.038648266 -0.008423582 -0.06310896 -0.030099243 0.0019650375 0.04608618 0.006599253 0.0023244978 0.0142303975 0.0016719212 0.023267545 0.05651974 0.040706128 -0.008156682
bit 0.04572298 0.15006617 0.30366448 0.06548164 -0.33531177 0.19430028 0.13576153 0.12261168 0.2901136 0.09312235 0.18432784 0.24625263 -0.10502818 0.2426051 0.24755727 -0.27151832 0.2440805 0.1539663 0.19565424 -0.30826285 -0.13711739 0.2469395 -0.28426412 0.22044417 0.2347121 -0.26329753 -0.19605368 0.13749564 -0.22346647 0.22277234 -0.1130245 0.29299027
music -0.10605425 0.20327517 -0.023126556 -0.17960356 0.030446306 -0.16083296 -0.14246176 -0.17152487 -0.091504306 -0.177613 -0.17961216 -0.13934681 0.13427716 -0.13477732 -0.0806051 0.14262286 -0.13894655 0.0932563 -0.124762036 0.057384707 -0.17309299 -0.13121559 0.13234086 -0.15729621 -0.15033087 0.032773018 0.16029783 -0.09003676 0.09370082 -0.08891677 0.21866722 -0.12913136
script 0.036121435 -0.15559906 -0.058396485 -0.07069041 0.041867826 -0.06069389 -0.011270827 -0.055975646 -0.08482744 -0.07301656 -0.10850487 -0.08014443 -0.080596186 -0.12547481 -0.15683204 0.14636205 -0.13888727 -0.16704017 -0.074074425 0.14444736 0.18417405 -0.013250441 0.11473413 -0.15522557 -0.018259615 0.03534334 -0.020065138 -0.11784505 0.14292257 -0.10817208 0.007318788 -0.09422253
far 0.0027614196 0.17057289 0.062476538 -0.022627218 -0.120860614 0.040234085 0.052024074 -0.028920572 0.0071901 -0.03518421 0.033725332 0.026464239 -0.030219309 0.008670914 0.05139289 -0.0015259867 0.049876295 0.12451413 0.039415367 -0.08021375 -0.10756667 0.023654306 -0.07489989 0.013965128 0.054862913 -0.04617314 -0.027255066 -0.01194416 -0.067542076 0.011828327 0.059313897 0.064917244
making 0.011400656 0.0038480458 0.047122095 0.006330582 -0.14401619 0.039594885 0.14273097 -0.004292406 0.06715324 0.017499598 0.006936096 0.02414521 -0.18581115 -0.069356054 -0.011463598 0.013961571 0.024749663 0.023443148 0.0855883 -0.036136795 0.05586106 0.10125922 0.01473152 0.08218997 0.09893063 -0.08957959 -0.05967189 -0.019779319 -0.050075244 -0.034645084 -0.01072652 0.057291765
guy -0.041892648 -0.07249836 -0.19843678 -0.24028559 0.10305091 -0.14188403 -0.037095122 -0.14231664 -0.13365728 -0.13416412 -0.15756169 -0.1606528 -0.0043923175 -0.2205828 -0.17068538 0.2347284 -0.1673036 -0.07841387 -0.08861275 0.1601172 -0.0012607551 -0.09850995 0.16843995 -0.18558745 -0.086229816 0.032222297 0.070225164 -0.1226919 0.16973077 -0.24608226 0.13095677 -0.16509455
anything -0.09582066 0.10678296 0.050684076 -0.07148977 -0.08760957 -0.024268648 -0.02961526 -0.04401431 0.06037458 -0.056247465 -0.010666288 -0.032329433 0.06336055 -0.0017329847 -0.007657301 -0.012437861 0.05145657 0.17539227 0.030284489 -0.04825129 -0.1176792 0.047195103 -0.0050213835 0.05579956 0.010820523 -0.027103005 0.009899708 -0.009736382 -0.029654307 0.05235565 0.06894816 0.007623979
minutes 0.025362702 0.27344888 0.21144015 0.072194785 -0.2424187 0.09566197 0.14461714 0.023906516 0.2035066 0.06476959 0.16011968 0.12881921 -0.11341162 0.07599413 0.15901408 -0.12495612 0.1408237 0.2236715 0.12233062 -0.21809496 -0.1147966 0.1945614 -0.14108135 0.20569259 0.16934077 -0.22172801 -0.061310068 0.12533288 -0.17933728 0.13661894 -0.017387435 0.14525206
feel -0.12751432 0.16379865 0.06890628 -0.130245 -0.122278 -0.029240228 -0.08967991 -0.16002229 0.07905954 -0.07010583 -0.031002024 -0.1008603 0.03715083 -0.07299713 0.002976253 -0.049554788 0.018707825 0.24721976 0.012800252 -0.103176706 -0.2498698 0.028429335 -0.019782934 0.024043808 -0.008600395 -0.1802514 0.042836897 -0.06422301 0.016168054 -0.05501453 0.075324565 0.012710539
last 0.18477465 -0.04441448 0.010083485 0.06288566 -0.055634834 0.012765996 0.06911371 0.04205019 0.015030201 0.06608934 0.05651181 0.029130237 -0.19048038 -0.04214547 0.041298445 -0.05664184 0.041047726 -0.015533461 0.03810327 -0.058429096 0.06830148 0.10185634 0.017414138 0.0070315697 0.054622132 -0.08115212 -0.10955779 0.018743737 -0.055723004 0.049083967 -0.06597536 0.046385963
since -0.009060577 -0.04886115 -0.10487005 -0.11168877 0.032493778 -0.094041325 -0.088811465 -0.15274878 -0.045186374 -0.06452726 -0.09158979 -0.07677413 0.047611862 -0.1154147 -0.096384 0.13220668 -0.15335646 0.04551634 -0.10396666 0.14965689 -0.018698161 -0.061169773 0.124465905 -0.16223603 -0.09136601 0.071799286 0.0944779 -0.111320734 0.13274695 -0.08717515 0.11522203 -0.06805799
might -0.06480132 0.009184639 0.0152770765 0.009059344 -0.070930995 -0.052162606 0.02999382 -0.0056240936 -0.010555793 -0.0512192 -0.038939025 0.010655095 0.0948839 -0.001905103 0.049419995 -0.0310981 0.04461665 0.21790455 0.009355289 -0.07653347 -0.11906504 0.060783364 0.031696517 -0.027205732 0.0086905025 -0.09626792 0.04089938 0.017348794 0.035018664 0.042311057 0.058942664 0.052092925
performance 0.036960393 0.08227433 0.11254682 0.06658091 -0.16756 0.080739185 0.095752075 0.045581955 0.1670618 0.06775103 0.07822505 0.09186893 -0.098531775 0.03917728 0.08049094 -0.10629087 0.092749245 0.14032482 0.17729877 -0.14427397 -0.025514113 0.109552965 -0.11600948 0.07741295 0.14157556 -0.1082742 -0.12676698 0.051378727 -0.040585957 0.05276652 -0.056460682 0.12475143
he's 0.045031957 -0.017043874 0.003447158 0.089292124 0.04316095 0.0676594 0.026309934 0.025564425 0.04265848 0.08436648 -0.0020404418 0.0626663 -0.047276244 0.031246552 0.0270523 -0.005466494 0.07183573 -0.009288549 0.03591607 -2.4611778e-05 0.099886574 0.0260485 -0.013346528 0.058510475 0.073550396 -0.011398073 -0.058813065 0.023958543 -0.002316486 -0.011906951 -0.05828572 0.026876733
2 0.047214534 0.21570933 0.17737855 0.17645109 -0.115046136 0.13413942 0.15964445 0.14169842 0.15321073 0.17467543 0.12889045 0.11260458 -0.111393444 0.12915877 0.094093755 -0.12981062 0.08944296 0.20948033 0.115030706 -0.08939527 -0.12465514 0.102989875 -0.14242688 0.1295948 0.11930715 -0.18910167 -0.10921559 0.13108899 -0.10127473 0.09548155 -0.13924275 0.109591044
probably -0.10496279 0.18808408 0.101197764 -0.031043595 -0.14163502 0.0879193 0.02441305 -0.14749077 0.11776001 -0.07381414 0.01026829 -0.010231773 0.054023568 -0.02810063 0.12074774 -0.04516563 0.06744218 0.24644345 0.025812464 -0.09215594 -0.32869685 0.07793689 -0.100934654 0.047277357 -0.018190857 -0.12690264 -0.014946264 -0.024609169 -0.057856336 0.07300852 0.08890541 0.03355296
kind 0.21221517 0.06341697 0.06325505 0.08926394 -0.12619138 0.13028154 0.17239587 0.18806623 0.08569407 0.19291694 0.12389251 0.12665305 -0.24473315 0.14867647 0.106467865 -0.110908926 0.18380255 -0.07407006 0.09932082 -0.04003321 0.1559959 0.17783259 -0.12508401 0.1320823 0.13694514 -0.08520235 -0.21350254 0.18288888 -0.13515109 0.1428446 -0.13767827 0.11942862
am -0.068284236 0.06465098 -0.05741166 -0.1135218 -0.017008191 -0.087975994 -0.03447272 -0.12922151 -0.021997882 -0.123721674 -0.08799595 -0.1258055 0.10520313 -0.06901903 -0.013709646 0.07234482 -0.07286672 0.12310174 -0.016009223 -0.028698616 -0.13391753 0.005418607 0.04542022 -0.02716023 -0.007875947 0.047069747 0.09644791 -0.0800197 0.05301507 -0.011292976 0.11229022 -0.0330135
away 0.021448852 0.09865687 0.0074637663 -0.052788083 -0.08489137 0.02116834 0.041503727 0.054077316 -0.010332229 -0.048230655 0.039068148 -0.031190813 -0.004673203 -0.0075872857 0.020417739 0.0037364769 -0.0137277 -0.014164247 0.018580632 -0.045190558 -0.031938203 0.0012372042 0.015715007 0.06741307 0.028315179 -0.03946224 -0.018429024 0.05105042 0.042473394 0.07708364 0.007809333 0.035195746
yet -0.24418472 0.16001599 0.045975167 -0.18815322 0.018410686 -0.14261374 -0.16274226 -0.17937757 -0.032066606 -0.24155083 -0.11888624 -0.16586697 0.24381718 -0.09366223 -0.018805116 0.048748046 -0.15667146 0.110700674 -0.0430485 0.03053289 -0.2753361 -0.12235958 0.063702576 -0.0691137 -0.14704615 0.007768574 0.24527593 -0.12685812 0.16049229 -0.05564696 0.26243117 -0.11005456
rather -0.16048352 -0.08172227 -0.08506576 -0.14979695 0.092401505 -0.17322 -0.016954998 -0.12248288 -0.11450074 -0.18626417 -0.11020895 -0.17853665 0.1602876 -0.101551555 -0.08851865 0.159552 -0.094915226 -0.0029502136 -0.096388206 0.084071025 0.03392705 -0.09609068 0.16246215 -0.105547994 -0.16407888 0.030300064 0.14639473 -0.13111503 0.13638009 -0.063324645 0.17711586 -0.06579313
tv -0.06351245 -0.015243525 -0.046144985 -0.043028075 0.029969906 0.03454148 -0.011688512 -0.051475596 -0.024225187 -0.019038958 -0.045259114 -0.015410494 -0.025781222 -0.0070552174 0.017062923 0.056735713 -0.020480242 0.03839759 0.007619941 -0.0511775 -0.02214024 0.052744262 0.03193173 -0.05449462 0.046761557 -0.009017429 0.02117235 0.016239233 0.017386809 -0.035650875 0.050106354 0.027196204
worst 0.00080831593 0.37603045 0.45418337 0.26925993 -0.3685804 0.29952872 0.31483787 0.19756249 0.45875245 0.23375788 0.30615935 0.36494356 -0.35491318 0.31713742 0.369969 -0.3768238 0.37349656 0.24316719 0.41105303 -0.4272597 -0.17310463 0.3824341 -0.35669476 0.3679596 0.39824674 -0.46846086 -0.35900074 0.24149837 -0.39049247 0.33169842 -0.20002307 0.35944575
girl 0.15493706 -0.098033555 -0.06406421 0.14187934 0.03420866 0.046450865 -0.02695002 0.16117534 -0.0573435 0.05113802 0.08027668 0.082954384 -0.0533592 0.15198196 -0.020163147 -0.0013512906 0.0056593637 -0.10691926 -0.053816125 -0.012062913 0.12349582 0.010137189 -0.07857415 0.06807577 0.06067316 -0.0009447926 -0.057706963 0.10313026 0.0038620248 0.08498687 -0.0777407 -0.016427698
day 0.10650285 -0.0799074 0.050050564 -0.004421779 -0.14431915 0.018595682 0.18362711 0.015130901 0.037690587 0.032946106 0.038429387 0.07612137 -0.30708307 -0.008055391 -0.025559919 0.04946987 0.076917596 -0.033317465 0.064226225 -0.028236503 0.22001767 0.06914789 0.046736546 -0.036113326 0.095516026 -0.17762372 -0.14293681 -0.034516208 0.053984355 0.022189027 -0.12025879 0.10362917
sure -0.28571287 0.18275097 0.13280627 -0.09811038 -0.084861696 -0.059705347 -0.08423642 -0.1383672 0.09915636 -0.11312157 -0.09384017 -0.11623044 0.25031096 -0.048696946 -0.009312028 0.016852967 -0.019882742 0.27744445 0.015201309 -0.09949258 -0.22098015 0.032764427 0.05040647 0.010309084 0.047238816 -0.06661034 0.036206134 -0.058499012 0.10280024 -0.059591297 0.05023095 0.11196792
fun -0.28025585 0.21129887 0.18337649 -0.15700907 -0.23471324 -0.053882882 0.09418047 -0.23731337 0.15889978 -0.14800858 -0.0476602 -0.113643475 0.10413185 -0.10913709 0.10161395 -0.029948309 0.047106188 0.43489775 0.048751686 -0.13625844 -0.36147755 0.0701028 -0.029074667 0.070015855 0.014220705 -0.20762631 0.10589993 -0.11508368 0.024278034 -0.045592587 0.14081669 0.1949559
hard -0.02226139 0.20060673 0.1277234 0.04398122 -0.14279939 0.10152262 -0.0331432 0.041131917 0.1292533 0.062442347 0.0479925 0.033889003 -0.016745249 0.07211233 0.06310749 -0.09897481 0.14198463 0.22390705 0.10768605 -0.21745226 -0.15241623 0.10974328 -0.07855268 0.10651531 0.08735318 -0.12398411 -0.020488258 0.020201545 -0.13644372 0.10979087 -0.077016525 0.094803266
woman -0.16174309 0.0775216 -0.009749908 -0.14137849 0.013725832 -0.18864658 -0.11111018 -0.1711168 -0.020788835 -0.16970642 -0.18589911 -0.21787901 0.10786915 -0.16385783 -0.060112357 0.07742827 -0.109224446 0.18977775 -0.0348197 0.043886043 -0.27798635 -0.088930696 0.13699022 -0.14050467 -0.10061473 -0.015232154 0.17286317 -0.13168068 0.100501485 -0.15902844 0.23054305 -0.038877357
played -0.14684498 0.027230917 -0.025788466 -0.122361526 0.0804311 -0.14811735 -0.07086742 -0.14709237 -0.0925299 -0.17417246 -0.044686724 -0.11761189 0.14999825 -0.13240473 -0.09201509 0.06771164 -0.12357194 0.14133714 -0.061845824 0.10539116 -0.13403946 -0.10981981 0.07036792 -0.12886946 -0.11517543 0.095725976 0.14551777 -0.057549145 0.15597236 -0.06297572 0.13189489 -0.09057478
each -0.0597723 0.050969716 0.05026254 -0.09211033 -0.01155735 0.019576833 0.039143562 -0.066553056 0.021828245 -0.10034408 -0.07565897 -0.05328723 0.019182472 -0.042065956 -0.016031077 0.015344251 0.017892195 0.24804181 0.0132849915 -0.05782017 -0.25560176 0.054358076 0.017250966 0.016700394 -0.041601665 -0.06776159 0.025813175 -0.02911113 0.009884751 0.027241189 0.092375904 0.010547018
found -0.21265079 0.3066665 0.19746092 -0.087733656 -0.1550157 0.050214138 -0.031102201 -0.05819244 0.12974556 -0.08214893 -0.024716228 -0.039929688 0.10467806 0.046409287 0.11039068 -0.094839625 0.014908894 0.32462317 0.039515067 -0.15518402 -0.40569726 0.11026888 -0.064092584 0.09778123 0.036016393 -0.10839878 0.08766741 -0.04116699 -0.082099475 0.018074764 0.031330388 0.13831046
anyone -0.09452373 -0.007736279 -0.054895032 -0.14850591 -0.052103344 -0.0382001 0.08234622 -0.0986702 -0.010559944 -0.050965074 -0.120236926 -0.11942004 0.062849 -0.18507096 -0.006047858 0.07398812 -0.08354849 0.06205205 0.04318047 0.030595021 -0.104267575 0.011145097 0.07996039 -0.05852165 -0.044452686 -0.06595043 0.008687102 -0.07330759 0.08839641 -0.038981672 0.07061481 -0.005499174
having 0.03731902 -0.06462178 -0.06430689 -0.049551178 0.068684176 -0.052048404 0.05759649 -0.007858257 -0.042344864 -0.027317178 -0.005982779 -0.061197754 -0.021248195 -0.027385475 0.007746646 0.028393274 -0.06725467 -0.111481994 -0.03333606 0.040751286 0.073911026 -0.070355274 0.017357593 0.012970178 -0.077026375 -0.018481584 0.006076396 -0.00024126508 0.09602944 0.03275802 0.035251237 -0.07955628
although 0.19116737 -0.0846601 0.009676116 0.08003308 0.04881606 0.075449064 -0.025437368 0.14089781 0.022224752 0.15687649 0.104265906 0.12251272 -0.14885455 0.031073637 0.03139969 -0.030289024 0.102394395 -0.20400527 -0.06210294 0.022811037 0.2755363 0.031174773 -0.084156655 0.08461605 0.044564705 -0.037626404 -0.09439558 0.040403064 -0.12460993 0.026117818 -0.12065373 0.0681088
