9996 32
the -0.008694023 -0.034019537 0.027644126 0.012845662 0.013854507 -0.035955872 0.055368114 0.022085221 -0.020119378 -0.017328084 0.052587975 0.004370988 0.012050869 0.053575087 0.1779134 -0.0067143706 0.008695098 -0.19525453 0.15305081 0.1304152 0.06538448 0.11705445 -0.0022008603 0.049385127 -0.04156111 -0.018562889 -0.024082825 -0.09771552 0.015881032 0.036580183 0.010066412 0.012703489
and 0.026517255 -0.023591055 0.12515043 0.06515507 0.010154732 -0.034821067 -0.0975305 -0.008919327 0.0086986 0.07421566 0.024732733 0.03947672 -0.032993745 0.0731105 0.09387939 0.053388227 -0.037432216 -0.06451319 0.10617136 0.15624236 0.012840571 0.066495314 -0.008517512 -0.008719022 -0.024134547 0.023168411 0.0032917105 0.015396003 0.021192377 -0.039917175 0.060523983 0.07058017
a 0.011368508 -0.04447624 0.061116215 -0.010102699 0.048451405 -0.045738194 0.009580633 0.053915832 -0.054470588 -0.04237591 -0.010249084 0.017199086 -0.004374144 -0.044049114 0.34618217 0.036148604 -0.042199746 0.060957186 0.23810843 0.050766967 0.0075321565 0.18923737 0.0024974335 0.09736429 -0.009429594 0.00521801 -0.05770499 -0.020944528 0.00041301115 0.007037547 0.065132335 0.074648954
of 0.031337593 0.015386288 0.09614055 -0.09104016 0.0004605293 -0.13605334 -0.07517702 0.008881586 -0.023110367 -0.002211626 0.030282963 0.045761216 0.057734057 0.050317645 0.75358933 -0.0029033222 0.03239451 -0.009249866 0.4706141 0.26945147 0.045329493 -0.0654986 0.028899126 0.087055266 0.052133203 -0.020819986 0.009600177 -0.18202166 0.10237636 0.0063934242 0.048451837 0.09859018
to -0.04253268 0.07907027 -0.027472027 -0.12307 -0.012520898 -0.09802622 0.106223114 -0.02360923 -0.010370062 -0.034596257 0.0044596903 -0.0683269 0.0040497873 -0.015389048 0.31339556 -0.09225621 -0.00035058946 -0.036210485 0.22819214 0.054763664 -0.05246038 0.040241905 0.029394653 0.019468075 0.05896251 0.005331432 0.05023641 -0.1241123 0.06891743 0.03196975 0.015072002 -0.04124031
is 0.045100052 -0.018921148 0.0131678535 0.06849163 -0.033504397 0.031502057 0.0470049 0.105221026 -0.08546857 0.011006363 0.009312732 0.08745127 -0.05163403 0.047790006 0.15172058 -0.0348427 0.014708182 -0.09878597 0.11536143 -0.013681359 -0.03471922 0.15947254 -0.08538431 0.008401575 -0.0050511723 -0.008557851 0.05254763 0.031276517 -0.024014436 -0.06185515 -0.00685861 0.06652008
br -0.026477711 0.021092584 0.071292885 0.00735152 0.021705 0.01027019 -0.014446154 0.007224449 -0.016489033 -0.16330239 0.028954105 0.0003257972 -0.01076376 -0.0020252254 0.6488188 0.06328065 -0.056784097 0.23343885 0.24440409 0.025499193 -0.016659511 -0.00666544 0.018062802 0.08589841 0.039018318 -0.059306666 0.08658533 -0.035242647 0.13271451 -0.021414768 -0.044680413 0.08597913
in 0.015924385 0.034532033 0.096391715 -0.16254848 -0.03657458 -0.13609663 -0.009027122 0.019993557 -0.031626314 0.045170896 0.059509765 -0.021597268 0.01843745 -0.04456318 0.5725321 0.038427822 -0.051274214 -0.12372917 0.33088484 0.3770455 -0.02562677 -0.05952518 0.030832618 0.034970682 0.008433497 -0.018974092 -0.012056514 -0.14818703 0.10413007 -0.020232907 0.04421476 0.06728903
it 0.104526386 0.058789253 0.039152436 -0.07561649 -0.04738722 -0.00043883405 -0.0006198057 0.050972488 -0.09027075 -0.06407936 -0.029353945 0.060336307 -0.09445607 0.018537845 0.5768441 0.08329238 0.050839603 0.07958592 0.43269795 0.103155516 0.033542324 0.13362977 -0.025369192 0.09935539 0.008774515 0.05949703 0.06812477 -0.08030629 -0.014557728 -0.075759515 0.08586629 0.13515499
i 0.09482916 -0.014260602 0.13699743 -0.0073511 -0.06837716 -0.015513757 -0.07536711 0.020118315 -0.050810948 0.021722358 -0.05163503 -0.00427667 0.023467068 0.020282175 0.1880527 0.056102198 0.07224715 0.07665765 0.12571827 -0.12457135 -0.0342427 0.02855999 -0.05285919 0.056410085 -0.024283255 -0.02013921 0.08461056 0.05686993 0.03345525 -0.100864395 0.036519896 0.1128154
this -0.047049753 0.06710743 0.016604938 -0.10199542 0.08764647 -0.09100193 0.06391783 -0.039464854 -0.030706882 -0.07989387 -0.010927941 0.019858962 0.103037655 -0.06395474 0.47055328 0.048333064 -0.032559533 0.07635939 0.27374926 0.08224571 -0.027711472 -0.032292288 0.014530185 0.10980558 0.12817405 -0.010171109 -0.050840907 -0.1142028 0.12904713 0.024876636 0.016667737 0.11119217
that 0.08016794 0.017053416 -0.017473383 -0.17941505 -0.041577574 -0.059237327 -0.022910627 0.032840006 -0.05408886 0.09092586 -0.028560689 -0.04884776 0.02053902 0.032377176 0.43220755 0.0002829457 -0.055190537 -0.085853584 0.4049884 0.17181015 0.01527523 -0.08073204 0.039441604 0.09256291 0.016707346 -0.04265253 0.08610853 -0.111081526 0.093313955 0.00835655 0.08134467 0.096012704
was -0.10907767 0.064128906 -0.1588096 0.26638398 0.017533831 -0.05210755 0.07774764 -0.06669722 0.051741496 -0.1791257 0.06989799 -0.08170469 0.08072353 -1.572891e-05 0.09761768 -0.17636886 -0.08217654 -0.30632892 0.14642406 -4.4099135e-05 -0.016946249 0.39783478 0.057267815 -0.1163335 0.059596896 -0.046073906 0.014754066 -0.10471777 -0.023924747 0.10616069 -0.084421284 -0.10662224
as 0.060282435 -0.049773373 -0.017501643 -0.25723433 -0.030623581 -0.11204877 -0.039659347 0.016275473 0.007759213 -0.037243154 0.052384876 -0.052710082 0.012147976 0.00133935 0.37688884 -0.043277375 0.034562383 -0.10279525 0.4013702 0.32273048 0.06770443 -0.012320867 0.025020335 0.019305991 0.042497203 0.031105716 0.0013927217 -0.15551385 0.025555968 -0.012299221 0.068644226 0.033247504
for 0.010956983 0.024299456 0.03179283 -0.14999433 -0.017776519 -0.0923082 0.07451287 -0.04352916 0.012740839 -0.02136584 0.078484245 -0.018850898 -0.02674246 0.013476328 0.3811055 0.008052279 0.028757285 0.044064667 0.2508614 0.0807724 -0.0058711725 -0.17758147 0.05430325 0.050767444 -0.00694357 -0.057594795 0.0026646825 -0.12910883 0.049413633 -0.0015315241 -0.030927422 0.014025276
with -0.009690646 0.06186522 -0.15555267 -0.10539155 -0.010407435 -0.112207584 0.06038412 -0.07072283 0.007117624 -0.077499375 0.069757976 -0.09191122 0.047089256 -0.042765077 0.4166369 -0.032117095 -0.06513629 -0.04755969 0.2814618 0.13885564 -0.07174933 0.005660897 0.004299656 -0.10242088 0.119427495 -0.07169327 -0.043543607 -0.19719692 0.07583181 0.05910081 -0.03698153 -0.031096859
movie 0.0038161792 0.050884616 0.17860089 -0.1754591 0.0910066 -0.0686371 0.0005750295 0.022626592 0.030749291 0.024081293 0.01703566 -0.052365392 0.09589438 -0.027649283 0.50471133 0.006243744 -0.019264756 0.22728102 0.24507514 0.03482599 -0.0013114297 -0.10366126 -0.0047287927 0.11037854 0.052089736 -0.08815 -0.0023802812 -0.13591278 0.05190765 0.023223493 -0.00067305664 0.077783726
but -0.077034995 0.08167769 0.009547716 0.21479814 0.01794411 0.033487882 0.079403765 0.092940725 -0.017414896 -0.043773506 -0.007538107 0.060053147 -0.10870872 0.053364053 -0.20254923 -0.10563776 0.10282717 -0.23602572 -0.031150047 -0.08594562 0.010993609 0.39010182 -0.016176477 -0.067052275 -0.025920557 0.06341291 0.040147357 0.08996599 -0.114577785 -0.042552978 -0.0664325 -0.021252543
film 0.03424367 -0.019761331 0.13714577 -0.18558346 0.019346248 0.023414766 -0.07336183 0.06706386 -0.106152885 0.06423489 0.010380464 0.04762268 0.02357842 0.0065049366 0.5157475 0.06579579 0.0096433675 0.1086267 0.22855394 0.040907666 0.080152854 -0.08206839 -0.05524727 0.10786702 0.054746494 -0.0046066833 0.05580961 -0.035035573 -0.009552004 -0.08254228 0.07373256 0.09419479
on -0.025245849 0.045957886 0.027663901 -0.05674146 0.02102626 -0.06471735 0.06519815 -0.026371129 0.0054328484 0.0059555396 -0.02855268 -0.013199306 0.026954072 0.013441613 0.3602484 -0.0076547316 0.005495343 -0.03745093 0.26417407 0.08336268 -0.039621826 -0.19233876 0.047749802 0.11292461 0.0663602 -0.054392952 0.026881816 -0.06630447 0.06126286 0.01348576 -0.038435977 0.06701932
not -0.030272214 0.06650124 -0.12284785 -0.1839927 0.09898039 -0.15740268 0.06709379 -0.10757596 0.024583869 -0.06437156 0.16221534 -0.095775545 0.14458539 -0.064591825 0.5871218 -0.05687128 -0.1358212 -0.3087383 0.52893704 0.27760938 -0.06249702 -0.07199628 0.1332618 -0.0078096325 0.16446337 -0.1760888 0.014264073 -0.3754379 0.14445435 0.069035076 -0.11815241 -0.03875904
you 0.067757 -0.06392393 0.17124645 -0.15812105 -0.042540178 0.020296596 -0.041690826 0.03862722 -0.04696578 0.023784509 -0.01457176 0.023024166 -0.032951668 0.044296548 0.20306574 0.07748641 0.055766024 0.09269521 0.09462169 0.0121406 0.055042155 -0.12876716 -0.085975386 0.11604666 -0.044517145 0.015398144 0.06488029 0.07995625 -0.03385127 -0.11309615 0.101643234 0.18322578
are -0.04354314 0.040777646 -0.10752349 0.1441099 0.0675827 -0.12817106 0.08263415 -0.056183543 0.03141527 -0.096572615 0.04493825 -0.05811797 0.07958442 -0.028972019 -0.030690394 -0.15804647 -0.032942157 -0.11127445 0.096299864 0.11403259 -0.057129398 0.09642477 0.01790888 -0.11327926 0.023229584 -0.07889837 -0.08783779 -0.062014062 -0.00818523 0.045315366 -0.08535973 -0.030806161
his 0.035631828 -0.009239893 0.06689304 0.11064857 -0.105154455 0.032409057 0.042216774 0.06718672 -0.08247943 0.08533641 -0.07464165 0.10386185 -0.07590046 0.14946237 0.118420884 -0.020363517 0.102604456 -0.06073943 0.09077758 -0.009546176 -0.033988133 0.13678421 -0.06992235 0.04294791 -0.0745874 0.09627865 0.08694232 0.032541048 -0.1023458 -0.0794454 0.011342853 0.050154876
have -0.0025976803 0.052440688 -0.012176556 -0.06144222 -0.013690258 -0.099718586 0.0647535 0.014539328 0.05239146 -0.041572347 -0.007724298 0.037924975 -0.0052979933 0.025108695 0.2610423 -0.007113504 -0.022423802 0.07073062 0.10402709 0.10979829 -0.023423593 -0.13919313 0.004478304 -0.05213066 0.05931122 0.015195871 -0.050200645 -0.053470343 0.027812965 0.040476117 -0.018889926 0.006095219
he 0.01742495 6.5490334e-05 -0.046360634 -0.06685412 0.03237869 -0.00285598 0.06395827 0.029717907 -0.03393148 -0.11091108 -0.0029090815 -0.040310096 0.049326766 -0.045128282 0.18186735 -0.06648231 0.028549904 -0.04939355 0.11504417 -0.0917328 -0.0021881324 -0.022101773 -0.03139489 0.012441313 -0.0077544153 0.017255435 0.029022498 -0.096951306 -0.025283625 -0.043508757 -0.0023117713 0.095497385
be -0.06932927 0.03268271 0.2316554 -0.2821444 0.07454643 -0.09912574 0.034462944 -0.029832477 0.001050536 0.051879786 0.10167714 0.008818641 0.06248429 -0.007139906 0.36716172 0.11431415 -0.07541041 0.29826826 0.20050682 0.11715655 -0.045924056 -0.31247738 0.10783807 0.07631585 0.11290829 -0.12527297 0.022499338 -0.08380115 0.13301109 0.030451268 -0.034153223 0.0693291
one 0.021741373 0.03340563 0.02598848 -0.31615305 0.030774834 -0.13303864 0.05764253 -0.043932598 -0.006191019 -0.029889662 0.13194862 -0.016347997 0.038808472 0.006089312 0.6554972 -0.010676559 -0.0332201 0.019011064 0.39282686 0.27956554 0.024093844 -0.12284876 -0.024977392 0.044526596 0.10270387 -0.032376748 -0.044637855 -0.23371154 0.08317335 -0.018355092 0.056556378 0.06974253
all 0.06144538 -0.035023395 0.061918657 0.10383968 -0.017359378 0.011567621 0.0077221007 0.08819853 -0.058231242 -0.060256872 -0.039047003 0.06935217 -0.08225736 0.03340461 0.039747585 0.033798147 -0.0044212136 0.0675623 -0.0015076388 -0.047935616 0.033891905 0.056809694 -0.05651265 0.038510494 -0.054646064 0.077136055 0.071623996 0.0731775 -0.041833565 -0.05556513 0.02536024 0.063974634
at 0.0964752 -0.028442977 0.1543289 -0.0884715 0.038322415 -0.04977955 -0.021106597 -0.035153817 0.008336323 0.039024916 0.00074681983 -0.0009854102 0.07057416 -0.01975564 0.27689832 -0.06296039 -0.025192576 0.069034666 0.12323495 0.07350298 -0.0012188599 -0.19288467 0.05259164 0.07610628 -0.009729791 0.0011219244 -0.001894262 -0.031944275 0.08509158 0.016986769 -0.035394866 0.069212735
by -0.010843941 -0.0007826031 0.03861065 -0.18294823 0.028161362 -0.036726765 0.059268307 0.04792651 -0.020138636 -0.05031509 0.048569925 1.9746767e-06 0.052011065 -6.47176e-05 0.39941552 -0.11243041 -0.040855963 -0.00038454295 0.20283319 0.021969346 -0.034014266 -0.06158543 0.05603487 -0.0091114305 0.02298072 -0.041096516 -0.028829671 -0.15968935 0.029941872 -0.023106627 -0.02204408 0.045227516
an 0.047604274 -0.102727786 0.042935643 0.052981786 0.042451005 -0.09126656 -0.04947342 -0.019860068 -0.020515727 0.05048024 0.039844237 -0.029085414 0.086323775 -0.050803352 0.26165608 -0.04311757 -0.012688892 0.008095222 0.16983217 0.17227368 0.06295177 0.062247634 0.07236752 0.05578916 0.074964754 -0.09371991 -0.049710926 -0.042506382 0.013905838 0.09206484 -0.023129087 -0.039397247
they 0.0010853424 0.012772493 -0.05561738 -0.043808725 0.0104550915 -0.042824704 0.025287228 0.015071951 -0.040791154 -0.022588776 0.039637923 -0.029309915 0.039883886 -0.032483958 0.2096018 -0.008778038 -0.005092819 0.008948975 0.15182056 -0.082434036 -0.0064642327 -0.121323034 -0.019591287 0.011976791 0.002766628 -0.05048829 0.007398377 0.00045043332 -0.0018344715 -0.0072693727 0.022976771 -0.026566163
who 0.09912829 -0.14675032 0.18146588 0.12908849 0.025143666 -0.012977103 -0.11938894 0.016784733 -0.02069778 0.1456483 0.03092361 -0.029088227 -0.06562239 0.019951228 0.29449037 0.14656515 0.071183704 -0.009327126 0.2253028 0.2534413 0.16804057 -0.04859763 -0.005907239 0.14087732 -0.061784994 0.024277976 0.016782617 0.052424047 0.021311197 -0.06577262 0.16768946 0.107697114
so 0.0080553135 0.036299493 -0.13086775 0.032044906 0.006045212 -0.044192165 0.2323797 0.03568298 0.020427942 -0.13924551 0.024144003 0.03952453 0.03136588 -0.037385758 0.15389827 -0.029468114 -0.080156855 -0.09942853 0.3324269 -0.016477168 -0.13452606 0.15559365 -0.036551364 -0.048977386 0.07452307 0.019557822 0.08307954 -0.14294094 -0.0037789955 0.036231488 0.009062751 0.02251016
from 0.051429626 0.041708246 0.15715526 -0.19016692 0.0061278394 -0.07223435 -0.042460408 -0.022481084 0.055033527 0.06676569 -0.0008982792 -0.05133886 0.03386993 0.015115027 0.27723643 -0.017363572 -0.0032125032 -0.04708017 0.20182402 0.23873393 -0.007810004 -0.11372077 0.09412549 0.018660825 0.061199043 -0.03674043 -0.022911103 -0.22769667 0.08316487 0.038540617 -0.023570968 0.034366965
like 0.050209653 0.06265566 0.21851191 0.045185097 0.10919791 -0.05299117 0.063431665 -0.0057847155 -0.02937847 -0.032108963 0.06889832 -0.051922992 0.06680822 -0.05095951 0.20986873 -0.0285667 -0.04289874 0.033233672 0.09741332 0.089844 -0.04167737 0.19751611 0.064575166 -0.013150035 0.013488363 -0.06697629 -0.13136335 0.038035575 0.002142643 0.014722223 0.03516723 0.0356162
her 0.10848915 -0.01973843 0.16429535 -0.24459633 0.1525497 -0.13720056 -0.1667436 0.056669693 0.008375727 0.07251996 0.04117894 -0.039193656 0.024368908 -0.0054475768 0.41029733 0.109479055 -0.0017763028 0.20032084 0.34840044 0.17198524 0.1328809 -0.1046507 0.06841536 0.0820684 0.06290722 -0.068034016 -0.123353995 -0.032003704 0.12132042 0.0008519663 0.09257143 0.040083665
or -0.015075458 0.018133298 0.012318274 -0.044328205 -0.0409102 -0.016187698 0.1536353 0.04576202 -0.013123952 -0.003866303 -0.022249347 0.06637868 -0.05045873 0.05248461 0.24209297 -0.088825636 0.01098963 -0.10002597 0.024986278 -0.0042067408 -0.15520939 -0.068007916 0.019408505 -0.034176227 -0.03137755 0.06833247 0.09846809 -0.12699002 0.026495926 0.03908736 -0.022779953 0.01021893
just -0.089913905 0.112150386 -0.0029958342 -0.14860721 0.0945733 -0.120703146 0.25222453 -0.09386437 0.12246898 -0.20043463 0.069931835 -0.058030885 0.12116376 -0.079247296 0.18605722 -0.116581656 -0.07275634 0.18974799 0.2840973 -0.07704247 -0.09056706 0.10452262 0.13184607 -0.00461667 0.124850005 -0.09257108 -0.024718173 -0.067632616 0.072720125 0.12478637 -0.11910789 0.010881713
about 0.113273785 -0.0885232 0.18476011 0.05791228 0.029064737 -0.043228943 -0.110891506 0.09696575 -0.10969368 0.035625678 -0.016576122 -0.007120222 0.0030900121 -0.044694893 0.21941678 0.067659296 -0.004656032 0.014439457 0.27788842 0.114932954 0.19177169 0.027132913 0.0525754 0.029107887 0.010697526 -0.034457043 -0.11709338 0.047822695 -0.019724334 -0.037943833 0.059223566 0.09483185
it's -0.028142963 -0.07967449 0.089645274 -0.1615373 0.11538951 -0.10405486 -0.009875135 0.010519323 -0.077220835 0.02181686 -0.025724983 -0.0015851479 0.012106137 0.0048997747 0.3138194 0.060258996 0.008397102 0.13941038 0.33070067 0.1682466 0.08313383 0.077835515 0.048972078 0.12099215 0.033060823 -0.071286 -0.013921385 -0.10583552 0.012247961 0.0223825 0.076460116 0.014223504
out 0.0203212 0.10013559 0.01424556 -0.25669482 0.04942839 -0.030336257 -0.008147826 0.040812567 0.049089927 -0.040032685 0.05625913 -0.011947695 -0.01595056 0.017243015 0.48325753 0.07115529 -0.060603827 0.3491605 0.15634678 0.30083454 -0.11685991 -0.14913224 -0.09892078 0.064001866 0.023773326 -0.025928719 0.059304442 -0.20164794 0.11597958 0.03533096 -0.0300842 0.03923665
has -0.01683517 0.04198431 0.07879062 0.16762541 0.07652829 -0.026219752 0.03204235 0.032001983 -0.022488102 -0.022944456 0.027221419 -0.043761812 0.014342703 0.04538555 -0.038252197 0.019238682 -8.161112e-05 0.08743145 0.050800685 -0.031156467 -0.04517849 0.021766635 0.0043754294 0.045351632 0.019737788 0.0060666716 -0.03919584 0.043380927 0.061946966 0.012446117 0.04846676 0.11821511
if -0.09561758 0.084048115 -0.010103794 0.10661847 0.1082698 -0.13685645 0.020987066 -0.096194066 0.078996904 -0.020068308 0.07356812 -0.124737084 0.079964794 -0.076923035 0.13369209 -0.021191629 -0.064832665 -0.1256178 0.061676145 0.10174046 -0.072173856 0.02385746 0.11905069 -0.086972654 0.08938798 -0.099820934 -0.08628638 0.0068704174 0.09363227 0.030107737 -0.07523052 -0.12551801
some -0.062157594 0.038174484 0.049909335 -0.17145519 -0.02061246 -0.10249188 0.05386288 -0.04140132 0.01629201 0.05679402 0.0016212248 0.014941063 0.019467589 0.06387898 0.17356566 -0.0051612766 -0.04755148 0.12927237 0.20781572 0.092051245 -0.023651438 -0.17983036 0.009523458 0.008519444 0.043058693 -0.03499312 0.0308935 -0.09470321 0.12024991 0.0147281885 -0.040758286 -0.034772508
there -0.028691124 0.042651758 0.09138389 -0.09369293 0.01978819 -0.07102684 -0.024120849 -0.09130893 0.04904967 0.010700299 0.059776194 -0.0654927 0.03750477 0.019527232 0.14354523 0.041036297 0.007535736 0.15174487 0.1202309 0.16862838 -0.073502146 -0.0378378 0.0034576175 0.14316286 0.057449527 0.0035126593 -0.052365255 -0.039046194 0.04518306 0.01687979 -0.050614607 -0.0068559693
what 0.07546503 -0.14320162 0.17780605 0.09395882 0.05951076 -0.023459658 -0.05440997 0.06917793 -0.15969832 0.08704176 -0.14081453 0.034946587 0.0081249215 -0.00082389195 0.26874763 0.06279567 -0.012332314 0.09091023 0.15878326 0.18901558 0.19260377 0.1377113 -0.046852298 0.16395703 -0.048787802 0.022311367 -0.028292676 0.023731302 -0.07712505 -0.06590908 0.1412916 0.1381432
good 0.085056245 -0.10244515 0.072554976 -0.078924984 -0.08860847 -0.06030745 -0.07162265 0.13891698 -0.11864484 0.15928328 0.025475677 0.018577553 -0.14633273 0.13525832 0.41670674 0.10043788 0.06698518 -0.14804836 0.2566646 0.1869746 0.06997836 -0.15816787 -0.03786552 0.08327983 -0.06966126 0.023978543 0.04405496 -0.105740055 -0.08844098 -0.11902352 0.16025676 0.06768109
more 0.146377 -0.0844686 0.09563239 -0.24604173 0.05137428 -0.04244264 -0.01875925 0.068783745 -0.058470517 0.06479714 -0.012292298 0.014307398 0.02440489 0.0031941927 0.38922054 0.063262194 -0.016643355 -0.019691037 0.39743018 0.13565321 0.05468532 -0.18082613 0.0075546154 0.16257364 0.05042409 0.002625785 -0.08601425 0.030508934 0.009506662 -0.04492562 0.11306605 0.15305474
when 0.062472086 -0.04195056 0.24285169 -0.056226272 0.060576692 -0.09623618 -0.010258235 -0.011260514 -0.055794775 0.07518203 0.01860853 -0.0063680746 0.04181073 -0.017837796 0.29544115 0.057761677 -0.027524259 -0.030900087 0.24999507 0.20723252 0.03916736 0.07866905 0.043745805 0.13102013 -0.0051627895 -0.06676077 -0.12293941 -0.011702641 0.036226034 0.04384628 0.07523159 0.015682353
very 0.02912392 -0.016535457 0.09681102 0.07741624 -0.0700141 0.07793987 0.01592325 0.10967407 -0.05133011 0.027004706 -0.0685008 0.027916426 -0.05641185 0.12335846 0.017339136 0.009552466 0.11649209 -0.12615697 0.12542213 0.15339623 0.065602995 0.03838709 -0.069506764 0.10825011 -0.073408455 0.0019083931 0.13802242 -0.09357157 -0.07767088 -0.02051941 0.04978103 0.045188643
up -0.011615266 0.050507586 -0.13149321 -0.34313926 -0.06772937 -0.10022233 0.113777235 0.0193761 -0.033403672 -0.22200467 -0.0054474287 0.08953657 -0.021847673 0.049696688 0.25771508 -0.09784487 0.00156388 -0.07019737 0.20357257 0.04496061 -0.046545237 -0.017738255 -0.074554764 -0.04373146 0.03151515 0.08548735 -0.0006442511 -0.26410833 -0.0001831328 -0.033344276 -0.012017628 -0.017078387
no -0.1939693 0.18557459 -0.3897088 -0.33953434 0.14033735 -0.26549894 0.23191282 -0.17109646 0.14434394 -0.2485536 0.23343424 -0.23454022 0.25703585 -0.1843092 0.47796842 -0.25102186 -0.26371205 -0.20609142 0.36555746 0.26342967 -0.17043167 -0.13687636 0.20165269 -0.26301396 0.2575932 -0.19476056 -0.18682289 -0.5359794 0.27221653 0.27122802 -0.15577248 -0.22742386
time 0.0034301993 -0.016763058 0.18210082 -0.2988366 0.07668632 -0.09166956 -0.189872 0.007000348 -0.012292538 0.08283263 0.064401 -0.021302689 0.0033469358 -0.0066797617 0.5604444 0.17879394 -0.055665974 0.29771736 0.25062466 0.27418447 0.07432549 -0.17389736 -0.0034931467 0.100861646 0.099434935 -0.0048288223 -0.0896441 -0.08796409 0.12584904 0.015437967 0.021534838 0.0773176
she 0.07602182 -0.029918542 0.057508647 -0.12939464 -0.058238536 -0.00594704 0.011295976 0.0726178 -0.010659547 0.0010736028 -0.06414091 0.037576173 0.015100893 -0.0031391112 0.22480959 -0.002567072 0.059173774 -0.12165124 0.17556877 0.14793281 -0.015223968 0.054081596 0.01177743 0.036955874 -0.012139665 -0.031433433 -0.018145682 -0.056133088 -0.019442802 -0.048920847 0.060472146 0.08690574
even -0.15021569 0.08116785 -0.17747703 -0.10076292 0.13462523 -0.2163873 0.09506679 -0.09798011 0.088845186 -0.13936822 0.13725922 -0.12942155 0.17180456 -0.107841015 0.3540611 -0.16583487 -0.18237339 -0.05299227 0.24877039 0.1284657 -0.07793069 -0.051337596 0.15068655 -0.1057466 0.16945665 -0.12186712 -0.0969441 -0.2597964 0.110571764 0.15905686 -0.13402148 -0.06243173
my 0.14886875 0.03663892 0.2877415 -0.24015614 0.074778035 -0.0011036948 -0.14080586 0.058773212 0.005941664 0.10279631 0.04928251 -0.061243083 -0.00065858493 0.007861071 0.40096936 0.06674599 0.005550157 0.2595028 0.16719712 0.13326849 0.07146258 -0.25966883 0.064773895 0.10080366 0.005934109 -0.044484984 0.001541966 0.02554642 0.107769914 -0.026050435 0.0822888 0.13108559
would -0.03137291 0.09235335 0.07801733 0.004611439 0.028493641 -0.02741252 -0.025023753 -0.07693038 0.05295336 0.0453697 0.091473006 0.0023924173 0.07925339 -0.070675425 0.056770325 0.0069941124 -0.033710185 0.021599907 -0.015870228 -0.043793622 -0.05805172 -0.009811593 0.09124591 0.03216345 0.039695073 -0.09945632 -0.035889164 -0.005422137 0.0145846205 -0.0107944915 -0.06810177 -0.054796737
which 0.059443243 -0.037466865 0.022051845 -0.37640977 -0.037524257 0.079728045 0.053291313 0.06563114 -0.083770685 0.055679176 -0.05084646 0.0342522 -0.032816228 0.08336884 0.32564175 0.025347222 0.081594154 0.02086148 0.08907462 0.0831561 0.023875272 -0.010393107 -0.02796749 0.14285363 -0.07090615 -0.01600532 0.04933178 -0.033339124 -0.050840545 -0.019873416 0.07544207 0.11437332
only -0.082497925 0.06681887 -0.18362464 -0.04109013 0.057932787 -0.095487066 0.11214235 -0.07918106 0.084869646 -0.10398477 0.18638247 -0.14192662 0.0767473 -0.14382662 0.2024101 -0.13539007 -0.117076166 -0.047841955 0.19286817 -0.0853451 -0.07238138 0.09545414 0.116023585 -0.16285343 0.065252274 -0.08556475 -0.08665532 -0.21328455 0.04695889 0.1343825 -0.055300005 -0.106886975
story 0.10062148 0.044924807 0.04835331 0.08843505 0.014185581 0.06995525 0.073242724 0.067326464 -0.04887833 0.0470348 -0.011659084 0.08228215 -0.04798532 0.04215809 0.19070065 0.041794237 0.03833376 -0.014618204 0.0997502 0.015891474 -0.06857244 -0.02235336 0.02246671 0.0017501896 -0.04057832 0.010790297 0.07462909 -0.008645862 0.01664706 -0.07527132 -0.013866922 0.0056540333
really -0.015342865 -0.030179776 0.07533964 -0.3344161 0.08648857 -0.05688073 0.051253196 -0.023706757 -0.059363894 -0.03439176 0.0038689475 0.021441033 0.06378074 0.021668803 0.33821496 0.08411371 0.009199804 0.033838406 0.2675947 0.01820335 0.06703171 -0.18141867 -0.006378752 0.042148445 0.049358327 -0.048760943 0.075377256 -0.17605521 0.023224127 0.018773029 -0.008920532 0.07665261
see 0.1175232 0.061092637 0.034858387 -0.30634096 -0.0051227785 0.04260178 0.037313428 0.067722514 -0.05410177 0.03577549 0.048776254 0.044012528 0.007429691 0.0984512 0.2710221 0.08072436 0.018158004 0.36007926 0.09133976 0.0023374995 -0.108214594 -0.4240274 -0.023574041 0.025027819 0.014630781 -0.019865196 0.09287962 -0.08799428 0.12505087 -0.11545074 -0.0074076694 0.15853159
their 0.1098104 -0.059592694 0.11097468 0.052829638 0.014574291 0.028868841 -0.041377638 0.033507407 -0.06401918 -0.008357716 0.008993644 0.0468385 -0.06305868 0.04841044 0.28512886 0.019334972 0.041914254 0.048182208 0.10370705 0.08299184 0.04700972 -0.08707874 -0.020291673 0.05003576 0.016316196 0.053165358 0.021594724 -0.010854274 -0.035779517 -0.110492274 0.023471877 0.06801945
had 0.02868801 -0.060548283 0.15971556 -0.14161116 0.094042145 -0.25054017 -0.07182195 -0.056271307 0.014611663 0.034142166 0.09736047 -0.15011093 0.10417818 -0.106732026 0.471192 -0.03895981 -0.15786895 -0.1229029 0.36655274 0.33026937 0.062370814 -0.06754066 0.09340107 -0.028846985 0.15461703 -0.13178638 -0.20686032 -0.07793982 0.047379103 0.03496834 -0.05466201 -0.026571622
can 0.0046402356 -0.016329253 0.09678415 -0.022524327 0.11387079 -0.068936035 -0.03272131 -0.077718146 0.012362849 0.028995689 0.04814167 -0.03455692 0.03570565 -0.12760021 0.278057 0.012782557 -0.062022407 0.1431265 0.14415446 0.06548381 -0.0019902247 -0.18774377 0.08769277 0.08588726 0.040804338 -0.083975166 -0.07450392 0.06188818 0.056037795 0.030138567 0.040104974 0.02755063
were -0.056338925 -0.059045084 0.04320384 -0.15734363 0.09920363 -0.18157394 -0.016650641 -0.03356126 0.018600285 0.008901883 0.04014927 -0.1260558 0.17569722 -0.106822014 0.3383271 0.006026094 -0.11580078 -0.15721008 0.42839214 0.14862594 0.07348053 -0.07730306 0.10668081 -0.019602235 0.14356436 -0.061787345 -0.09343769 -0.18765065 0.117628805 0.08769319 -0.0051600714 -0.02493584
me -0.052741867 0.075471215 -0.2104962 -0.58093107 0.06839366 -0.042046215 0.13301218 -0.040053565 0.04752246 -0.109627746 0.039736453 -0.056480594 0.011599938 -0.025897516 0.37234285 -0.0639221 -0.047339175 -0.11556275 0.30687466 0.2456742 -0.028490799 -0.3332034 0.016468637 -0.019985283 0.109869614 -0.064202175 -0.024100732 -0.29431188 0.1212424 0.05968074 -0.03910271 0.01278338
well 0.2676977 -0.07173113 0.43416214 -0.020413067 -0.16370136 0.1469248 -0.39093548 0.17947216 -0.09999743 0.25182322 -0.10998928 0.16543974 -0.16000745 0.14993106 0.32919455 0.13735941 0.21871667 0.31716096 0.056939945 0.13000429 0.2206247 -0.015065843 -0.18532433 0.20646551 -0.1650065 0.09905517 0.0839432 0.15915951 -0.10751544 -0.29778948 0.14473984 0.110724434
than 0.19511893 -0.14354445 0.21555011 0.09911815 0.11570787 -0.07468232 -0.14192387 0.080131315 -0.057431605 0.15193929 -0.101823 -0.0071005262 0.031051647 -0.025274482 0.60963356 0.18265264 0.03530009 0.021365136 0.31422833 0.31477582 0.16537376 0.030639317 0.06334326 0.2909874 -0.043606646 0.015513633 -0.1040852 0.111352675 0.04111616 -0.06137322 0.22147429 0.17334911
we -0.039953846 0.09704159 -0.044354912 0.27613255 -0.024076307 0.008668963 -0.026106335 0.0055590854 -0.012762965 0.01176574 0.03973506 0.035350364 0.03392414 0.012341473 0.06141769 -0.07117406 0.035138857 -0.17111482 0.0026595637 0.05376667 -0.05349029 0.15688987 -0.02771649 -0.12177213 -0.026319697 -0.055859398 -0.026824147 -0.06622057 -0.023526063 0.02015589 -0.08429965 -0.041450143
much -0.015526927 0.11848472 0.099427156 0.0143260835 0.0337514 0.03500468 0.011917012 -0.02076147 0.09979799 0.010426177 0.079613596 -0.07514019 -0.02772551 -0.023872055 0.3195688 -0.0017562724 0.010558255 0.16115798 0.03429251 -0.033736557 0.00032452057 -0.24128771 0.12595297 0.016242623 0.034580998 -0.080600664 0.10161804 -0.013906971 0.13877986 0.014146144 0.0060192468 0.004706503
been 0.0122391675 0.020150933 0.25607336 -0.19922139 0.26676244 -0.17504199 -0.014995845 -0.025974292 -0.0120650735 0.09381653 0.03012122 -0.15930933 0.1130554 -0.0753736 0.22224829 0.1317909 -0.11940337 0.14590357 0.37079692 0.35526577 0.107130915 -0.21849635 0.13770191 0.13967276 0.14396514 -0.12809165 -0.27416006 -0.005934871 0.10421186 0.06929697 0.035248764 -0.032254867
bad -0.30531412 0.34779432 -0.41043788 -0.3197037 0.41550893 -0.4730785 0.49818876 -0.29731783 0.37474075 -0.3993977 0.28226063 -0.26171306 0.38330933 -0.30346596 0.55275 -0.3608918 -0.37701637 -0.14121 0.5956012 0.39700633 -0.41310552 -0.10212692 0.3463218 -0.32861713 0.33108744 -0.2827097 -0.25985116 -0.5113681 0.25682023 0.36311695 -0.29445165 -0.39449897
get 0.026546892 -0.012424902 0.0364597 -0.17999735 -0.0064103925 -0.04892117 0.064990476 0.055170655 -0.00090543856 -0.06396853 -0.036276083 -0.020956937 0.03264058 -0.026038298 0.17582607 0.025813032 0.0139996065 0.06745586 0.09840736 -0.11964149 -0.013317487 -0.026246058 -0.026054634 0.073242635 0.063768156 -0.038953874 -0.0054952498 -0.05411191 -0.01628341 -0.033438556 0.028499413 0.03363165
will 0.07185433 -0.038060457 0.19888434 0.019768424 0.025902191 0.023444785 -0.034687825 0.06483939 -0.05239113 0.008219942 -0.020623293 0.062647074 -0.0666897 0.042492434 0.05804524 0.14610621 0.004406688 0.191043 -0.005740723 -0.031879015 0.13702652 0.013827868 -0.04904709 0.14559773 0.042693675 0.029589724 0.040143374 0.19683352 -0.004725868 -0.08789156 0.08419744 0.087737754
do 0.015819324 -0.022863239 -0.016264766 -0.13676421 0.0382514 -0.0036512157 0.10460877 0.034136664 -0.05520154 -0.05687728 0.011535701 -0.0025176362 -0.0026055814 0.0015916309 0.36324704 -0.013719222 0.036373563 0.008031547 0.21850605 -0.067876846 -0.013621151 -0.12242712 -0.0013569404 0.05571256 -0.016122172 -0.039401133 0.10748439 -0.13385299 -0.005829941 -0.034866586 -0.006102171 0.077417515
also 0.1303628 -0.15790735 0.23327608 -0.14107622 -0.08026075 0.084473774 -0.1306409 0.12136457 -0.113345765 0.10067433 -0.046287373 0.12790865 -0.123908356 0.13660434 0.060980443 0.15055023 0.08730665 0.16452478 -0.06706911 -0.04770958 0.13341062 -0.14355673 -0.06531949 0.2024106 -0.09278403 0.105279915 0.09004187 0.12892175 -0.04065166 -0.15255243 0.13884886 0.14050913
into -0.00848007 -0.058763597 -0.0024391331 -0.012640841 0.0021831687 -0.013653616 -0.07533677 0.0007789916 -0.035329223 -0.007968199 -0.014372568 -0.08708198 0.09549337 0.018124714 0.1324617 -0.0065273363 -0.024218654 -0.076921396 0.13692203 0.065586336 0.10874885 0.19520172 0.09574573 0.07804719 0.07105362 -0.069965616 -0.03813974 -0.047199782 -0.035230216 0.05323741 0.050426222 0.016152564
people 0.04909633 -0.08837095 0.10998319 0.059728228 0.041186176 -0.10994562 -0.09662162 0.07859513 -0.017032638 0.098950505 0.05204405 0.021768149 0.01840044 0.044437893 0.0887826 0.052737836 -0.0047164895 0.08890521 0.15622772 0.01650927 0.022660108 0.010796479 0.08058203 -0.064880654 0.038393192 -0.0038363533 -0.06383372 0.0796888 -0.016999949 -0.048324563 0.010809713 -0.026261799
other 0.055135265 0.008650215 0.25166658 -0.114403754 -0.037242696 0.034427904 -0.07653882 0.10481932 -0.084307134 -0.022730177 -0.064363286 0.00437263 -0.060795296 0.055081915 0.38514683 0.08149507 0.079611026 0.1741187 0.09999508 0.04089631 0.14362255 -0.24314603 -0.01479729 0.21316355 -0.056229144 0.039413504 0.0015741448 0.0051837475 -0.032791093 -0.0355749 0.1269516 0.12627788
first -0.05610149 -0.027571134 0.0015983218 -0.0916141 -0.022405842 -0.051767964 -0.033003334 0.032861322 0.014908596 0.01675174 0.051627304 -0.044768922 -0.013302487 0.044096254 0.14468715 -0.02048111 -0.026925627 -0.095512755 0.039973717 0.0076588294 -0.04179751 0.0132291345 0.053032916 -0.061240707 -0.04190203 0.015323594 0.062628694 -0.102935284 0.03500621 0.010026539 0.010593054 -0.059123207
great 0.3552849 -0.31270343 0.10183403 -0.4107859 -0.2295695 0.24706534 -0.26762033 0.36532602 -0.4739342 0.39942008 -0.3499298 0.29541165 -0.2569231 0.30989352 0.13577399 0.3978185 0.26802003 -0.040271774 0.14259936 0.3483887 0.31773937 -0.34352884 -0.35070118 0.42647198 -0.35013884 0.23269685 0.21331869 0.045923214 -0.23306452 -0.38428116 0.39434123 0.31170788
because 0.021931637 0.084205456 0.019829711 0.014603769 -0.008615668 0.063299984 0.046095993 -0.07426065 0.012283206 0.020656763 -0.044017263 0.045162637 -0.0007998312 0.008346324 -0.08683723 0.078512385 0.052402657 0.22257932 -0.0638326 -0.056016523 -0.080658555 -0.1008367 -0.0839838 0.030615175 -0.040836748 0.0029363832 0.048398755 0.012915492 0.027630376 -0.016102849 -0.050558574 0.054425117
how 0.07226501 -0.012886731 0.052374136 -0.16653426 0.09049391 -0.092796385 -0.077296406 0.014675878 -0.005313732 0.05076157 0.09678111 -0.06440217 0.08622329 0.013468191 0.30030757 0.017640086 -0.09025475 0.16714524 0.22242668 0.3153084 0.016054962 -0.091471724 0.021075519 0.12252998 0.08298689 -0.004205192 -0.06297722 -0.13205163 0.014155108 0.05756721 0.08384994 0.068740815
him 0.11536994 -0.122507796 0.25390282 0.18754615 0.004267426 -0.025289133 -0.15549009 0.016918555 -0.08811709 0.028493024 0.05617746 0.03507036 -0.055145733 0.081835486 0.0926856 0.03422523 0.10346093 0.10459375 0.030825475 -0.08666859 0.050163582 0.0564787 0.014602879 0.0884388 -0.0015049789 0.05678233 -0.006604952 0.1295186 -0.026289621 -0.030698406 0.10435956 0.10517368
most 0.1102155 -0.17178461 0.18950805 -0.020532202 -0.10301487 0.05504585 -0.12984002 0.15751764 -0.12534007 0.112460226 -0.126373 0.14732563 -0.13667066 0.1603051 0.2502954 0.14417864 0.061156787 0.051724695 0.14860815 0.14284529 0.20754921 0.015355865 -0.12249181 0.16408353 -0.09794044 0.11112982 0.041268006 0.056123674 -0.093349785 -0.14949423 0.15512325 0.12244637
don't 0.0073170965 0.1823114 -0.0030546093 0.03407665 0.038110133 0.0028164168 0.17118898 -0.031850148 0.06184136 -0.12161781 0.009481449 0.070700005 -0.06270769 0.0565419 0.15034273 -0.04323203 0.07017604 0.15997787 -0.042203262 -0.14135705 -0.19702601 -0.0026167722 0.035595566 -0.042865388 -0.026954565 0.011268154 0.09023579 0.029922938 0.06872417 0.047171347 -0.070966 0.007077783
made 0.08627232 0.01149289 0.039915744 -0.23079558 0.0151274325 -0.093723305 -0.022460574 0.10536265 -0.042141862 -0.03993647 -0.004471817 -0.019777793 0.011640061 -0.015288881 0.35059774 0.06062748 -0.046199284 0.1937264 0.2762624 0.07994956 0.01662972 -0.19724816 0.0626487 0.07414032 0.11402582 0.029899156 -0.07140394 -0.03638042 0.098611094 -0.079123646 0.042962663 0.13428892
its 0.06788642 0.015277462 0.31297612 0.15626791 -0.09895833 0.046812702 -0.03147394 0.076120265 -0.045549523 0.085358985 -0.044660997 0.12230217 -0.03537311 0.12581709 0.071885936 0.073436595 0.09856725 0.17990619 0.016592735 0.10195218 -0.060611185 0.014496556 -0.07940266 0.14939828 -0.054426987 0.036265336 0.020189898 0.075542994 -0.08103776 -0.11719854 0.064140014 0.029199865
then 0.012997475 0.059007995 0.08127347 0.029929847 0.04953728 -0.1330952 0.0026038145 -0.0013593099 0.053264584 0.03151027 0.10120336 -0.06354044 0.09964874 -0.035715174 0.17822589 -0.05502296 -0.033095993 -0.08111987 0.13039753 0.13292094 0.021192838 0.038554776 0.051837515 -0.062397353 0.10678764 -0.074425355 -0.07788115 -0.09149996 0.099984966 0.041163664 0.051269095 -0.0707359
way 0.09219718 -0.07181133 -0.04743604 -0.00519459 -0.06810536 0.072981946 0.03802379 0.09510244 -0.10255211 0.032076772 -0.09820597 0.09124069 -0.031236053 0.029284233 -0.066256285 0.033094216 0.08826332 -0.13915662 -0.08624108 -0.05970452 0.018756166 -0.013125142 -0.088316336 0.052415572 -0.10436398 0.07086408 0.07555423 0.028123176 -0.040533423 -0.026976494 0.10217031 0.09305187
make -0.055362586 0.044301737 -0.037164934 -0.05014611 0.09065831 -0.1215679 -0.03727355 -0.07492508 -0.01353586 -0.07587982 0.00077214214 -0.0799619 0.08863118 -0.053414047 0.07334665 -0.07576257 -0.027097529 -0.007093238 0.12785219 0.054641735 0.03792824 0.024817457 0.07815094 -0.0802659 0.09747872 -0.045920957 -0.06376054 -0.043266878 0.072498515 0.061862085 0.022587143 0.0108208535
them 0.09767089 -0.055913396 0.21021147 -0.14034678 0.12394748 -0.084576316 -0.09620723 0.07686447 -0.10083086 -0.060764212 0.043545794 0.02686009 0.06450309 -0.08568688 0.37294298 0.16110869 0.00034301792 0.06315726 0.264174 0.20365334 0.18858516 -0.12920804 0.089101836 0.20544635 0.052798543 -0.07048324 -0.1472238 -0.09886926 0.012133377 -0.05455341 0.11168524 0.093074515
too 0.025317082 0.12609117 0.07604076 0.03158795 0.06787904 -0.051141515 0.011443342 -0.033880245 0.081426926 -0.071308434 0.12304248 0.013483904 0.050892837 -0.033536967 0.38836983 0.023312917 -0.10935186 0.04611275 0.18915074 0.22223777 0.025889136 0.0037952978 0.10534714 -0.0064643486 0.04742408 -0.121530354 -0.15636976 -0.012357214 0.13011697 0.022239922 -0.03171638 0.038147543
could 0.028916588 0.0003520574 0.08233679 0.014004631 0.12228373 -0.15075836 -0.041547433 -0.054736976 0.0182457 0.055031046 0.056802735 -0.14012627 0.114588104 -0.057699427 0.39312103 -0.06486053 -0.107773535 -0.06216705 0.22592452 0.0883086 0.012422213 0.108785264 0.08933391 0.0067010494 0.0900741 -0.06852093 -0.13810153 -0.046108745 0.01334178 0.007882252 -0.010955323 0.011659875
any -0.10704352 0.08954913 -0.009534483 -0.39869803 0.0660369 -0.17990066 0.079247765 -0.08269697 0.06147967 -0.09811399 0.15118259 -0.027641593 0.12061533 -0.016491124 0.43341303 -0.06156118 -0.12082329 0.11725741 0.3309434 0.38310504 -0.051075313 -0.2855016 0.0033671267 0.050416555 0.083186135 -0.13880067 -0.042899434 -0.26367852 0.10393254 0.09379403 0.008027725 0.02624954
movies 0.12136267 0.020869376 0.19403556 -0.20112886 0.077797234 -0.11904904 0.0032688524 0.008063358 -0.02679663 0.079045564 0.064013146 0.040894203 0.015040446 0.026722496 0.28305018 0.1673675 -0.009256346 0.2666291 0.16042857 0.22745089 0.0662015 -0.3292291 -0.042271428 0.17555992 0.11471981 -0.013227597 -0.0816592 -0.02857868 0.10667317 -0.08592844 0.10035528 0.074691094
after 0.039742228 -0.048880275 0.13901109 -0.09360807 0.08351125 0.017914899 -0.041281402 0.035139963 -0.06771715 0.0103324065 -0.04065373 0.08705917 0.0043513235 0.057562787 0.2991971 0.086123 0.010511247 0.075791106 -0.03468001 -0.09902793 0.09656134 -0.052237544 0.026333688 0.08294874 -0.045605715 0.056642964 -0.0100918915 0.054746363 0.014512809 -0.07311777 0.056183763 0.049571767
think -0.05172998 0.048313826 0.0185966 0.113974385 -0.0302052 -0.031871002 0.013052187 -0.061005868 -0.00408948 -0.04110349 0.053888865 0.00033438488 0.007376714 0.0030093906 0.09993007 -0.03884582 0.0051290467 -0.014146537 0.1397431 -0.026867347 0.010639191 0.07838475 0.051734746 -0.022148577 -0.033370923 -0.071474634 0.017577298 0.01951764 0.082032554 -0.008851808 -0.038588285 0.02718595
characters 0.0139112165 -0.0017315298 0.22550337 0.04184593 0.032891136 0.0064344597 -0.059605204 -0.023354027 0.0603397 0.08206697 0.04650791 -0.032502845 -0.021645991 -0.034194972 0.2316217 0.07755782 -0.0063036107 0.2003835 0.09918018 0.1204207 0.047090232 -0.24449787 0.071629405 0.03235755 0.060440913 -0.05851994 -0.049107626 0.15582998 0.037917133 -0.07001665 -0.021099376 0.049985964
watch 0.10829494 -0.09787296 0.21422453 -0.16215715 0.081805944 0.101280354 -0.041422825 0.09620679 -0.10517241 -0.034184713 -0.08458509 0.04301778 0.030259524 0.054383516 0.35337836 0.18463928 0.025251651 0.43589985 0.09874499 -0.12036269 0.14314471 -0.03477682 -0.00911185 0.19967274 0.02188454 -0.0027054662 0.033722363 0.11200066 0.07578226 -0.13751395 0.15034185 0.12778004
two -0.029920828 0.07683537 0.089425 -0.0538608 0.112799175 -0.03712591 0.013338474 -0.030692901 0.018342583 -0.028483165 0.13118143 -0.04901839 0.10024566 -0.046418965 0.40202478 0.04905841 -0.06171141 0.10820667 0.19116889 -0.057582833 -0.032644026 -0.10657195 0.023891063 0.018819597 0.081880525 -0.0925656 0.07720276 -0.11679078 0.1080421 0.01240749 -0.04954164 0.055533763
films 0.11745162 0.073067985 0.2190311 -0.09001317 0.037373092 0.00032676116 -0.021676846 -0.006143564 0.061210036 -0.0532918 0.0240325 -0.027429517 0.006848065 -0.024463646 0.17953856 0.0148495175 -0.03454145 0.20297755 0.27056307 -0.048274163 0.014929958 -0.27808517 0.03998384 0.026355261 0.031805266 -0.012059755 -0.0248317 0.0433012 0.1397991 -0.056158043 -0.0033134045 0.11938984
character 0.0326677 -0.034273703 0.05443336 -0.34426537 0.038814366 -0.02610924 -0.020448139 0.076404676 -0.018983925 -0.017502023 0.03697918 -0.041041765 0.04410053 -0.055112284 0.25745115 0.060164176 0.019740945 -0.07080753 0.17482087 0.23427127 0.1575577 -0.12486646 0.016159687 0.1075703 -0.0074752467 -0.06396587 -0.0146295065 -0.21405618 0.01057992 0.046191607 0.12213864 0.10236253
seen 0.15397899 -0.04826811 0.20477334 0.13033894 -0.050717015 0.082850985 -0.14284156 0.13116401 -0.15344952 0.19319345 -0.13312738 0.18967341 -0.18966243 0.109178305 0.14625157 0.21753253 0.16865188 0.18286677 0.065308854 0.07000908 0.08528141 -0.059623905 -0.17940402 0.15486237 -0.095868506 0.06819108 0.030099355 0.022753514 -0.04041038 -0.17276856 0.12912935 0.125271
many 0.10399479 0.067043975 0.18093549 -0.10942266 -0.031007336 0.07266367 -0.061432377 0.09793667 -0.05390165 0.13701889 0.013926758 0.020770965 -0.08390776 0.0048736776 0.041995876 0.036495358 0.0202785 0.17984982 0.059781022 0.016609415 0.0060733543 -0.1571747 -0.0032373734 0.16337669 -0.0837965 0.060907688 -0.0031516897 0.04189948 0.024264835 -0.008532609 0.059858147 0.21685162
being 0.03469116 0.067358986 0.06338089 -0.2048149 -0.013657487 -0.030444412 0.020745872 -0.018844118 0.04615247 0.11491738 0.031341974 -0.029766014 0.052832063 -0.061439447 0.36943468 0.031772375 0.0075201034 -0.11465388 0.21677433 0.39525467 -0.037277248 -0.21591917 0.049589656 0.14928466 0.03760259 -0.060978282 0.058396474 -0.29217872 0.13846327 0.049891498 -0.003439001 0.10353174
life 0.18893068 -0.102183625 0.13126567 -0.07011058 -0.08282666 0.034257315 -0.0059940214 0.117774725 -0.10565911 0.012756744 -0.12827598 0.10682564 -0.066475466 0.11170233 0.15410914 0.08061261 0.040237807 0.004890193 0.021239066 0.111344054 0.08019232 -0.084058106 -0.08459247 0.14682683 -0.039791293 0.12038506 0.043563426 0.029158298 -0.1401429 -0.074193485 0.12647717 0.10143543
plot -0.08805676 0.12926358 0.13383903 -0.13676062 0.23076375 -0.17479435 0.025524465 -0.14852743 0.18494847 0.038159892 0.16429164 -0.14989895 0.09505982 -0.08899253 0.16218166 7.4193966e-05 -0.08558281 0.21932547 0.3298676 -0.03176488 -0.12938313 -0.21251008 0.18109508 -0.005562811 0.17285374 -0.115835235 -0.1635077 0.01640001 0.2031252 0.13278788 -0.054478202 -0.045570254
never 0.0027656558 -0.005935163 0.08234819 -0.40353605 0.10085657 -0.14534333 -0.09774087 -0.059562307 0.008935254 0.113936484 0.01439958 -0.11968145 0.13424505 -0.110852726 0.5935713 0.17503747 -0.11859714 0.06989245 0.47669512 0.5447615 0.21201181 -0.3420265 0.028481953 0.23561656 0.09481148 -0.12635055 -0.08435274 -0.2540414 0.17658696 0.0053828694 0.10831557 0.08353603
acting 0.04739484 -0.08265834 0.029629244 -0.034739014 0.08564111 -0.13124178 -0.09367739 -0.07541946 0.08040707 0.0399023 0.062180404 -0.11370686 0.15310341 -0.028705858 0.099529885 0.038175926 -0.017324567 -0.020620568 0.15683603 0.35646528 0.049430497 -0.26650155 0.16386797 0.025958758 0.122479774 -0.10163685 -0.10373277 0.0073310453 0.10319455 -0.023113485 -0.050957043 -0.024993932
little 0.07725383 -0.05538154 0.20265934 0.11527881 -0.1045388 0.09880701 -0.11336195 0.14797235 -0.082028516 0.06435206 -0.09290033 0.08390859 -0.13823023 0.10080637 0.16731049 0.0007721071 0.089900374 -0.03156244 0.05972139 0.18372178 -0.0124098705 0.2743531 -0.0754896 -0.04970771 -0.102323234 0.07864983 0.11582417 0.10236226 -0.0779943 -0.12922527 -0.021017272 -0.008443034
best 0.34326488 -0.23068699 -0.0024621293 -0.17300068 -0.44075036 0.21235308 -0.11062784 0.38217196 -0.3719436 0.21644072 -0.17999493 0.31406596 -0.35638288 0.28926337 0.03796025 0.20859016 0.3846908 -0.06547592 -0.021519274 0.042657565 0.09015233 -0.21005815 -0.3854819 0.1117955 -0.33933875 0.2962022 0.2906408 0.02286746 -0.25496966 -0.37534538 0.2525834 0.21009794
love 0.07635125 -0.08395774 -0.039520938 -0.05922518 -0.2228482 0.17817895 0.022715174 0.17197736 -0.15389183 0.0566176 -0.13424632 0.18179286 -0.20035443 0.13816448 -0.11157732 -0.0025867955 0.20942506 -0.17519866 -0.14522475 -0.092630334 0.018114118 0.10321283 -0.19312161 0.07183159 -0.15174617 0.14355142 0.26280755 0.050341163 -0.101173416 -0.17294851 0.14130181 0.09817392
over -0.10860506 0.09797734 -0.07802032 -0.05764303 0.14559451 -0.107276194 0.0008958281 -0.05723923 0.052271683 -0.13108718 0.15274754 -0.12791203 0.14126542 -0.19940603 0.3544638 -0.077291355 -0.17911366 0.015700273 0.21927255 -0.036863662 -0.079171464 -0.08653489 0.17297536 -0.086487494 0.14563209 -0.09456967 -0.06866973 -0.061794356 0.17749552 0.10737547 -0.05896457 -0.034949765
where -0.04894707 0.04430587 -0.20986654 -0.04901987 -0.02321842 -0.006157551 0.0989889 -0.032834996 -0.029292526 -0.09336578 -0.0024048493 -0.060238976 0.03547481 -0.029818442 0.11743514 -0.063730486 -0.045698028 -0.025693715 0.037743952 -0.14470947 -0.033800755 0.04243707 0.052504737 -0.027911786 -0.002512297 -0.028278958 0.08512525 -0.16866505 0.027620789 0.068215355 -0.034931157 0.005116446
did 0.043811213 -0.03458557 0.17964788 -0.06383264 -0.0035744805 0.019884607 -0.07088476 -0.017000644 0.03219125 -0.05592128 0.051868077 0.017786153 0.085219055 -0.06967068 0.25408986 -0.03003646 -0.069696255 0.11837066 0.10630247 0.04487189 0.06932134 -0.05586959 0.04763025 -0.023236195 0.080307454 -0.0625207 -0.012593463 0.054579746 0.07801112 -0.006948122 -0.0018972224 0.047003705
show 0.08432463 -0.11424375 0.22327751 0.052741762 0.09266088 -0.020695202 -0.10063651 -0.012451365 -0.038240243 0.0748613 -0.03985637 0.014632164 0.004769806 0.03744043 0.05025393 0.07406604 -0.037607063 -0.08225248 0.08853224 0.1521384 0.1463259 0.14188196 -0.009078382 0.10564917 -0.02145129 -0.008242662 -0.037924606 0.061091196 -0.053823493 -0.013715318 0.08472544 -0.009838867
know 0.12399491 -0.14003451 0.24118213 -0.073712155 0.01066523 -0.001851234 -0.17158446 0.07761895 -0.071908966 0.20312236 -0.06588039 0.034626752 0.01583122 0.045114905 0.21751441 0.06648516 -0.0133405365 0.30789354 0.074662104 0.003437296 0.060807455 -0.23031612 0.040079016 0.10646644 -0.019294089 0.072268724 -0.037453335 0.11494583 -0.041686643 -0.07680644 0.084885255 0.11823814
off 0.06143305 -0.0072769993 0.11284267 -0.15846916 0.10904502 -0.15214358 -0.091822356 -0.023947956 0.11352687 0.017164757 0.14159572 -0.09801888 0.15048167 -0.10573583 0.28974608 0.055131424 -0.13383704 0.34405652 0.26277846 0.06924118 -0.04686986 -0.28498998 0.15571815 -0.08686162 0.15446481 -0.11496292 -0.13552459 -0.081550814 0.24627419 -0.011175105 -0.021810379 0.029744536
ever 0.025076972 0.10421656 0.16576107 0.023242489 0.09376319 -0.11348682 -0.07010043 -0.028536042 0.06526926 0.09614941 0.16373195 -0.0023407822 0.0964051 -0.02992403 0.37384683 0.12825714 0.027425122 0.30975363 0.104125366 0.06357902 -0.10521558 -0.45038348 0.05000856 0.02764524 0.11352894 -0.04315473 -0.0065162242 -0.106560916 0.18543066 0.013623156 -0.075451456 0.036404464
does -0.04253279 0.06674185 0.04731394 0.19081315 -0.022669403 0.0075871674 0.00065133284 0.003823529 0.054656412 0.021942366 -0.026467528 0.026413701 -0.027156848 0.008531145 0.038398102 -0.017907478 0.054903217 -0.020312501 0.03128459 0.28535372 -0.0024345487 0.029373987 -0.0126681905 0.01065937 0.019080568 0.027126752 0.02941314 0.031866983 0.06704972 0.017059807 -0.03247769 -0.053307123
better -0.07485408 0.032190517 -0.0378632 0.107516505 0.08425355 -0.14587267 0.02995607 -0.074000455 0.09442161 0.0685922 0.11441678 -0.09400115 0.16482443 -0.16477107 0.2755657 -0.12969764 -0.10195457 -0.39473107 0.15786733 0.12812735 0.08296477 0.3067974 0.19440928 -0.090748355 0.053536844 -0.1170468 -0.10980843 -0.09046246 0.084466085 0.09351812 -0.08276329 -0.17434599
your 0.01808356 0.0057825227 0.16766499 -0.15698491 0.13336477 -0.12767985 -0.003163128 0.010363987 0.02337383 -0.022166362 0.07027728 -0.036428113 0.096417226 -0.112341724 0.7116192 0.07031943 -0.054161932 0.26459125 0.39297098 0.016768964 0.01974065 -0.23456661 0.13343766 0.05986402 0.1006337 -0.14101334 -0.06697618 -0.058773153 0.07074913 0.06770987 0.005370819 0.10714463
end 0.08602875 -0.030701509 0.05657164 -0.22126108 -0.034305092 -0.095713854 -0.123580486 0.053686652 -0.05076364 0.046440758 -0.014756801 -0.05457553 0.06289496 -0.079316385 0.41004142 0.03219073 -0.03293724 0.044881403 0.2174863 0.13720535 0.13282013 -0.19522949 0.05821084 0.107412554 0.056250304 -0.039072197 -0.08017519 -0.10345051 0.015653867 -0.06484386 0.082132876 0.018987985
still 0.049599335 0.02823215 -0.036695052 0.04178756 -0.17398927 0.18840316 0.06604469 0.13990197 -0.15800065 0.09045413 -0.15983617 0.18352273 -0.1877042 0.21103196 0.07410869 0.06420054 0.1718087 -0.39293733 -0.004064696 0.23529232 -0.01061936 0.25646496 -0.21465303 0.08554071 -0.13018323 0.12394537 0.17360774 -0.032675333 -0.15037782 -0.07969085 0.10536863 -0.01237043
man 0.20989183 -0.07705328 0.21895866 -0.01237244 0.0011503198 -0.018687852 -0.0885684 0.11141877 -0.10299114 0.0045864657 -0.16455817 0.07610496 -0.11881803 0.04410973 0.19597463 0.1467083 0.074876264 0.05699686 0.060442805 0.13086855 0.06268959 0.16371281 -0.036348213 0.18460345 -0.08375195 0.10444657 -0.04280729 0.15420324 -0.05291876 -0.11457118 0.16197349 0.12258896
here -0.10640912 0.100942515 -0.1721114 -0.29516408 0.10751446 -0.2370171 0.14698927 -0.1508784 0.044616316 -0.16263294 0.13080359 -0.10140767 0.10241352 -0.060164582 0.50786173 -0.12642631 -0.13253166 -0.31305987 0.4167307 0.4532189 -0.12690349 -0.024642766 0.055185188 -0.040112056 0.14643796 -0.104525335 -0.048657488 -0.493874 0.19790955 0.12264186 -0.092944406 -0.037397422
these -0.025797317 -0.01283625 -0.0052835084 -0.26571035 0.08107519 -0.09511508 0.09468854 -0.071107745 0.046805557 -0.024284374 0.054763056 -0.08398029 0.09817174 -0.09072658 0.13830969 -0.05086189 -0.06563104 -0.086619176 0.14029749 0.27181563 0.03220223 -0.09539856 0.053019725 -0.0119076455 0.071708314 -0.1257638 -0.11288358 -0.12597422 0.027396718 0.07270305 -0.03652261 -0.07169152
say -0.012180016 -0.009015528 -0.04761326 -0.09892641 0.0015719199 -0.015403538 0.09360093 0.05456105 -0.047133576 0.077318765 -0.08274506 -0.008145957 0.0224675 0.008220803 0.123918675 0.05098761 0.06618358 -0.11148398 0.13871552 0.033326637 -0.0175294 -0.05323258 -0.042181466 0.07064076 -0.023289604 0.048338257 0.102787256 -0.12683962 0.03385317 -0.001665006 0.046357293 0.060815603
scene 0.07669773 -0.015252407 0.11603813 -0.3246754 -0.009594341 0.023365976 -0.0448206 0.05731673 -0.05289822 0.037376255 -0.057613425 0.019147752 -0.05282354 0.09976529 0.26191124 0.13647948 0.10601654 0.31435558 0.15839703 0.14334145 0.07354767 -0.2980655 -0.09115068 0.13256319 0.017102566 0.0805311 0.044577885 -0.104477 0.06825303 -0.084513105 0.09939506 0.19660614
while 0.055411562 -0.079997614 -0.0080841305 -0.053362947 -0.03996165 -0.06809647 -0.061894942 0.04585986 -0.04130578 0.08436113 0.032529738 0.007650743 -0.012245295 0.029932423 0.16485363 -0.075113945 -0.0039021655 0.18299137 0.07312786 -0.058680523 -0.012206111 -0.053573117 0.03998766 -0.07749463 0.05671685 0.044118203 -0.00982744 -0.036618643 0.028212184 0.010349502 0.032865006 0.03594691
why -0.1338226 0.08201558 -0.23535886 -0.22008021 0.09022205 -0.11644203 0.25073296 -0.14111471 0.11075271 -0.24203907 0.10551163 -0.13184589 0.14137636 -0.102920145 0.33354837 -0.16422562 -0.09922087 -0.12566788 0.19174635 -0.12882717 -0.13957505 -0.09359435 0.045655143 -0.13783045 0.10129077 -0.15264596 -0.11091899 -0.22449292 0.10779422 0.112312816 -0.093491346 -0.066884175
scenes -0.049837977 -0.042329386 -0.056996018 0.09926204 0.024992839 -0.09102453 -0.029533217 -0.070191324 0.01203958 -0.024518533 0.015334506 -0.04240105 0.08447503 -0.099047445 0.14927782 -0.018949082 -0.018627575 -0.110310085 0.097728714 -0.006151464 0.0057834783 0.08566944 0.012080709 -0.077582605 0.10511057 -0.067248784 0.01059279 -0.045676704 -0.0007006149 0.067534275 -0.06912131 -0.02602551
go -0.02380716 0.049726915 0.09186545 -0.3726835 0.10615948 -0.054568466 0.01984647 -0.023695659 -0.05547939 0.12006246 0.10125566 -0.011622374 -0.02947819 0.04844672 0.2856659 0.09094453 -0.028540324 0.008668597 0.19188131 0.2721482 0.01110767 -0.24512929 0.017174494 0.085165456 -0.00022484652 -0.004288086 0.09748708 -0.2084862 0.13257441 0.045802392 0.014021407 -0.0035584015
such 0.04952391 -0.022312045 0.019774707 -0.04560483 0.036936916 -0.020384526 -0.0066268956 0.09168666 0.0057134153 0.0049898536 0.025371965 -0.0011676822 0.0509654 -0.0026319236 0.17107327 0.030367304 -0.003863602 -0.0073297746 0.06841719 -0.09117262 -0.040319536 0.008710658 0.050946683 -0.047079466 0.013201802 0.036069877 -0.03606898 -0.098215535 0.042081546 0.023354635 -0.02267772 0.019254237
something 0.023839857 0.14534411 -0.096277565 -0.4316308 0.042768173 -0.027435679 0.060525514 -0.07603116 -0.036484007 -0.110591196 0.05957315 -0.059565607 0.096454486 -0.01382832 0.59455067 0.06248524 -0.06913207 -0.1474479 0.54965115 0.5162881 0.06613134 -0.20322186 -0.0017504046 0.09870263 0.14841145 -0.1546067 0.02463018 -0.41444165 0.13757104 0.041640475 -0.0033500048 0.022853391
through 0.0039958116 0.009073145 0.32588008 0.08430013 0.07074088 0.029413994 -0.062051147 -0.013252968 0.04055256 0.040648416 0.023662182 0.055808675 -0.047722757 -0.033710733 0.07552153 0.032717697 0.04358762 0.27050987 -0.10006463 -0.06619886 -0.05411034 -0.09003751 -0.016667655 0.027182952 0.056914978 0.022749677 0.038514707 0.19506976 -0.006107095 -0.052908488 -0.031167472 0.0250767
should -0.06302118 0.122807376 -0.1339851 -0.15440558 -0.053045895 0.008118767 0.17842203 -0.066870704 0.022611775 -0.17068137 -0.028078025 -0.0010314151 0.05013348 -0.0013490783 0.0557038 -0.06396959 -0.016257836 0.19755387 0.054971345 -0.14631988 -0.23762311 -0.033366743 -0.06591424 -0.04497499 0.06694309 -0.012690715 0.0964624 -0.09610284 0.07386512 -0.013028183 -0.03359907 -0.022460427
back -0.036007356 -0.023371644 -0.14769892 -0.12662032 -0.061296575 -0.027980607 -0.007791458 -0.009399824 0.014015575 -0.05225591 0.025074918 -0.05006751 0.06868779 0.0024042423 0.17146356 -0.07371195 0.0281114 -0.14994392 0.13660797 0.1322827 0.023040483 0.027190285 -0.0011389194 -0.06955211 0.057697624 -0.007398248 -0.0329405 -0.21642183 0.021939239 -0.005793932 0.0141278645 -0.006984348
i'm -0.1923258 0.1659378 -0.1969803 -0.31584018 0.06513805 -0.18870118 0.24285218 -0.12802695 0.08262566 -0.14291792 0.1823961 -0.035306808 0.09790066 -0.10366899 0.341439 -0.16789894 -0.101584464 -0.1826963 0.39595866 0.09021507 -0.14529677 -0.17707348 0.08900579 -0.13749015 0.11854277 -0.08336141 -0.13632563 -0.36555716 0.17318948 0.16069448 -0.09744077 -0.11097347
real 0.1367433 -0.09023522 0.31749684 -0.12627721 0.04506226 -0.13461488 -0.2516455 0.06235068 -0.08602364 0.18628426 -0.01453976 -0.0055547697 0.08804354 -0.046777457 0.26149416 0.21713024 -0.026242273 0.18109977 0.2512919 0.057807095 0.2019475 -0.44320658 0.0902071 0.21923672 0.08436847 0.011813525 -0.09766017 0.14570272 0.11103564 -0.10519549 0.13657077 0.13435824
those 0.03370739 0.02045074 -0.02499763 0.04948584 -0.103076585 -0.0054800687 -0.057869248 0.015287002 0.020523664 0.09271242 -0.014235377 0.06999422 -0.078144416 0.067325205 0.14077571 -0.07443743 -0.023937603 -0.07249433 0.10970589 0.099989094 -0.066331096 0.058155406 -0.06652644 0.048107337 -0.010812138 0.012273986 0.003766563 -0.07790643 -0.062467765 -0.013809596 -0.025389826 0.0163546
watching 0.032578953 0.09302317 0.02699424 -0.31093782 -0.07780194 -0.09461413 -0.055638988 -0.086453766 0.093251996 0.07256158 0.090270005 -0.047596347 0.0459401 -0.023637593 0.3178057 -0.0007154619 -0.03744081 -0.082656085 0.14696448 0.41490296 -0.0076299827 -0.29022655 0.0036340684 -0.0051569403 0.031780872 -0.11189851 0.016295213 -0.2423902 0.15169576 0.036118187 -0.03168687 -0.042903803
now 0.21503246 -0.018994119 0.16111617 -0.004713907 -0.12312987 0.15974991 -0.13966538 0.13669081 -0.10517472 0.1356346 -0.13117354 0.09678042 -0.15919365 0.17884101 0.14918081 0.15384158 0.18849052 0.034844708 0.0076508364 0.09954703 0.06227172 -0.07053556 -0.17040172 0.08358489 -0.11299394 0.16982377 0.063293844 0.042727467 -0.044755835 -0.17584059 0.08564952 0.13731939
though 0.15220109 -0.11505777 0.10023193 -0.033716384 -0.12999 0.08596583 -0.14854734 0.105417915 -0.12975083 0.08377797 -0.13830732 0.06737959 -0.07400694 0.08036936 0.09152965 0.10973147 0.0992265 -0.10653165 0.044121917 0.16561848 0.084154025 0.0213821 -0.10180702 0.10202943 -0.046208233 0.06073093 0.027783172 -0.027838841 -0.06423714 -0.12266759 0.07445873 0.17074113
doesn't -0.11668368 0.09181396 -0.122912295 0.023516163 0.117480725 -0.21030289 0.08474074 -0.13700213 0.21613388 -0.12490696 0.23040526 -0.16536507 0.13840868 -0.10449667 0.09729104 -0.16552746 -0.1614265 -0.1499078 0.08619543 0.0007679387 -0.107321404 -0.002763946 0.19368134 -0.1727652 0.1304893 -0.18309344 -0.12383313 -0.110958196 0.10574681 0.10423918 -0.1418253 -0.18568988
years -0.02432764 0.032252118 0.16628988 -0.011784215 0.040542662 0.012965947 0.013834598 0.045681074 0.049524643 0.07584278 0.0224736 0.053032033 -0.023398144 0.019901585 0.42878348 0.017643189 -0.006793632 0.33442017 0.11413388 0.13031445 -0.011657267 -0.20946075 0.029709829 0.06780111 -3.798651e-05 -0.031852536 -0.026227359 -0.03605448 0.058144 -0.06465504 -0.016164962 0.04961411
old -0.056891426 0.057792913 -0.12687327 -0.08120436 -0.05584926 0.038300276 0.10571855 -0.044403005 0.01042876 -0.1305916 -0.06848229 0.024948379 -0.016442932 -0.015803114 0.08539413 -0.06849531 -0.034476124 0.13400047 0.015548913 0.086321145 -0.13392532 0.043764528 -0.05191511 -0.023589484 -0.003779244 0.024625966 0.031930942 -0.028198116 0.074172 0.025551327 -0.11900658 -0.040819816
thing -0.029202627 0.13954414 0.19349313 -0.21713448 0.36085603 -0.25019488 0.054432392 -0.16711335 0.08578909 0.027832096 0.18175983 -0.060860034 0.14238378 -0.14680298 0.41388527 0.031955037 -0.2005024 0.1822535 0.37701964 0.3825027 -0.015073808 -0.18575715 0.06623943 0.090417124 0.12801489 -0.21726683 -0.2523096 -0.18711868 0.1532908 0.0961381 -0.009566526 -0.10473096
actors -0.11351799 0.012649771 -0.27110356 -0.17182776 0.0819015 -0.18505864 0.23393904 -0.10418426 -0.021174926 -0.25265798 0.14042321 -0.06846884 0.036821786 -0.12188064 0.38372082 -0.13990903 -0.07116568 -0.3491437 0.28531155 0.17242515 -0.05920846 0.012998104 0.101985894 -0.19038756 0.14762174 -0.054786436 -0.061594155 -0.29537606 0.09815269 0.07381238 -0.10283559 -0.098284684
work 0.07714787 -0.025348485 0.06571108 -0.28943148 0.094208375 -0.08922309 0.015802637 0.019722555 0.0007629905 -0.052846972 0.09672688 -0.0682383 0.09787633 -0.025203964 0.32453722 -0.011840089 -0.08825439 0.26613912 0.14879166 0.1455272 0.0025510609 -0.31756496 0.12729047 0.045521636 0.1424737 -0.0025004533 -0.10906084 0.016908266 0.08407219 -0.04462231 -0.024798509 0.058594234
10 0.40608472 -0.013062297 0.3184947 -0.33291852 -0.09019692 -0.109771185 -0.7112104 0.11751417 -0.13129863 0.70839345 -0.021053536 0.20212975 -0.17018065 0.058548104 0.5689279 0.44131294 0.016787821 0.51313186 0.35504353 0.56082624 0.42170277 -0.3380583 -0.23263876 0.36673746 0.04873685 0.06652306 -0.21291688 -0.05792626 0.26086682 -0.24896428 0.3295063 0.27395734
before 0.01800569 0.0010204609 0.09970848 -0.17015946 -0.016303064 -0.02697508 0.0042970986 0.062468246 -0.0135296155 -0.026328279 -0.02211314 0.003387371 -0.010823996 0.052497823 0.31073532 -0.021667141 0.0152579015 0.13228461 0.092751175 0.023229899 -0.025291163 -0.08108822 -0.05920821 -0.03547835 0.057561025 -0.027475275 0.009991041 -0.040158078 0.05958887 0.018940097 -0.04291767 -0.006083318
another 0.0029361998 -0.014382001 -0.07739244 -0.065186046 0.10319572 -0.18500136 0.041127417 -0.061102405 0.096206084 -0.07657062 0.14482215 -0.13060501 0.07483496 -0.069731764 0.17722008 -0.12544787 -0.13118975 0.015463323 0.17024057 0.18454565 -0.0026106783 -0.021049555 0.1312808 -0.04577255 0.11034157 -0.11704164 -0.108370125 -0.12620528 0.095077455 0.114676066 -0.079873465 -0.12186375
didn't -0.113051325 0.18111952 -0.10483431 -0.21061371 0.025297482 -0.120178826 0.1751354 -0.14179003 0.14428686 -0.10974869 0.14670679 -0.054234266 0.0721363 -0.09327826 0.19946614 -0.1584894 -0.08713425 0.027270703 0.17983146 0.109145395 -0.22994097 -0.07708533 0.0442472 -0.10941844 0.13759105 -0.12217021 -0.027217371 -0.1974517 0.16322513 0.15296684 -0.13549642 -0.07643655
new -0.0075258515 0.06741623 -0.0650651 -0.11934095 0.019337943 -0.13498475 0.012496805 -0.007416074 0.0019510823 0.13397926 0.018865075 -0.029376147 0.033812802 -0.056102857 0.015176719 0.004080168 0.012368842 -0.33147812 0.22519591 0.36191127 0.019583918 -0.05670971 0.010973824 -0.008802928 -0.0088878535 -0.095012076 -0.04052599 -0.113961466 -0.0058497903 0.0102674505 0.024874004 -0.02336294
funny -0.013477205 -0.02590044 -0.017492121 -0.14692976 -0.029746588 -0.023375763 0.055275068 0.07955809 -0.09055097 0.021542951 -0.095687956 0.04318447 -0.011938826 0.01725867 0.05863353 0.02874594 -0.0057532396 -0.084631026 0.18939985 -0.06519712 -0.066084325 -0.04220537 -0.09288091 0.002454766 0.032343596 0.07336605 0.13586223 -0.09396771 -0.0059996373 0.029902078 0.02772478 0.0048923567
nothing -0.26801586 0.2394119 -0.28785682 -0.15506338 0.2982728 -0.3252302 0.25468868 -0.34970364 0.24335341 -0.30739668 0.31373417 -0.26244038 0.31755638 -0.3025015 0.52840924 -0.3389934 -0.28970265 -0.16223145 0.46798396 0.41398656 -0.23379764 -0.14666378 0.28048107 -0.27836952 0.30738232 -0.25362834 -0.3469419 -0.37526006 0.27329907 0.37206423 -0.27295843 -0.31987977
actually -0.048988074 0.049433336 -0.1036403 -0.43112433 0.11917023 -0.15978327 0.08209895 -0.16856493 0.09650205 -0.136434 0.11947943 -0.20119487 0.22312298 -0.146541 0.37501952 -0.07835037 -0.16137005 0.031003961 0.31324586 0.16549996 0.0055899434 -0.12759098 0.13943377 -0.10723317 0.23022176 -0.13373722 -0.20191263 -0.31600517 0.1449144 0.15194313 -0.040818635 -0.03195958
makes 0.14443341 -0.1261538 0.02331611 -0.14865309 -0.17201947 0.17165686 -0.10317284 0.18002751 -0.17018864 0.04739939 -0.15403679 0.15907483 -0.19805126 0.16101627 0.1830436 0.20223461 0.18253931 0.1413252 -0.06656954 -0.07152194 0.088200144 -0.13185138 -0.22838514 0.066922806 -0.22132473 0.16509813 0.15655868 0.051991772 -0.14035702 -0.18783472 0.14807022 0.23785415
director -0.030055033 0.022985041 0.032527618 -0.19514379 0.19076535 -0.12972648 -0.0025915087 -0.1139894 0.018263375 -0.0030833853 0.10935007 -0.08912769 0.087749824 -0.13516074 0.33848405 -0.027193723 -0.124175146 0.08199915 0.23087835 0.32281873 0.06271088 -0.022855766 0.06537693 0.030651797 0.112523586 -0.15279214 -0.10160636 -0.06386834 0.08943624 0.12278971 -0.032916125 -0.0888911
look 0.08797327 -0.0290772 0.01739243 -0.049050786 -0.189952 0.10848321 0.025779279 0.13806795 -0.08509462 -0.01590013 -0.10683167 0.16775677 -0.1264374 0.14801838 0.051778115 0.0919494 0.06143774 0.0740196 -0.12940869 0.08342463 -0.028602915 -0.18783766 -0.17599307 -0.013789505 -0.1275316 0.07694582 0.19282942 -0.07549452 -0.10674812 -0.12883282 0.087713175 0.049455076
find -0.07908734 -0.02604826 -0.12246592 0.0314835 -0.020105258 0.06169618 0.09101385 0.0026924084 0.048378363 -0.0979894 -0.025427705 0.018821143 0.03269568 0.02957905 0.14441007 -0.029483337 -0.03981401 0.0050164545 -0.09060423 -0.17618223 -0.096771665 0.0002848663 0.006942081 -0.013578691 -0.024960203 0.038334187 0.07454927 -0.036328267 0.019913893 0.025379505 0.0047639795 0.03112716
going -0.089468956 0.12311342 0.09910657 0.004764792 0.108115636 -0.119765654 0.04838035 -0.09211542 0.055903606 -0.06942619 0.1773577 -0.030950505 0.08805551 -0.06566092 0.23376082 -0.06170634 -0.09019428 0.118615344 0.009454648 -0.02626386 -0.098108605 -0.04189382 0.11441376 -0.07000062 0.049322583 -0.10853351 -0.038561318 -0.037262965 0.12724411 0.11267547 -0.082449324 -0.03662814
few -0.0049086805 -0.07042962 -0.121911645 -0.38477817 0.053565625 -0.09214674 0.010597276 0.037497234 -0.104296066 -0.22060083 0.06945448 0.009201506 0.048836805 -0.04117874 0.45625952 0.0025836492 -0.03246386 -0.021787751 0.33141643 0.1376155 0.022043455 0.015126031 -0.06333163 -0.037341636 0.10059599 -0.029375976 -0.07789908 -0.27736735 0.046632655 0.029011624 0.055399563 0.023808546
same -0.057705607 0.13274929 -0.009298472 -0.27740917 0.058912206 -0.058031242 0.13996716 -0.05588669 0.059305403 -0.07006026 0.088180065 -0.066926986 0.09404757 -0.012782561 0.2468105 -0.110264495 -0.085527845 -0.08892609 0.13260823 -0.041572087 -0.17699689 -0.26616916 0.123728536 -0.06446687 0.10137678 -0.06254927 0.07943944 -0.16489887 0.08478514 0.033207037 -0.056217395 -0.06648156
part -0.00062515575 0.07725815 -0.11635929 -0.17466865 0.014787259 -0.062024314 0.098530054 -0.03168447 0.012472917 -0.10727752 -0.022956898 -0.094431065 0.015558652 -0.07703998 0.15318786 -0.108722 -0.07041369 0.044013117 0.09811287 -0.009363927 -0.07335346 0.03435804 0.0039936495 -0.053833228 0.09846863 -0.013301944 -0.048066493 -0.08557994 0.11153566 0.07943631 -0.04703204 0.011783896
again 0.17234541 -0.038611606 0.20637792 0.011069689 0.070215054 -0.042456094 -0.14415841 0.07723742 -0.12810774 0.052153815 0.040845502 0.022016902 -0.011651908 0.021602372 0.325971 0.083954 0.097182035 0.06414823 0.19526981 0.13956895 0.12814039 -0.054673474 -0.008793908 0.11572374 -0.021621268 0.0140031 -0.07904907 -0.017803425 -0.01242661 -0.16664197 0.07831123 0.025260987
every 0.01057272 0.06250017 0.07501001 0.034539636 -0.093555525 0.09843812 -0.0669767 0.008091497 0.026627045 -0.04632782 -0.00243089 0.0756543 -0.008996517 0.045011863 0.08159279 0.02559571 0.024515241 0.115190536 -0.13334176 -0.048182007 0.016457973 0.076758176 -0.012684799 0.08214486 -0.012060568 0.04107791 0.11138439 0.018579436 -0.028998723 -0.047997124 0.09855738 0.08128704
lot 0.19931822 -0.16336878 0.15209565 -0.008294258 -0.116775565 0.0063701873 -0.13878421 0.083012745 -0.09094411 0.1696511 -0.0882373 0.097420886 -0.08075187 0.059941303 0.28846362 0.09265055 -0.0073468382 0.094943516 0.14314264 0.22048281 0.17538983 -0.03585996 -0.09583255 0.08942899 -0.041847605 0.02323341 -0.05330115 0.08745689 -0.0278274 -0.105443805 0.09448629 0.14348985
cast 0.00944899 0.061698794 0.08095647 0.18329182 0.0302587 -0.010624678 -0.009543897 -0.08110417 0.076587416 0.046371978 0.08728664 -0.052613266 0.025767924 -0.0069540236 0.123823464 0.013546507 -0.0146934595 0.09295329 0.0009872601 0.08259342 -0.017939292 0.043862488 0.03886416 -0.008435862 0.05398954 -0.03579764 -0.026395932 0.0025477177 0.003343897 0.04671432 0.0033674468 -0.014272514
us -0.0022991798 0.053286783 -0.1572586 -0.108494855 -0.14599214 0.04151563 0.06014991 0.041840363 -0.028794909 -0.047229975 0.012191609 0.06751881 -0.010620812 0.10743259 0.24589743 -0.08881976 0.06859127 -0.25010952 0.14954332 0.3026449 -0.114581585 0.042123493 -0.09435476 0.021359982 -0.045442324 -0.024345078 0.20622334 -0.20249413 0.03888817 0.007897938 -0.021674264 0.021685367
quite -0.061294623 0.0126476325 -0.14263627 0.001965267 -0.030538265 -0.0048958585 0.056604147 -0.010049253 0.10189802 0.0088138515 0.07667598 -0.010003613 0.030056667 -0.09253495 0.07305802 -0.10555622 -0.08380434 -0.1512998 0.013550525 0.053381108 -0.066488795 0.12551968 0.062141456 -0.14936566 -0.015832268 -0.08092809 -0.00921619 -0.08647493 0.084241025 0.068534814 -0.13372482 -0.06964368
down 0.038454708 0.008699689 0.10716422 -0.30911702 0.112856776 -0.089467205 -0.1039849 -0.05627893 0.05543112 0.011715091 0.06310468 -0.03875487 0.10328084 -0.09823131 0.36663583 0.113271184 -0.059343413 0.3286015 0.217841 0.01770206 0.11612009 -0.35219306 0.12482566 -0.001316014 0.087079115 -0.12263711 -0.092418574 -0.035669725 0.18820095 -0.044918146 -0.012492792 0.08071215
want -0.06545595 -0.010690811 -0.050225005 0.069907114 -0.0043665646 -0.10800838 -0.05149676 -0.11558746 0.099307545 -0.019195586 0.13030711 -0.050261278 0.11022032 -0.088814035 0.1329373 -0.057285633 -0.029975353 0.015424336 0.019493025 -0.012066618 -0.11852399 0.005623023 0.08012154 -0.13050234 0.10071459 -0.008916714 -0.10236163 -0.022026043 0.11220103 0.025757642 -0.047775593 -0.08772367
world -0.020940568 0.012753595 -0.013364217 -0.16449289 -0.0060773697 -0.020838937 -0.022307271 -0.0039990055 0.021267826 0.06375143 0.051318288 -0.009177234 -0.009984533 -0.024786185 0.0626605 0.09140178 -0.058101 -0.03895436 0.12038828 0.17623632 0.008356379 -0.09347064 -0.06209263 0.1480463 0.065393046 -0.07586699 0.011293465 -0.08471147 0.022108775 -0.0066310307 -0.0014876527 0.060307954
things -0.0035203965 -0.0029505335 -0.17735285 -0.15301509 -0.093090825 -0.043424252 0.16949613 0.034260277 -0.024824707 -0.09299213 0.018968692 0.043411456 -0.04705389 0.047645062 0.107742146 -0.02254068 0.0845735 0.028852487 0.07942925 0.0049034366 -0.1443022 -0.09798314 -0.023391454 0.0041092657 -0.055920128 0.11175476 0.049519613 -0.15048718 0.036512915 -0.0033791102 -0.02370529 -0.016071122
pretty 0.00073472265 0.046622023 0.07360613 0.095914036 -0.011956108 0.03588962 0.03172585 0.030947125 -0.0031541924 -0.00042971168 0.06312039 0.005014793 -0.06888751 -0.010958188 0.14895043 -0.047787543 0.015989142 0.07433315 -0.120951295 -0.15175577 -0.05386803 0.010538114 -0.02021433 -0.059873287 -0.053264268 0.03262028 0.08156574 -0.052954577 0.03672994 -0.006831595 -0.016068954 -0.037692618
young -0.014811411 0.022807455 -0.045600798 0.02527173 0.02483347 -0.07963406 -0.12988786 -0.054468453 -0.014579781 -0.011042489 0.0020831209 -0.04661683 0.04774136 -0.04456899 0.23287521 0.017149149 -0.078384206 -0.032206688 0.20754747 0.18179736 0.011821132 -0.0509828 0.07126287 0.029082667 0.048961803 -0.052895904 -0.002782312 -0.086038806 0.05876158 0.054467402 -0.012057922 0.06400645
seems 0.0034323493 0.11684198 -0.1454206 -0.33573702 -0.09831141 0.054292858 0.24350803 -0.04533097 0.083179876 -0.16555841 -0.017951315 -0.028584354 -0.06355994 0.06705779 0.14188929 -0.06937464 0.056341592 0.019925196 0.062430177 0.0083300425 -0.1878831 -0.15847671 -0.04340572 -0.020448923 -0.02244989 0.01145161 0.0125007285 -0.20278752 0.046541825 0.027621796 -0.022458734 0.09997137
around 0.044071484 -0.16440274 0.3762393 0.16271801 0.12293293 -0.15047082 -0.15094437 0.03423797 -0.05687591 0.15687555 0.026766518 -0.11413208 0.09024332 -0.07838453 0.31608683 0.08509728 -0.019592542 0.063925594 0.1449531 0.22315472 0.20447128 0.09409559 0.10454901 0.075819746 0.003202736 0.003371492 -0.1542705 0.20076798 -0.0087600695 0.018891806 0.09603832 -0.039658647
got 0.07414959 -0.10473175 0.22860841 -0.14047225 -0.012810912 -0.049493067 -0.13628225 0.022122199 -0.060261384 0.16827032 -0.007356606 -0.0077793417 0.016800731 0.047377624 0.19804877 0.07435433 0.048165403 0.19839369 0.08577407 0.19825096 0.11876589 -0.266479 0.08001202 0.110271595 -0.039909836 -0.051150516 -0.087246895 -0.0005005595 -0.026100056 -0.040281713 0.08895977 0.07870674
horror -0.1667587 0.13068019 -0.22056036 -0.14082798 0.00394848 -0.07964641 0.04129093 -0.090503186 0.13974807 -0.13929665 0.18971436 -0.091065556 0.0920149 -0.052152187 0.23579119 -0.15866934 -0.050665718 -0.19079137 0.24441154 0.12990786 -0.1784073 -0.14783393 0.073103435 -0.12116895 0.05676813 -0.04357639 -0.0021675506 -0.16123196 0.15975113 0.097747594 -0.100824 -0.1366671
however -0.04999588 0.032582983 -0.12301982 -0.21822011 -0.10260915 0.035820376 0.011568361 0.014309775 -0.030986927 -0.10452411 -0.010599237 0.054179937 -0.020124385 0.06973637 0.17434683 0.06800992 0.070090815 -0.11125767 0.13863353 0.22178161 0.0126975 -0.083153486 -0.076289244 0.022572841 0.023285983 0.00047414587 0.106239 -0.17398007 0.036441445 -0.034918804 0.02026131 0.0460911
can't -0.018622324 0.09914163 0.056503594 -0.3340948 0.04627077 -0.055756375 0.07420786 -0.072141185 0.003209522 0.07308221 0.08138003 -0.055601325 0.052458722 0.04953291 0.19402292 0.039178267 -0.014788566 -0.10874906 0.23980139 0.17750937 -0.07797986 -0.27615082 0.024162302 0.012140685 0.00541411 -0.062978216 0.07562309 -0.19643098 0.14580129 0.058133926 -0.032715984 0.03877888
fact 0.061986502 0.046710614 0.050957024 -0.32504436 0.086276785 -0.019744657 -0.021370294 0.006009617 -0.029541994 0.016363552 0.07602596 -0.049705587 -0.025961641 -0.06683388 0.40079013 0.042995147 -0.07164747 -0.14362176 0.3082019 0.35238147 0.19040841 -0.25254315 -0.07169728 0.16350356 -0.0011278975 -0.09501744 -0.011568376 -0.2398069 0.06368909 -0.017723422 0.10312925 0.07646571
take 0.052407827 0.007977527 0.13584253 -0.18587 -0.009895603 0.04540974 -0.08198082 -0.00011964001 0.0035014064 0.16062696 0.021477884 0.055518292 -0.10533786 0.09957616 0.19859762 0.092092656 0.044851795 0.34514472 0.054991104 -0.20287094 0.05365303 -0.31622514 -0.031099606 0.12798457 -0.06796484 -0.002863804 0.1762071 -0.024147592 -0.0048911422 -0.07815682 0.050969582 0.12674376
big 0.06503901 -0.029963331 -0.15754886 -0.32417277 -0.08757972 -0.06864964 0.108007416 0.008310223 -0.097051226 -0.11559466 -0.022205895 0.05418184 -0.0063345474 -0.015226791 0.31040248 -0.05187857 -0.036594566 -0.39914554 0.2577866 0.14218229 0.014243978 -0.10784464 -0.05051502 -0.028074296 0.006844354 -0.037002474 0.09805473 -0.2618553 -0.013041927 0.027130714 0.043801617 0.03650951
enough -0.23070128 0.1617283 -0.09755512 -0.301034 0.25897625 -0.24121422 0.19987552 -0.15707238 0.12992783 -0.23406476 0.22756937 -0.15107732 0.21421802 -0.14412303 0.39715093 -0.15209305 -0.17802133 0.02616102 0.4393082 0.2565346 -0.15337296 -0.09283442 0.25027767 -0.0522973 0.20003372 -0.18443532 -0.22180343 -0.2692282 0.26014373 0.17669019 -0.15228221 -0.097940505
long 0.055490803 -0.012219924 -0.020224411 0.11590986 -0.08985728 0.014602791 0.11023524 0.011296276 -0.062341765 -0.02598484 -0.07119138 0.06881743 -0.0732208 0.009889788 -0.17043927 -0.03222509 0.039268892 -0.07251954 -0.03537636 -0.10146505 -0.16154 0.12396211 -0.08538629 -0.013248805 -0.03830166 0.06727655 0.06077599 0.08969673 -0.07712162 -0.03720929 0.03834494 0.063048534
thought 0.10520591 -0.09774779 -0.006951199 -0.06357863 -0.12757753 0.057591528 -0.032591175 0.12129347 -0.052247003 0.048245117 -0.06988279 0.10728078 -0.12417559 0.12531137 -0.04734724 0.14272048 0.05763978 0.032800317 0.013696999 -0.010370482 0.102811605 -0.09579016 -0.028460193 0.102935314 -0.060749386 0.07261201 0.07684414 -0.011288008 -0.0055103484 -0.046751335 0.07312951 0.15593098
that's 0.042130172 -0.09862001 0.058006924 0.18363059 0.021622607 0.018752838 -0.07687617 0.06383812 -0.025140261 0.09653246 -0.035362124 -0.017906591 0.027032401 -0.010356404 -0.13476819 0.016023744 0.02613116 -0.035071425 -0.09011063 -0.0024577742 0.10062309 0.018221954 0.035258185 0.072667025 -0.025087455 0.048255194 0.031312592 0.12959234 -0.040635057 -0.055828232 0.022112604 0.0012574351
both 0.08989231 -0.023420224 0.048688486 -0.21140641 -0.1117791 0.04630418 -0.050958402 0.039525453 -0.1257769 0.20827368 -0.06299182 0.11311004 -0.07432821 0.07124385 0.2965095 0.13477369 0.08059128 -0.015967166 0.12631164 0.11175269 -0.00609207 -0.3359448 -0.12676892 0.040815957 -0.099987835 0.09070003 0.12751722 -0.121869996 -0.039235868 -0.05336279 0.07327719 0.17081685
between 0.17896889 -0.23824276 0.024883933 0.22302918 -0.23194878 0.18453693 0.058578342 0.19351138 -0.19163501 0.011612343 -0.21830204 0.18123469 -0.27144653 0.2699588 -0.13693386 0.018484866 0.20095204 -0.07802506 -0.11190309 -0.040612947 0.03991421 0.09306128 -0.22831346 0.086012706 -0.31633776 0.25668827 0.24306372 0.20382187 -0.29150692 -0.24092667 0.18687108 -0.03668545
series 0.060371626 -0.03714013 0.07515244 -0.22751833 -0.07253835 0.0136453165 -0.05152784 0.08021494 -0.05412987 0.05048471 -0.1256378 0.0413553 -0.11141104 0.09040718 0.15639739 0.07128341 0.104353406 -0.012587744 0.10088907 0.3134814 0.16189684 -0.1854961 -0.09801232 0.109195754 -0.058025535 0.040576536 0.059243288 -0.008458151 -0.038098313 -0.04711556 0.14489743 0.15779695
give 0.03579907 -0.055561524 0.047961876 0.042557914 -0.011020277 0.050556913 -0.10073498 0.10263444 -0.048311174 -0.006935134 -0.0073553105 -0.016683541 0.018924063 -0.04156013 0.2405538 0.05989699 -0.002934477 0.043147065 0.06814124 0.048000697 0.14689676 -0.023454683 -0.027661763 0.119329035 -0.026189685 -0.005890075 0.12814699 0.0013885987 -0.009618949 -0.036837164 0.051365104 0.05422148
may 0.035254113 -0.0135099385 0.25016478 0.027331414 0.121559605 -0.1130794 -0.25227103 0.06162081 0.014239182 0.20618872 -0.030346733 -0.0233685 0.023761248 0.04554065 0.19081537 0.15000148 0.041189786 0.2062506 0.17603898 0.116723485 0.07924738 -0.2333766 0.08540902 0.13526455 -0.0034828545 -0.044447646 0.0016952414 0.047004998 -0.012767055 -0.08626381 0.05604201 0.11833894
original -0.08638441 0.16707991 -0.052078076 -0.13781226 0.25237805 -0.17177987 0.11819089 -0.1080806 0.18404688 -0.13435347 0.14774343 -0.20388676 0.17574362 -0.18284684 0.31892252 -0.12505955 -0.19591647 -0.09251206 0.2784135 0.20246409 -0.086300336 -0.1255167 0.18077055 -0.13566263 0.13820061 -0.15926968 -0.1602057 -0.19001712 0.12750345 0.19122574 -0.1022399 -0.11427705
own 0.029373618 -0.046209592 -0.059216507 -0.06028049 -0.123741776 0.06404663 0.02820846 0.08822885 -0.07263754 0.00509037 -0.015682768 0.13188104 -0.10925436 0.14456601 -0.021664072 0.10533755 0.10947893 0.01559892 -0.07827465 -0.084990844 -0.016337048 0.015236147 -0.12730646 -0.05217149 -0.08550953 0.16032565 0.13065132 0.013217476 -0.12149774 -0.13263658 0.080382094 0.054131463
action 0.053800162 0.09762155 0.23433292 0.02870636 0.047780428 0.07964827 -0.13262504 0.052963365 -0.062116943 0.14946035 -0.09493214 0.0011092791 0.0023181962 0.03375626 0.01507869 0.07804644 0.04677044 0.3672042 -0.0048366203 -0.06877768 0.06572973 -0.16612144 0.006489107 0.097985364 -0.029861998 0.020905545 0.033565998 0.13139144 0.072501644 -0.13034798 0.04370433 0.10031825
i've -0.031175654 0.036223374 0.0732324 -0.0795998 -0.064661086 -0.10001032 -0.016153768 -0.033096615 0.057440106 0.008888041 0.1253612 0.04400265 0.06197882 0.025866348 0.28128237 0.01925217 -0.014258099 0.03765322 0.0704449 0.06889321 -0.17188345 -0.19359642 -0.007269773 0.040534794 0.057256788 0.018800378 0.08460953 -0.17699741 0.08847319 0.0028417823 -0.02060436 -0.06622786
right -0.011404424 0.06288087 0.0438093 -0.21866177 0.06445002 -0.038141124 0.004019598 0.003739458 -0.009094392 0.073089354 0.13783728 -0.052424505 0.03481 0.03409656 0.5289067 0.06896107 -0.048338417 -0.047099873 0.20156144 0.21178013 0.031003226 -0.28651503 0.0142798135 0.08729357 0.013683262 -0.026355626 -0.024738044 -0.10113905 0.1348156 -0.013599518 0.07379126 -0.023775522
without -0.05139076 -0.03281259 -0.15157683 -0.045684002 -0.15339161 -0.09753165 0.030840373 -0.062600404 0.041638073 0.03386825 0.045944434 -0.027797133 -0.019622095 -0.0059329844 0.052395612 -0.09850791 0.023392906 -0.26514047 0.20575258 0.31857067 0.012851683 -0.03780661 0.0062761423 -0.005684484 0.05073219 -0.03043593 0.07718681 -0.15426624 -0.034074128 -0.007076329 -0.0133332815 -0.051157728
always 0.21846618 -0.16602741 0.07540245 0.05139759 -0.18785213 0.06371151 -0.14783539 0.22214389 -0.11985305 0.10266668 -0.18095958 0.106773555 -0.18651837 0.23770192 0.03468753 -0.013634741 0.23365992 -0.10423452 0.09601885 0.08017622 0.010419527 0.11539496 -0.1387901 0.037100334 -0.17046562 0.18829927 0.106396325 0.031416148 -0.2525144 -0.23747736 0.16873601 0.15059237
times 0.1345779 -0.056995805 -0.049573198 0.24593078 -0.097835995 0.063436225 -0.045378525 0.17704491 -0.16154496 -0.0057900986 -0.16132614 0.13455641 -0.09049075 0.14191435 -0.006547042 0.019320121 0.1382134 -0.08337779 0.045795698 -0.1519637 -0.034867674 0.23277448 -0.12969549 0.01650806 -0.18723433 0.11492429 0.1019076 0.10815921 -0.14072019 -0.17686199 0.1017098 0.011969059
comedy -0.000121770434 0.20898597 -0.10345448 -0.42700973 0.028664978 0.05625473 0.08137687 -0.12423204 0.024035573 -0.014379801 0.054465566 -0.034978226 0.0017214646 -0.028287075 0.38559377 -0.022772994 -0.09492064 -0.119876154 0.32787645 0.21656385 -0.018344237 -0.18126665 -0.14853376 0.05863186 0.012004934 -0.061463602 0.092306495 -0.34618047 0.14992437 0.072123416 -0.083521165 0.010530435
point -0.1106236 0.13380605 -0.0741669 -0.17342442 0.19558719 -0.19385615 0.15801069 -0.18609388 0.09217468 -0.113832645 0.21038122 -0.13971096 0.2014019 -0.10632293 0.29419497 -0.13048676 -0.18200992 0.046366177 0.15917373 0.13034977 -0.14524518 -0.26503456 0.12770519 -0.17858806 0.21591136 -0.14808057 -0.19425084 -0.155529 0.23168235 0.16030747 -0.17070563 -0.08637787
gets -0.123965465 0.092646584 0.06889066 0.004660345 0.0900145 -0.14712834 0.08181059 -0.12762684 0.1584233 -0.039741445 0.09151541 -0.11162436 0.13411598 -0.15595123 0.06871506 -0.0766662 -0.09684464 0.0003878563 0.073428124 0.10426155 -0.12394444 0.0060419883 0.08993011 -0.062509954 0.08472418 -0.08414605 -0.10145465 3.5255416e-05 0.12365225 0.14156222 -0.118324034 -0.1307739
must 0.18023886 -0.124281436 0.24494274 0.039675415 -0.15973605 0.3637354 -0.1413561 0.24549967 -0.1537792 0.15129322 -0.09619735 0.20319556 -0.22111581 0.20185427 0.22622997 0.22513339 0.26165682 0.33648983 -0.14397469 -0.03707295 0.068793915 -0.10568024 -0.22341202 0.24686207 -0.23262548 0.16954456 0.21426171 0.23843524 -0.18310156 -0.21729518 0.2159972 0.21945263
come 0.13489331 -0.012841612 0.021554502 -0.003023716 -0.1804181 0.035036523 0.032458693 0.086685896 -0.17196612 0.017461907 -0.10928058 0.11634065 -0.11171361 0.12864932 0.18847826 0.12654732 0.1800146 -0.04759506 0.21445489 0.08861708 -0.06591835 0.024721837 -0.11890703 0.07092461 -0.13940716 0.16909991 0.05141172 0.029263834 -0.106897436 -0.169313 0.10508342 0.14410324
role 0.028520115 -0.038135555 -0.01383788 0.051736455 -0.02656065 -0.11040727 -0.028703026 -0.0078058597 -0.0040693036 0.061377298 -0.02647567 0.023976035 -0.03475983 0.062142916 0.022371689 -0.024168758 0.06477269 0.014480159 0.0644816 0.0049118414 0.09771154 0.016830906 -0.008163494 -0.033361524 0.026710408 0.009805163 -0.058496546 -0.003764265 0.027021088 0.029402869 0.0070571844 -0.0028109227
isn't -0.052395996 0.11821889 -0.084724836 -0.12602305 -0.084583454 -0.009556597 0.16615905 -0.1162614 0.07683855 0.10527859 0.059507336 -0.039706 -0.032782022 -0.008243581 0.320243 -0.043449186 -0.08189085 -0.13640018 0.110991776 0.2808072 -0.16326502 -0.23275198 0.07741394 -0.075496115 0.02122715 -0.13390297 0.051741373 -0.1974237 0.07932375 0.09832851 -0.11519964 0.015768971
saw 0.10674997 -0.07099081 0.12310496 0.09580824 -0.03225315 0.079235144 -0.050534546 0.067303166 -0.09855697 -0.032924805 -0.0826893 0.028874354 -0.059495002 0.076376416 0.28821334 -0.023178242 0.042411584 0.060383834 0.09734117 0.11585523 0.08536713 0.057936322 -0.025196731 0.07722813 -0.10991732 0.07830827 0.039374907 0.13920599 -0.119619876 -0.085585415 0.12915526 0.07736855
almost 0.068266936 -0.12985751 0.0039535575 -0.15626813 -0.088415205 -0.01064815 -0.0046639373 0.17275631 -0.1818012 0.08289056 -0.13665508 0.065145895 -0.12114603 0.100769624 0.13248514 0.10026878 0.05161458 -0.10605498 0.11361607 0.2111225 0.150434 0.010491889 -0.06055758 0.12908041 -0.09905969 0.050997343 0.055561047 -0.012986933 -0.16075562 -0.12048351 0.09794955 0.055753168
interesting -0.2387305 0.30573466 -0.2955077 -0.11732557 -0.022235855 -0.046061743 0.3311419 -0.13881929 0.16388896 -0.25943062 0.17844173 -0.025152689 0.100080825 -0.077859424 0.061059434 -0.18519177 -0.035802014 -0.1501027 -0.10910438 -0.05834822 -0.37447762 -0.05487769 0.033882204 -0.25111982 0.059675768 -0.05178237 0.041798327 -0.23976488 0.17301053 0.1088143 -0.2294537 -0.22478008
least -0.17238693 0.23200376 -0.09142832 -0.086186044 0.12396186 -0.14932719 0.13746049 -0.16518958 0.16795099 -0.10428867 0.17689683 -0.15466058 0.1258696 -0.20185885 -0.058685828 -0.24003842 -0.13912483 -0.1218755 0.18654712 0.19290172 -0.20571716 0.046079047 0.16590911 -0.17454194 0.19201963 -0.19872497 -0.121079355 -0.13330148 0.11753705 0.23285447 -0.16059943 -0.24882318
family 0.10917537 -0.1741409 0.21807934 -0.052577544 -0.111365415 0.08911356 -0.21421248 0.17702073 -0.09973212 0.23939262 -0.16625836 0.08771681 -0.100691855 0.12617324 0.03595221 0.11806856 0.12814757 0.06462623 -0.045131594 0.20972289 0.30772227 -0.060299244 -0.07527243 0.2186712 -0.11533222 0.15158367 -0.006987491 0.10872149 -0.116067335 -0.12896572 0.13830742 0.17478564
done -0.07763106 0.036956113 -0.26792848 -0.19866535 -0.22397567 0.18825302 0.10480861 0.08452007 -0.05317571 -0.11809892 -0.077294566 0.053513803 -0.0719766 0.1421521 -0.09972227 -0.0373543 0.043610703 -0.16980748 0.07248474 -0.13649777 -0.13920696 -0.0069659525 -0.07921196 -0.042071935 -0.03893702 0.035211585 0.35443428 -0.20341426 -0.026720243 0.0013446015 0.022734057 -0.0358175
there's -0.09489531 0.053732593 -0.2072922 -0.39943185 0.091319904 -0.2419601 0.21411876 -0.13494158 0.044637907 -0.21517695 0.15075287 -0.13314632 0.18517031 -0.12626456 0.36522877 -0.12191597 -0.18262652 -0.25860077 0.48520795 0.18466519 -0.121546276 -0.123255946 0.032527328 -0.16897924 0.15872376 -0.12678346 -0.086059734 -0.5152317 0.09166706 0.20902237 -0.09201208 -0.1705942
whole -0.16679518 0.19273071 0.09021222 -0.123457946 0.23379357 -0.27278036 0.09078207 -0.19066787 0.22126731 -0.06769684 0.19545372 -0.23600358 0.21329133 -0.22632216 0.21517637 -0.1388163 -0.18275374 -0.03791469 0.21524236 0.3183974 -0.115681715 -0.011223132 0.267955 -0.067228794 0.21205708 -0.2234574 -0.30886236 -0.1663744 0.2124298 0.17125352 -0.12552556 -0.17323068
bit 0.096161366 -0.13735053 0.03562621 -0.022970118 -0.15118596 -0.0064959945 -0.017037295 0.09431661 -0.07461706 0.09638247 -0.10448834 0.060011156 -0.020035796 -0.0055198637 -0.002659918 -0.0724332 0.01557895 -0.16939501 0.16380873 0.09620661 0.09753378 0.15877678 -0.07483313 0.08137587 -0.10169507 0.0823064 -0.0056218226 0.08425851 -0.14444028 -0.090290785 0.15366155 0.047436114
music 0.029363336 0.04662435 0.19915356 0.2103185 -0.06798142 0.087595746 -0.06810486 0.08435168 0.035570562 0.06874857 -0.12883936 0.06622245 -0.10531072 0.105596036 -0.15564363 -0.055327542 0.07844838 0.050887387 -0.1603044 0.096307375 -0.13078114 0.01815819 -0.022481507 0.034031317 -0.07616543 0.10950616 0.08989336 0.13994144 -0.015146129 -0.07071646 -0.04042842 -0.04925278
script -0.15102956 0.124063306 0.10083223 0.22722122 0.1801759 -0.039561152 0.097652726 -0.13166022 0.21188222 -0.0989554 0.19381471 -0.114127725 0.1520962 -0.09387057 0.019209022 -0.024432825 -0.09403299 0.15702261 0.030142657 0.043875437 -0.12637186 0.04336296 0.12805817 -0.015625333 0.11690979 -0.18578759 -0.19565079 0.07094343 0.22201876 0.0710299 -0.12949614 -0.046863127
far 0.07725871 0.019128937 -0.20894943 -0.38446337 -0.12897465 -0.017090835 0.13008493 0.0024759031 -0.03943268 -0.114039645 -0.035976306 0.06291498 0.0012130946 0.07390992 0.114659905 -0.033131197 0.085264534 -0.044005997 0.0931571 0.10669905 -0.08315237 -0.300238 -0.022769049 -0.038141996 -0.029046513 0.054552455 0.097705856 -0.22891006 0.12941179 -0.004769463 0.0030044825 0.06741675
making -0.10799043 0.09201083 0.08233931 -0.18636215 0.13293965 -0.04311824 0.075853854 -0.05255982 0.024839213 -0.046381798 0.1422047 -0.089814745 0.12254708 -0.08140285 0.15466537 -0.002611792 -0.067728736 0.094719134 0.09447674 0.0013868177 -0.092766196 -0.2510148 0.09399567 -0.043656886 0.0641592 -0.050011504 -0.094045974 -0.114543565 0.1092508 0.06772302 -0.061183356 -0.03191594
guy 0.05260411 0.039928015 0.0673068 0.22271885 -0.13769682 0.13822088 0.054343887 0.13142295 -0.08941513 -0.038235053 -0.09923425 0.13051097 -0.08372763 0.13217156 -0.16918279 -0.04963417 0.12158565 0.15551087 -0.27923656 -0.32561463 -0.13280864 -0.013396138 -0.06497468 -0.027677795 -0.16303761 0.093393214 0.1455933 0.22794463 -0.13139373 -0.13586074 -0.018796762 0.05381267
anything -0.0797554 0.1747434 -0.03960038 -0.032923166 0.06257877 -0.09214534 0.05837513 -0.056693383 0.060460147 -0.019038556 0.12987234 -0.021355588 0.121075876 -0.023517156 0.07788891 -0.104186915 -0.031938788 -0.1730802 0.15529165 0.15994644 -0.080824874 -0.104087956 0.055725113 -0.054176074 0.057784367 -0.11789355 0.030557478 -0.15698168 0.17432974 0.10310711 -0.048115335 -0.07933222
minutes -0.13875377 0.19655465 -0.18196958 -0.17171913 0.07571359 -0.05631716 0.14180243 -0.1908652 0.20658943 -0.15939163 0.17764191 -0.17382726 0.16665421 -0.20223205 0.3381538 -0.1956098 -0.13629772 -0.010531935 0.09825709 0.15706097 -0.2702947 -0.19233267 0.12497524 -0.21551153 0.19720398 -0.16820355 -0.12577309 -0.22832872 0.1764988 0.21409851 -0.23051088 -0.12071765
feel -0.028197045 -0.023718303 -0.12972316 -0.30527478 -0.11359075 -0.02951026 0.10672505 -0.03824611 -0.013962574 -0.0702074 0.06521944 -0.021331897 0.05352463 -0.048528645 0.32473052 -0.13276415 -0.07784912 -0.321954 0.31081364 0.2903854 -0.046082515 0.078534015 -0.004686752 -0.08900591 0.0039993837 -0.05063307 0.027927898 -0.24139252 0.010914975 0.060580116 0.019877506 0.016266959
last 0.09695131 -0.053119525 -0.03204492 0.098265536 -0.12085618 0.036013447 -0.060444217 -0.016164346 -0.03579509 9.206226e-05 -0.08922263 0.0072749606 0.042424325 0.027861888 -0.31555125 -0.015817015 0.06086539 -0.06812054 -0.06632747 -0.14577585 -0.057373345 0.036582466 0.06539122 -0.07708317 -0.06476066 -0.033336267 0.12648697 0.13359046 -0.061470054 -0.061319813 0.0060518356 0.024746297
since 0.1364932 -0.16700886 0.4074891 0.18183757 0.15648511 -0.13298653 -0.1667794 0.0047699395 0.02111498 0.19559842 -0.013457815 -0.011730623 0.04219942 -0.029725634 0.15935794 0.12694648 0.027469529 0.30058846 0.13767552 -0.06732539 0.11950941 -0.13167074 0.08059412 0.15837336 0.011826129 0.0137343975 -0.22140285 0.2709695 0.016940098 -0.02785932 0.05854827 0.05645433
might 0.029296074 0.022517813 0.022695523 -0.08780153 0.079375185 -0.111777365 0.07501558 -0.06230447 0.040373463 -0.03707456 0.109068975 -0.12243498 0.044348307 0.0049743867 0.34482673 -0.11153275 -0.014713813 -0.04121703 0.17391457 0.13781689 -0.10927897 -0.10012202 0.121207945 0.011339323 -0.006565027 -0.082250014 -0.06099703 -0.16431782 0.030731874 0.04975861 -0.034919187 0.006862008
performance -0.03376277 0.008174011 0.095535874 -0.06687928 0.09521499 -0.0227458 -0.028921843 -0.006795898 -0.0029528455 0.02466529 0.07853066 -0.004661894 0.056760106 -0.041756198 0.03487272 0.036557436 -0.019150756 -0.026345752 0.11705512 0.043722644 0.031670786 -0.19716378 0.033592835 -0.0077626244 0.08212292 -0.03560238 -0.064350925 -0.0027285002 0.05009788 0.06419908 0.017234761 -0.05527858
he's -0.047599103 0.003907352 -0.0008061711 0.01908376 0.08817207 -0.09140392 0.05060658 -0.02412574 0.03032011 -0.06845851 0.06745968 -0.0742397 0.1333427 -0.12956688 -0.004258202 -0.026166078 -0.12477916 0.016838929 0.11778688 0.043081228 -0.026319472 0.011409989 0.086543806 -0.070252426 0.059917223 -0.14834951 -0.15352692 -0.00044052806 0.13977934 0.05423218 0.011405427 -0.062408768
2 -0.019160835 0.15444194 0.006952574 -0.3171426 0.22622576 -0.21929584 0.0049823313 -0.14300288 0.10848646 0.047844052 0.2890449 -0.15812507 0.111129746 -0.17246938 0.5696562 0.0011079527 -0.23916571 -0.12856987 0.3699593 0.4969258 -0.029954148 -0.6174642 0.13198322 -0.035399947 0.122167975 -0.16904558 -0.1896027 -0.47552207 0.19998178 0.17967471 -0.045864843 -0.06428356
probably -0.05332468 0.13888225 -0.23745713 -0.22018343 -0.11873176 -0.0714024 0.18435258 -0.09279397 0.01595975 -0.09540054 0.099157475 0.020256953 0.034593742 0.047233507 0.05653189 -0.120492265 -0.08113129 -0.34640184 0.19656225 0.30370733 -0.16105759 -0.08381402 0.0077875317 -0.105080865 0.07565588 -0.016449489 0.07849964 -0.31315744 0.11599829 0.11617691 -0.060835253 -0.13263614
kind -0.10714013 0.066381834 -0.045212872 -0.10136599 -0.016590659 0.089168504 0.118639365 -0.020015538 0.096405774 -0.110102125 0.052678004 -0.018575778 -0.034502782 0.039216388 -0.1028714 -0.05332846 0.029757457 0.16598257 -0.044950545 -0.36082298 -0.1876444 -0.06870635 0.035984855 -0.07575198 0.053742725 -0.006286121 0.038404323 0.0018679798 0.052681968 0.034599483 -0.043394063 0.032360684
am 0.050526064 -0.009406338 0.11237877 0.034258712 0.025655929 0.029845184 -0.064827114 0.015671995 -0.035991088 0.11620573 0.035965133 0.08211085 -0.06569201 0.05365293 0.19373095 0.03518006 0.095854014 0.089083366 0.006451277 0.161431 0.036749236 -0.0810932 -0.026057107 -0.0027771967 -0.06882794 0.039297078 -0.01762892 0.022697719 -0.0392656 -0.09125225 -0.03467047 0.040489785
away 0.16248974 -0.08158212 0.26329687 -0.028283883 0.17453046 -0.03281253 -0.13317797 0.06299959 -0.07198027 0.26202404 0.03390215 -0.027971618 -0.032942194 0.025700778 0.14782108 0.24452533 0.011392182 0.113463536 0.14708671 0.12855169 0.19859831 -0.04281997 0.0018812158 0.24224725 -0.052000776 0.046381053 -0.054096997 0.076720014 -0.09305321 -0.067731425 0.18011002 0.120388106
yet 0.04892361 0.02576221 -0.17245498 0.042726055 -0.14696668 0.16416776 0.19435515 0.16703668 -0.109711036 -0.07097624 -0.15673745 0.22659852 -0.16450319 0.17687292 -0.03023201 0.027669083 0.1291669 -0.1660654 -0.15000041 0.07762174 -0.1573949 -0.13515821 -0.17705762 0.035709642 -0.2317524 0.14259475 0.2573802 -0.08873277 -0.055930085 -0.13302873 0.0552379 0.026666423
rather 0.05392667 -0.055134963 0.28618193 0.10189666 0.14549607 -0.04600622 -0.22950953 0.016186193 -0.031443976 0.054933283 -0.03541756 -0.05721754 -0.01334205 -0.032804884 0.3495781 0.0077929404 -0.019621337 -0.07148273 0.21101281 0.47595114 0.12550913 0.13088767 0.04971569 0.17732446 -0.02499431 -0.052921835 -0.15779032 0.13537337 -0.03923637 -0.018491086 0.14769362 0.027913189
tv -0.010618668 0.051538534 0.048338756 -0.04827797 0.09152206 0.09254482 0.17042536 0.08215295 0.010002742 -0.030178037 0.015467763 0.039881684 -0.070076905 0.06915401 -0.007900379 -0.042018425 0.055815544 -0.015333084 0.0028832527 -0.17219163 -0.15430766 -0.056552194 -0.015887368 0.026570398 -0.04052442 0.06617152 0.13360493 0.037608296 0.0074156476 -0.055465527 -0.0173822 0.08672629
worst -0.58514845 0.6063604 -0.36088914 -0.49437508 0.6034142 -0.37552786 0.32561702 -0.72896975 0.56400776 -0.29590288 0.7204839 -0.5759474 0.5129818 -0.6734349 0.45935377 -0.4353882 -0.61951536 0.22216314 0.5163956 0.45564163 -0.449369 -0.5769352 0.632434 -0.55868804 0.6946212 -0.59213763 -0.5217077 -0.25688702 0.6908679 0.6643778 -0.5241045 -0.59042585
girl -0.0038685391 0.01267938 0.03381805 -0.070351236 0.054197215 -0.056652922 -0.113481104 0.002119129 -0.011525684 -0.0051581594 -0.018928576 -0.064582475 0.086096294 -0.04913121 0.095101066 -0.06291177 -0.0712861 -0.045584347 0.07626742 0.034536168 0.117182575 0.06777213 0.03549078 0.011408413 0.017626056 -0.07359432 0.018007686 -0.04674748 0.026335953 0.0717445 -0.018669259 -0.012586175
day 0.056916222 0.0363611 0.2851622 -0.0028068079 -0.019355807 0.10787347 -0.0062587783 0.0722307 -0.09189655 0.11267687 0.017870758 0.09788815 -0.13228787 0.13664348 0.069227956 -0.018086476 0.10406166 0.2115775 0.044940535 0.04660947 -0.08896101 -0.08946585 -0.12899321 0.16736713 -0.039884124 0.061344642 0.10221196 0.031847112 0.006135354 -0.141443 0.017189182 -0.011706772
sure 0.13095301 -0.13928704 0.4238314 0.11502101 0.07991906 0.027322305 -0.17371714 0.18978631 -0.110630676 0.20318185 -0.11076797 0.06291749 -0.090630665 0.07129112 0.20345844 0.18780684 0.05094433 0.26067573 0.10352002 0.23215698 0.137199 -0.21267392 -0.07595792 0.22171578 -0.031011527 0.05904834 -0.0842539 0.08469899 -0.0243863 -0.14300409 0.10310196 0.13735516
fun 0.3105313 -0.21676764 0.27180445 -0.1303955 -0.25507477 0.26566464 -0.30056712 0.19202687 -0.19884633 0.26693895 -0.17596656 0.17635128 -0.21307191 0.12702893 0.11812591 0.20184311 0.106470235 0.3918552 -0.054824244 0.06677503 0.23713762 -0.2478091 -0.17845343 0.24285755 -0.074409954 0.12902413 0.17575946 0.16347976 -0.048108418 -0.22854519 0.2456278 0.3391751
hard -0.056637187 0.012623559 -0.23487477 -0.066094436 0.011855417 -0.05779141 0.05412603 -0.043281853 0.037277423 -0.1007169 0.03364357 -0.05761161 0.08307954 -0.008496707 0.006280902 -0.10792008 -0.04334133 -0.051859643 0.03243754 0.052801307 -0.109264314 0.014907171 0.05252435 -0.096164554 0.012868911 -0.01217468 0.028185042 -0.09880821 0.045493267 0.08304052 -0.056576703 -0.05005808
woman 0.056340635 0.043484695 0.053674888 -0.087209225 -0.0022419677 0.053428028 0.024249926 0.014394124 0.052264046 -0.012030967 -0.02430718 -0.021462468 -0.032796938 -0.032727577 0.19720754 0.045970798 -0.06555157 0.016514113 0.1330619 0.20652138 0.0728594 -0.09282702 0.03341945 0.0029747263 0.024376191 -0.021267584 -0.035356954 -0.088507034 0.059504155 -0.025397971 -0.018034032 0.048504964
played -0.0052778292 -0.066207826 0.09964155 -0.13654831 0.17259519 -0.045587916 -0.10405525 0.0016306363 -0.00021399993 0.075552754 0.020530226 -0.09479461 0.06390339 -0.042819735 0.27112693 0.040929433 -0.02082356 0.1745695 0.119167976 0.11612474 0.099450454 -0.22973183 0.062274512 0.20585166 0.033429302 -0.097554706 -0.10681281 -0.04385597 0.03789694 0.0006236859 0.07474869 0.03854421
each 0.16268454 -0.09354656 0.1318214 0.04228672 -0.109421805 0.19147807 -0.0699105 0.15401816 -0.22365436 0.048708867 -0.20126379 0.10933413 -0.18821362 0.092106834 0.09801477 0.14465205 0.15181465 0.2690673 -0.05088035 -0.028553952 0.06993657 0.044084687 -0.17302978 0.14375032 -0.13122132 0.15923314 0.14404875 0.16607893 -0.099881105 -0.17923418 0.18054493 0.25520536
found -0.030898487 0.10449618 -0.104918264 -0.13396364 0.049891982 -0.11815819 0.107241005 -0.050620776 0.0709781 -0.069720544 0.065635726 -0.06629824 0.0893403 -0.05184631 0.22372605 -0.06766611 -0.036629047 -0.11234794 0.0896314 0.14975008 -0.16931567 -0.06676246 0.04766308 -0.08329625 0.0271734 -0.08464533 -0.00798554 -0.19019882 0.059936695 0.07616964 -0.036172595 -0.06160687
anyone 0.16335575 0.1273939 0.45061174 -0.0021221268 0.038354576 0.037975613 -0.22478707 -0.0016889711 -0.0314515 0.31268826 -0.031075304 0.08174896 -0.06388914 0.07383 0.13469419 0.1685118 0.07002445 0.36012712 -0.038676497 0.048538357 -0.048650004 -0.40056834 0.018722381 0.14378765 0.02581006 0.007785079 0.014937818 0.15457319 0.088546544 -0.13921581 0.038705703 0.10697448
having 0.07289763 -0.06328243 0.119671136 -0.20974919 -0.06787913 -0.006436319 -0.08878952 0.039861903 -0.022884414 0.0838506 0.04098954 0.015195135 -0.042663403 0.011216031 0.1884998 0.071235254 0.03715784 -0.011056243 0.09890911 0.08694403 0.059389595 -0.22760916 -0.032136627 0.03272157 -0.079516985 0.018816978 0.0046219137 -0.0316574 -0.044493224 -0.10800717 0.039173357 0.12330044
although -0.04620264 -0.0010918546 0.06014886 -0.027439471 -0.010752629 0.022950526 0.011627928 -0.009453757 -0.028967597 0.017774649 0.019199576 -0.021060651 0.022797551 -0.026759597 -0.007241697 -0.036140036 0.070449 0.15886672 0.046319287 -0.10254435 -0.13287584 0.082612835 -0.02042511 -0.025726467 -0.0320509 0.037114713 -0.0063263825 -0.027497774 0.055697445 0.02076144 -0.047999717 -0.042384777
especially 0.16733053 -0.12803014 -0.14846203 -0.067843184 -0.18190552 0.08071012 -0.048549924 0.1246406 -0.08162232 0.070246324 -0.036141116 0.13143 -0.15005454 0.14088012 0.14781238 0.009907925 0.087424934 -0.07487885 -0.0014506382 0.029714752 -0.025075488 -0.026571112 -0.18568693 -0.0493206 -0.13220815 0.15610784 0.19476222 -0.12363082 -0.09987218 -0.10850738 0.11569657 0.117462255
our 0.15816073 -0.18068285 0.18486966 -0.01469043 -0.08444752 0.19019276 -0.1387573 0.16410635 -0.14170149 0.09122728 -0.24260983 0.12737623 -0.16760722 0.13980594 -0.104834445 0.1383565 0.13041013 0.06268554 -0.09560006 0.027812768 0.22967646 0.07032315 -0.17699742 0.2422626 -0.12553844 0.19289967 0.16188723 0.21304587 -0.15545578 -0.2098524 0.24757552 0.14347431
